%YAML:1.0
my_svm: !!opencv-ml-svm
   svm_type: C_SVC
   kernel: { type:RBF, gamma:1.5000000000000001e-04 }
   C: 5.0000000000000000e-01
   term_criteria: { epsilon:1.1920928955078125e-07, iterations:1000 }
   var_all: 97
   var_count: 97
   class_count: 2
   class_labels: !!opencv-matrix
      rows: 1
      cols: 2
      dt: i
      data: [ 0, 1 ]
   sv_total: 2000
   support_vectors:
      - [ 1.73126727e-01, 8.69494438e-01, 4.46688861e-01, 1.46896720e-01,
          1.31413117e-01, 0., 7.95271918e-02, 1.30701363e-01,
          1.10768132e-01, 6.07347721e-03, 1.11822046e-01, 9.45281386e-02,
          8.08694363e-02, 1.14775084e-01, 1.54577374e-01, 1.48033589e-01,
          6.07328117e-02, 1.36246428e-01, 5.33796772e-02, 2.01939046e-01,
          45., 9., 4., 21., 14., 4., 6., 2., 12., 3., 2., 1., 1., 1., 1.,
          18., 10., 14., 5., 2., 10., 16., 3., 8., 5., 2., 13., 20., 2.,
          7., 9., 18., 0., 5.61920684e-43, 0., 2.94854909e-01,
          8.39815736e-01, 0., 3.88948739e-01, 3.03287596e-01,
          7.90650770e-02, 3.77947569e-01, 2.04708546e-01, 1.28864989e-01,
          1.41435906e-01, 0., 0., 4.77360994e-01, 7.67338872e-01,
          2.44744331e-01, 4.09062117e-01, 9.93279874e-01, 0.,
          4.82657291e-02, 5.00051416e-02, 0., 3.53589766e-02,
          3.50800544e-01, 0., 1.42403767e-01, 1., 2.99427569e-01,
          1.45788789e-01, 4.90169287e-01, 0., 3.04000646e-01,
          3.11777413e-01, 0., 3.45854968e-01, 3.10557634e-01, 0.,
          2.04573974e-01, 7.21487224e-01, 1.07272983e-01, 3.15684646e-01,
          7.04224646e-01, 0. ]
      - [ 0., 3.38896747e-38, 0., 3.38907957e-38, 0., 3.38919168e-38, 0.,
          3.38930378e-38, 0., 3.38941588e-38, 0., 3.38952799e-38, 0.,
          3.38964009e-38, 0., 3.38975220e-38, 0., 3.38986430e-38, 0.,
          3.38997640e-38, 0., 3.39008851e-38, 0., 3.39020061e-38, 0.,
          3.39031271e-38, 0., 3.39042482e-38, 0., 3.39053692e-38, 0.,
          3.39064903e-38, 0., 3.39076113e-38, 0., 3.39087323e-38, 0.,
          3.39098534e-38, 0., 3.39109744e-38, 0., 3.39120955e-38, 0.,
          3.39132165e-38, 0., 3.39143375e-38, 0., 3.39154586e-38, 0.,
          3.39165796e-38, 0., 3.39177007e-38, 0., 3.39188217e-38, 0.,
          3.39199427e-38, 0., 3.39210638e-38, 0., 3.39221848e-38, 0.,
          3.39233058e-38, 0., 3.39244269e-38, 0., 3.39255479e-38, 0.,
          3.39266690e-38, 0., 3.39277900e-38, 0., 3.39289110e-38, 0.,
          3.39300321e-38, 0., 3.39311531e-38, 0., 3.39322742e-38, 0.,
          3.39333952e-38, 0., 3.39345162e-38, 0., 3.39356373e-38, 0.,
          3.39367583e-38, 0., 3.39378794e-38, 0., 3.39390004e-38, 0.,
          3.39401214e-38, 0., 3.39412425e-38, 0., 3.39423635e-38, 0. ]
      - [ 3., 1., 1., 16., 13., 11., 1., 3., 11., 12., 2., 11., 1., 3.,
          19., 18., 4., 10., 7., 18., 0., 5.61920684e-43, 0., 0.,
          1.96204647e-01, 0., 3.66906494e-01, 3.87004554e-01,
          1.03324838e-01, 0., 3.00431371e-01, 0., 9.96458158e-02,
          3.14223230e-01, 4.70262729e-02, 3.61425251e-01, 1., 0., 0.,
          3.88722450e-01, 9.41149890e-02, 1.71396025e-02, 2.92929649e-01,
          1.99235380e-01, 1.19915754e-01, 1.40076295e-01, 1.61906004e-01,
          5.22098958e-01, 7.44424701e-01, 2.21657559e-01, 1.47169203e-01,
          3.09298158e-01, 1.66000709e-01, 0., 3.28795344e-01, 0., 0.,
          6.88363612e-02, 0., 4.54567432e-01, 6.52517855e-01,
          1.09693453e-01, 3.43001097e-01, 2.26491481e-01, 7.76028484e-02,
          7.24662691e-02, 5.19170821e-01, 0., 1.39377385e-01,
          2.76366085e-01, 3.09615642e-01, 9.76709183e-03, 7.85802230e-02,
          8.28377530e-02, 8.57076794e-02, 7.71480352e-02, 7.35072270e-02,
          1.29863573e-03, 7.20663518e-02, 6.64117932e-02, 5.98231591e-02,
          7.26820007e-02, 8.64246488e-02, 2.02103287e-01, 8.76855031e-02,
          2.10831285e-01, 7.85788298e-02, 2.55037308e-01, 44., 7., 10.,
          11., 11., 4., 5., 0., 12. ]
      - [ 8., 3., 6., 6., 4., 9., 1., 20., 0., 5.61920684e-43, 0., 0.,
          3.96316767e-01, 0., 7.03322515e-02, 2.09775165e-01, 0.,
          2.28344187e-01, 0., 2.03505397e-01, 4.82267775e-02,
          4.46582228e-01, 0., 2.69464314e-01, 2.91769326e-01,
          2.10385680e-01, 4.04196493e-02, 2.87502438e-01, 0.,
          1.08624540e-01, 4.23149765e-01, 1.13039091e-01, 1.08627804e-01,
          3.56737852e-01, 4.31569040e-01, 1.52337074e-01, 1.18565381e-01,
          0., 5.46256423e-01, 2.76714236e-01, 0., 5.38928658e-02,
          6.49995148e-01, 1.12274341e-01, 2.42517889e-01, 3.05147797e-01,
          1.11102983e-01, 1.51078805e-01, 0., 1.05474852e-01,
          6.94423676e-01, 5.16155303e-01, 1.01562329e-01, 0., 1., 0.,
          1.88625023e-01, 3.11621249e-01, 8.76932293e-02, 1.90960065e-01,
          7.33319521e-02, 1.05286844e-01, 7.94959962e-02, 1.07512258e-01,
          5.07811643e-02, 4.70917532e-03, 7.67831430e-02, 1.07204705e-01,
          5.87997511e-02, 8.35346505e-02, 9.00521800e-02, 1.79754198e-01,
          7.48682916e-02, 1.78210139e-01, 6.44517019e-02, 2.24058613e-01,
          51., 8., 7., 17., 7., 1., 9., 3., 13., 2., 1., 4., 5., 6., 1.,
          9., 21., 9., 7., 4., 5. ]
      - [ 7.55200088e-02, 7.88576454e-02, 7.68781304e-02, 2.06096426e-01,
          9.17410702e-02, 2.05937147e-01, 7.74530023e-02, 2.80043930e-01,
          55., 11., 11., 4., 11., 9., 8., 2., 11., 2., 3., 5., 3., 7.,
          2., 0., 36., 12., 8., 5., 9., 21., 6., 9., 8., 4., 7., 1., 6.,
          7., 1., 4., 0., 5.61920684e-43, 0., 1.43387869e-01,
          1.93079516e-01, 1.47800833e-01, 1.18911333e-01, 4.16143447e-01,
          0., 9.16504860e-02, 1.03549600e-01, 8.87679495e-03,
          1.78367004e-01, 5.73663116e-01, 0., 0., 2.66564399e-01,
          4.65668142e-01, 3.07148844e-01, 6.81669533e-01, 0.,
          1.76164936e-02, 3.05983692e-01, 0., 1.41480327e-01,
          8.40978920e-01, 0., 4.10507113e-01, 8.68296921e-01, 0.,
          6.69426799e-01, 3.26637655e-01, 0., 1.14252843e-01, 0.,
          1.79123789e-01, 3.21501017e-01, 0., 1.57566711e-01,
          2.67669797e-01, 7.56053925e-01, 0., 4.61623788e-01, 1.,
          4.02174711e-01, 6.97483718e-02, 1.27034336e-01, 1.48475975e-01,
          2.11397931e-01, 1.51027635e-01, 1.33038074e-01, 1.17366396e-01,
          1.04199745e-01, 1.22693799e-01, 9.15947556e-02, 9.32480991e-02,
          8.04349408e-02 ]
      - [ 8.70231166e-02, 6.46644905e-02, 8.04613307e-02, 9.53127593e-02,
          7.87251592e-02, 4.36183065e-03, 8.55628625e-02, 7.03579709e-02,
          5.96365668e-02, 9.31701958e-02, 9.46229249e-02, 2.00829536e-01,
          8.52593184e-02, 2.03430429e-01, 7.07552135e-02, 3.14162046e-01,
          25., 7., 2., 10., 1., 10., 6., 11., 10., 1., 6., 7., 7., 9.,
          10., 22., 19., 6., 4., 4., 3., 4., 7., 5., 1., 2., 14., 16.,
          6., 9., 8., 36., 0., 5.61920684e-43, 0., 0., 2.15289831e-01,
          4.68596444e-02, 1.78145304e-01, 0., 7.33780041e-02,
          6.55032843e-02, 9.34249908e-02, 1.32122889e-01, 1.55468583e-01,
          4.96994257e-01, 2.00378180e-01, 1.03645720e-01, 3.60749096e-01,
          9.40161571e-02, 4.81997728e-01, 2.43933454e-01, 1.10693678e-01,
          1.05451882e-01, 2.17938498e-01, 0., 1.55468583e-01,
          3.42335105e-01, 0., 2.16675699e-01, 1.97082758e-01,
          7.44337291e-02, 3.88671458e-01, 0., 5.34177795e-02,
          4.88262475e-02, 3.12202215e-01, 0., 9.48607177e-02,
          9.05965209e-01, 0., 4.06643599e-02, 6.24660179e-02,
          1.31205291e-01, 4.46610302e-01, 3.12456518e-01, 0., 0.,
          2.29635879e-01, 8.52106139e-02, 2.60733783e-01 ]
      - [ 1.17166333e-01, 2.46140182e-01, 7.31067136e-02, 9.79024321e-02,
          7.57652447e-02, 7.91934356e-02, 0., 4.97682765e-03,
          7.71845728e-02, 9.70330760e-02, 5.90982176e-02, 9.16953012e-02,
          9.64107364e-02, 2.10913032e-01, 9.36832353e-02, 2.14860424e-01,
          7.38971531e-02, 2.94141352e-01, 41., 13., 19., 6., 10., 3., 5.,
          3., 18., 6., 6., 1., 6., 2., 3., 2., 23., 8., 12., 6., 8., 7.,
          9., 13., 11., 11., 4., 5., 10., 8., 4., 5., 0., 5.61920684e-43,
          0., 3.18646878e-01, 6.82660043e-01, 0., 5.90873361e-01,
          6.45282030e-01, 0., 0., 5.24626613e-01, 0., 1.59480006e-01,
          4.37956691e-01, 3.80368799e-01, 3.61964256e-01, 2.76312709e-01,
          0., 3.37554276e-01, 9.05856550e-01, 1.21335745e-01,
          1.78909034e-01, 3.80600989e-01, 3.04907143e-01, 2.39141211e-01,
          7.09938228e-01, 2.51536667e-01, 2.98472822e-01, 8.98722589e-01,
          0., 1.94610789e-01, 2.39807785e-01, 1.08421788e-01,
          1.48061916e-01, 9.72105920e-01, 1.19944990e-01, 2.76422411e-01,
          1.22292645e-01, 1.50071785e-01, 1.34480685e-01, 8.85588348e-01,
          5.50132394e-01, 8.50530490e-02, 4.53932494e-01, 2.58023351e-01,
          0., 1. ]
      - [ 0., 1.58756986e-01, 1.09493263e-01, 2.06344977e-01,
          3.10909212e-01, 4.64476049e-01, 2.01988459e-01, 0.,
          8.58724862e-02, 1.17004573e-01, 1.00173742e-01, 9.12887529e-02,
          1.18430614e-01, 3.69208632e-03, 9.56788957e-02, 9.37969461e-02,
          6.77873343e-02, 9.57083702e-02, 6.73294887e-02, 1.50112733e-01,
          6.05738610e-02, 1.39048710e-01, 5.43657206e-02, 2.02542812e-01,
          31., 8., 3., 16., 7., 2., 6., 4., 9., 2., 1., 4., 9., 4., 3.,
          35., 17., 7., 1., 1., 7., 18., 2., 6., 0., 0., 9., 15., 2., 7.,
          9., 43., 0., 5.61920684e-43, 0., 1.33727759e-01,
          7.33548403e-01, 0., 2.28419647e-01, 9.48375642e-01, 0.,
          8.70428756e-02, 2.53902584e-01, 1.89207613e-01, 2.80380435e-02,
          2.44421467e-01, 1.39773980e-01, 3.77467752e-01, 2.36585259e-01,
          3.32030058e-01, 4.84196573e-01, 9.87533987e-01, 6.71399534e-02,
          1.37472227e-01, 2.87293971e-01, 2.99324483e-01, 3.53611670e-02,
          8.21313143e-01, 1.57413080e-01, 8.70428756e-02, 1.18292630e-01,
          5.19524157e-01, 6.88405335e-01, 9.74103868e-01, 1.43810228e-01,
          1.31182611e-01, 5.12595296e-01, 0., 0., 0., 1.38089776e-01,
          6.96343005e-01, 8.82920980e-01 ]
      - [ 4., 0., 4., 0., 10., 3., 16., 13., 6., 2., 17., 22., 0.,
          5.61920684e-43, 0., 2.32646152e-01, 3.09138626e-01,
          2.86965430e-01, 0., 1.00544114e-02, 0., 3.48977298e-02,
          6.33517981e-01, 1.98876470e-01, 0., 5.95037699e-01, 0.,
          6.23650312e-01, 0., 1.16398446e-01, 4.17770565e-01,
          6.79986477e-01, 1.38603374e-01, 0., 5.18159151e-01, 0.,
          1.73311055e-01, 9.91492212e-01, 2.71255732e-01, 0., 0., 0.,
          4.41781551e-01, 1.96205109e-01, 0., 1.27638802e-01,
          5.22086024e-01, 1.09935209e-01, 2.70561904e-01, 4.98663753e-01,
          3.88190538e-01, 2.56818473e-01, 2.37401411e-01, 2.18056515e-01,
          2.94008285e-01, 0., 2.35033438e-01, 7.28062242e-02,
          5.19019544e-01, 0., 7.81859607e-02, 1., 6.27922535e-01,
          1.59016415e-01, 1.36635005e-01, 1.24284074e-01, 9.61300358e-02,
          9.84717757e-02, 1.24545604e-01, 2.83545488e-03, 9.96719375e-02,
          1.02937222e-01, 7.45798424e-02, 1.02839790e-01, 1.07280731e-01,
          1.68436021e-01, 7.20505714e-02, 1.59706146e-01, 6.34479299e-02,
          2.60111064e-01, 74., 11., 6., 7., 6., 2., 3., 7., 7., 2., 1.,
          0., 1., 1., 7., 9., 40. ]
      - [ 0., 2.95964554e-02, 1., 0., 1.39894858e-01, 2.17270926e-01, 0.,
          6.05528466e-02, 9.01114494e-02, 8.20938349e-02, 6.34427443e-02,
          6.77065849e-02, 5.27854152e-02, 3.60809173e-03, 5.92705384e-02,
          0., 6.02849387e-02, 5.90974577e-02, 6.38786033e-02,
          1.72813267e-01, 7.58390203e-02, 1.74645424e-01, 7.14191645e-02,
          2.29592070e-01, 15., 4., 10., 12., 5., 2., 0., 2., 6., 0., 1.,
          14., 14., 0., 7., 52., 7., 2., 4., 0., 0., 0., 3., 0., 3., 4.,
          11., 22., 0., 0., 24., 64., 0., 5.61920684e-43, 0., 0.,
          5.85245907e-01, 0., 2.10848287e-01, 3.45002025e-01,
          7.17079937e-02, 4.53521162e-02, 1.30782440e-01, 0.,
          7.17079937e-02, 1.63110539e-01, 3.80289033e-02, 1.12428613e-01,
          7.69531846e-01, 0., 3.67906123e-01, 3.17918599e-01,
          5.22657298e-02, 2.26760581e-02, 7.62165412e-02, 4.84360792e-02,
          0., 8.19192156e-02, 3.41927320e-01, 4.75392044e-01,
          5.94412327e-01, 0., 4.98703063e-01, 2.53475726e-01,
          6.31672293e-02, 0., 6.41375780e-02, 0., 6.80281743e-02,
          1.93731800e-01, 6.92136511e-02, 1.62150338e-01, 1. ]
      - [ 7.98091471e-01, 1.46695271e-01, 3.27612609e-02, 2.58640796e-01,
          0., 1.52348697e-01, 5.40933132e-01, 6.97874203e-02,
          2.83407390e-01, 5.01844704e-01, 1.37184232e-01, 1.22701302e-01,
          1.20662309e-01, 0., 5.50238669e-01, 8.61091018e-02,
          3.82721946e-02, 5.69785014e-02, 7.70560384e-01, 0.,
          1.46687925e-01, 2.46918529e-01, 2.48426765e-01, 4.71876055e-01,
          2.77272284e-01, 0., 2.07980826e-01, 4.98232096e-01, 0., 0., 1.,
          1.77890852e-01, 2.74998516e-01, 2.63657928e-01, 3.96313518e-01,
          8.15889519e-03, 1.10601902e-01, 8.13984051e-02, 8.63652825e-02,
          8.18729103e-02, 3.82721946e-02, 2.64971121e-03, 8.92214105e-02,
          8.25594291e-02, 7.46636242e-02, 9.90011990e-02, 1.05457917e-01,
          1.74719140e-01, 7.45410696e-02, 1.74036428e-01, 6.50557280e-02,
          2.03347296e-01, 16., 4., 5., 12., 5., 3., 4., 7., 0., 11., 6.,
          3., 16., 2., 7., 43., 6., 1., 3., 2., 1., 0., 1., 3., 3., 1.,
          11., 20., 3., 10., 21., 58., 0., 5.61920684e-43, 0., 0.,
          4.10727620e-01, 2.99211890e-01, 1.15663908e-01, 6.79526269e-01,
          0., 7.41994753e-02, 0., 1.26152754e-01, 0. ]
      - [ 0., 1.92981884e-02, 2.42789537e-01, 0., 9.54150930e-02,
          2.49813363e-01, 2.73371935e-01, 3.93879652e-01, 5.80828726e-01,
          7.02798516e-02, 6.06510639e-01, 7.16322780e-01, 3.02285086e-02,
          1.50278389e-01, 2.22012505e-01, 0., 2.18659583e-02, 0.,
          3.06899786e-01, 1.27220124e-01, 4.16138738e-01, 1.00576341e-01,
          6.36100620e-02, 7.29382217e-01, 0., 2.54030257e-01,
          4.07219201e-01, 1.91181879e-02, 1.21634915e-01, 3.35518599e-01,
          2.49734744e-01, 4.83300149e-01, 5.62964320e-01, 2.22468138e-01,
          3.48861426e-01, 1., 8.49543661e-02, 3.04219276e-01,
          2.95008011e-02, 4.80377078e-02, 6.36100620e-02, 0.,
          2.11853832e-01, 3.81901138e-03, 8.73732567e-02, 9.15105194e-02,
          8.42616186e-02, 9.04931873e-02, 5.75914383e-02, 9.83548816e-03,
          8.19565430e-02, 3.35779488e-02, 7.56315067e-02, 9.75553319e-02,
          1.15762264e-01, 1.76556125e-01, 7.53027126e-02, 1.65975288e-01,
          6.32200763e-02, 2.20260203e-01, 40., 7., 5., 6., 6., 0., 11.,
          4., 7., 11., 0., 5., 12., 7., 11., 12., 16., 6., 6., 4., 5.,
          11., 4., 15., 5., 3., 4., 6., 5., 15., 15., 24., 0.,
          5.61920684e-43, 0., 2.51570255e-01, 1.96429491e-01 ]
      - [ 9., 3., 1., 3., 4., 3., 4., 4., 9., 2., 0., 2., 11., 9., 11.,
          3., 3., 3., 4., 3., 9., 3., 39., 22., 4., 5., 10., 5., 0.,
          5.61920684e-43, 0., 1.11260511e-01, 2.20418409e-01, 0.,
          3.34368050e-01, 9.93865430e-02, 5.56302555e-02, 1.72869891e-01,
          2.66875952e-01, 0., 8.78988877e-02, 5.73238194e-01,
          1.11260511e-01, 0., 1.47327766e-01, 0., 1.56043887e-01,
          1.46763518e-01, 1.11260511e-01, 5.46598807e-02, 2.87598282e-01,
          6.63997307e-02, 0., 1., 8.19225237e-02, 2.62462676e-01,
          5.75517714e-01, 0., 2.11559117e-01, 1.20904133e-01, 0.,
          6.56422228e-02, 1.52509421e-01, 1.63509652e-01, 2.08917186e-01,
          2.10433125e-01, 0., 4.40353870e-01, 2.87758738e-01,
          3.04768175e-01, 3.58106606e-02, 4.13545430e-01, 0.,
          1.21267915e-01, 3.06131482e-01, 0., 0., 6.22033715e-01,
          9.97723565e-02, 1.00503340e-02, 8.79301876e-02, 1.01589389e-01,
          8.19757432e-02, 8.67332891e-02, 5.56302555e-02, 4.31708246e-03,
          7.23653659e-02, 7.66364634e-02, 9.89386961e-02, 7.51782805e-02,
          7.32388496e-02, 1.64939255e-01, 6.91531152e-02, 1.66235149e-01,
          6.12393506e-02, 2.15850592e-01, 33. ]
      - [ 0., 3.54120453e-38, 0., 3.54131664e-38, 0., 3.54142874e-38, 0.,
          3.54154085e-38, 0., 3.54165295e-38, 0., 3.54176505e-38, 0.,
          3.54187716e-38, 0., 3.54198926e-38, 0., 3.54210136e-38, 0.,
          3.54221347e-38, 0., 3.54232557e-38, 0., 3.54243768e-38, 0.,
          3.54254978e-38, 0., 3.54266188e-38, 0., 3.54277399e-38, 0.,
          3.54288609e-38, 0., 3.54299820e-38, 0., 3.54311030e-38, 0.,
          3.54322240e-38, 0., 3.54333451e-38, 0., 3.54344661e-38, 0.,
          3.54355872e-38, 0., 3.54367082e-38, 0., 3.54378292e-38, 0.,
          3.54389503e-38, 0., 3.54400713e-38, 0., 3.54411923e-38, 0.,
          3.54423134e-38, 0., 3.54434344e-38, 0., 3.54445555e-38, 0.,
          3.54456765e-38, 0., 3.54467975e-38, 0., 3.54479186e-38, 0.,
          3.54490396e-38, 0., 3.54501607e-38, 0., 3.54512817e-38, 0.,
          3.54524027e-38, 0., 3.54535238e-38, 0., 3.54546448e-38, 0.,
          3.54557658e-38, 0., 3.54568869e-38, 0., 3.54580079e-38, 0.,
          3.54591290e-38, 0., 3.54602500e-38, 0., 3.54613710e-38, 0.,
          3.54624921e-38, 0., 3.54636131e-38, 0., 3.54647342e-38, 0. ]
      - [ 0., 5.61920684e-43, 0., 9.50901583e-02, 1.09085083e-01,
          8.98896009e-02, 2.28073865e-01, 8.00286382e-02, 0.,
          5.93739189e-02, 7.17436492e-01, 0., 1.57691702e-01,
          2.45294094e-01, 9.40831676e-02, 0., 4.46954101e-01,
          1.98569030e-01, 3.90325785e-01, 3.12232941e-01, 9.89916846e-02,
          1.94299266e-01, 4.17059928e-01, 2.95079388e-02, 1.78182707e-03,
          6.12796307e-01, 0., 9.97823179e-02, 1.79818839e-01,
          9.53069329e-02, 7.51986623e-01, 8.25430304e-02, 2.86342427e-02,
          8.56945813e-02, 8.80012035e-01, 0., 0., 2.45896980e-01, 0.,
          2.44230643e-01, 4.95508283e-01, 2.81440169e-01, 5.45623958e-01,
          1.84926465e-01, 0., 1.05391726e-01, 4.20207083e-01,
          5.69766872e-02, 2.55041420e-01, 1., 0., 1.46367714e-01,
          1.11942403e-01, 9.50293913e-02, 9.58005041e-02, 9.42472890e-02,
          6.38129637e-02, 5.29475603e-03, 8.69541243e-02, 4.32423130e-02,
          5.18143699e-02, 8.09225887e-02, 9.40831676e-02, 1.86835870e-01,
          7.62362033e-02, 1.90506145e-01, 6.70276508e-02, 2.51138866e-01,
          32., 6., 10., 15., 5., 4., 1., 8., 5., 3., 5., 6., 19., 5., 3.,
          17., 6., 6., 8., 2., 6., 0., 4., 1., 8., 4., 24., 25., 6. ]
      - [ 9., 2., 8., 2., 4., 2., 14., 10., 8., 4., 11., 12., 8., 9.,
          11., 5., 18., 5., 4., 11., 7., 7., 0., 5.61920684e-43, 0., 0.,
          0., 0., 6.07253075e-01, 3.81287068e-01, 9.17251706e-02,
          2.34962910e-01, 0., 0., 3.86821657e-01, 0., 0., 0.,
          2.49422148e-01, 0., 1., 4.87090647e-01, 0., 3.78900766e-01, 0.,
          0., 5.00592709e-01, 0., 0., 0., 2.51433104e-01, 0.,
          4.90375966e-01, 3.80205989e-01, 1.96481690e-01, 1.46461040e-01,
          5.80683589e-01, 0., 1.19459629e-01, 0., 9.53575298e-02,
          2.28920668e-01, 6.82393193e-01, 1.98448196e-01, 3.31594944e-01,
          5.07913351e-01, 1.83537170e-01, 1.59792930e-01, 5.40222824e-01,
          0., 1.42213836e-01, 2.65753508e-01, 6.99420869e-01,
          1.14460334e-01, 1.31472051e-01, 1.98448196e-01, 8.37663487e-02,
          1.25464067e-01, 9.43488106e-02, 9.02076066e-03, 1.24545150e-01,
          0., 5.47184646e-02, 1.32876754e-01, 1.32463068e-01,
          1.22557856e-01, 4.72119562e-02, 9.59655717e-02, 4.43522967e-02,
          1.68155685e-01, 53., 9., 9., 18., 11., 1., 4. ]
      - [ 12., 14., 0., 13., 5., 3., 16., 8., 0., 11., 9., 7., 0.,
          5.61920684e-43, 0., 0., 5.60436904e-01, 0., 3.74169201e-01,
          7.03788280e-01, 0., 1.04749808e-03, 0., 0., 2.15192795e-01,
          2.36531213e-01, 2.42891461e-01, 5.13961375e-01, 7.54075825e-01,
          2.40118355e-01, 4.36098397e-01, 5.96040130e-01, 0.,
          7.68395364e-02, 2.17891455e-01, 3.74764316e-02, 6.93329796e-02,
          5.20372033e-01, 2.32910112e-01, 1.34079754e-01, 5.43860674e-01,
          0., 5.81654727e-01, 9.08464432e-01, 6.99003860e-02,
          2.06514537e-01, 3.57301682e-01, 9.80516374e-02, 0., 0.,
          1.23888515e-01, 3.27037454e-01, 8.55534732e-01, 0.,
          3.32730740e-01, 1., 7.49528632e-02, 1.69886902e-01,
          3.57125372e-01, 0., 0., 4.62648332e-01, 0., 5.00040315e-03,
          1.04381084e-01, 1.20059177e-01, 1.14976868e-01, 9.72210020e-02,
          7.24266246e-02, 5.60849998e-03, 1.03590950e-01, 6.77640364e-02,
          7.11314455e-02, 1.10868327e-01, 1.19938016e-01, 1.88208804e-01,
          7.80386701e-02, 1.92820430e-01, 6.80079013e-02, 2.67599910e-01,
          40., 9., 9., 7., 4., 1., 14., 5., 16., 5., 3., 11., 5., 6., 4.,
          5., 6. ]
      - [ 0., 3.60644899e-38, 0., 3.60656109e-38, 0., 3.60667320e-38, 0.,
          3.60678530e-38, 0., 3.60689741e-38, 0., 3.60700951e-38, 0.,
          3.60712161e-38, 0., 3.60723372e-38, 0., 3.60734582e-38, 0.,
          3.60745793e-38, 0., 3.60757003e-38, 0., 3.60768213e-38, 0.,
          3.60779424e-38, 0., 3.60790634e-38, 0., 3.60801844e-38, 0.,
          3.60813055e-38, 0., 3.60824265e-38, 0., 3.60835476e-38, 0.,
          3.60846686e-38, 0., 3.60857896e-38, 0., 3.60869107e-38, 0.,
          3.60880317e-38, 0., 3.60891528e-38, 0., 3.60902738e-38, 0.,
          3.60913948e-38, 0., 3.60925159e-38, 0., 3.60936369e-38, 0.,
          3.60947579e-38, 0., 3.60958790e-38, 0., 3.60970000e-38, 0.,
          3.60981211e-38, 0., 3.60992421e-38, 0., 3.61003631e-38, 0.,
          3.61014842e-38, 0., 3.61026052e-38, 0., 3.61037263e-38, 0.,
          3.61048473e-38, 0., 3.61059683e-38, 0., 3.61070894e-38, 0.,
          3.61082104e-38, 0., 3.61093315e-38, 0., 3.61104525e-38, 0.,
          3.61115735e-38, 0., 3.61126946e-38, 0., 3.61138156e-38, 0.,
          3.61149366e-38, 0., 3.61160577e-38, 0., 3.61171787e-38, 0. ]
      - [ 3.20614487e-01, 0., 2.94042736e-01, 2.61849880e-01, 0., 0.,
          8.96268040e-02, 6.53049201e-02, 3.59641582e-01, 7.37231001e-02,
          1.73520207e-01, 1.62901759e-01, 1., 0., 4.66276705e-01,
          4.54485178e-01, 0., 9.04391631e-02, 2.67365128e-01, 0.,
          1.38460621e-01, 1.85759693e-01, 0., 1.36108294e-01,
          7.02039525e-02, 0., 5.90991490e-02, 6.71429411e-02, 0.,
          2.16362462e-03, 7.66379833e-02, 5.95135242e-02, 5.49674481e-02,
          7.31084570e-02, 9.73032489e-02, 1.75750464e-01, 7.79258236e-02,
          1.65037572e-01, 6.70947358e-02, 2.03947425e-01, 66., 13., 7.,
          4., 15., 3., 6., 1., 10., 5., 0., 3., 7., 4., 0., 0., 20., 9.,
          4., 5., 7., 11., 3., 6., 4., 4., 46., 1., 5., 7., 10., 2., 0.,
          5.61920684e-43, 0., 1.10352039e-01, 7.51117915e-02, 0.,
          7.49658823e-01, 7.45274350e-02, 1.03725158e-01, 0.,
          3.18189055e-01, 1.73442766e-01, 1.76545128e-01, 3.96443367e-01,
          0., 1.69144556e-01, 1.45356148e-01, 2.36516565e-01,
          6.91326797e-01, 3.00498217e-01, 6.72444776e-02, 0.,
          4.76709574e-01, 0., 0. ]
      - [ 6.70287609e-02, 8.21693093e-02, 8.26745555e-02, 1.60049240e-03,
          7.22277835e-02, 8.26557204e-02, 6.36242256e-02, 9.99976099e-02,
          8.48478377e-02, 2.01597288e-01, 8.80012438e-02, 2.05963001e-01,
          7.72506744e-02, 2.75729299e-01, 54., 11., 10., 13., 13., 0.,
          5., 5., 10., 6., 2., 1., 6., 2., 4., 2., 19., 6., 8., 9., 10.,
          6., 7., 5., 7., 6., 30., 11., 5., 6., 4., 5., 0.,
          5.61920684e-43, 0., 7.44379461e-02, 3.97336870e-01, 0.,
          2.37307176e-01, 9.36662033e-02, 0., 3.62582445e-01,
          7.59210289e-01, 1.54631928e-01, 2.03406155e-01, 3.50074291e-01,
          0., 1.92438945e-01, 7.52397418e-01, 1.31456152e-01,
          6.78020492e-02, 6.08667791e-01, 0., 1.11386396e-01,
          4.49609548e-01, 1.36659399e-01, 1.35604098e-01, 7.33843148e-01,
          3.33155096e-01, 3.91601175e-01, 9.77062523e-01, 0.,
          3.17822099e-01, 3.99135411e-01, 0., 7.10671814e-03,
          5.06133616e-01, 0., 1.69505119e-01, 1.91960245e-01, 0.,
          1.16563663e-01, 3.71506214e-01, 1.04361005e-01, 6.96551979e-01,
          1., 1.57392040e-01, 1.34834215e-01, 4.24149930e-01,
          1.09303907e-01, 2.13727430e-01, 3.89109492e-01, 2.73500562e-01 ]
      - [ 5.69766350e-02, 9.01281536e-02, 8.74506012e-02, 1.92759648e-01,
          8.38386342e-02, 2.01144144e-01, 7.44208172e-02, 2.52311766e-01,
          20., 10., 9., 8., 8., 7., 3., 11., 7., 2., 0., 2., 22., 9., 1.,
          25., 14., 4., 1., 5., 1., 2., 3., 2., 2., 2., 19., 15., 7., 3.,
          23., 41., 0., 5.61920684e-43, 0., 0., 1.97649226e-01,
          1.40122131e-01, 0., 1.47865936e-01, 9.41250473e-02, 0.,
          6.11907780e-01, 1.94200769e-01, 2.93005198e-01, 4.08821851e-01,
          0., 0., 2.88372546e-01, 0., 2.29325667e-01, 4.59001482e-01, 0.,
          9.11640599e-02, 7.22128153e-01, 9.08570513e-02, 7.43782446e-02,
          8.07467520e-01, 1.76602885e-01, 1.44248709e-01, 4.80518818e-01,
          0., 1.08186536e-01, 9.03605461e-01, 0., 1.45800784e-01,
          4.30887371e-01, 0., 2.16373071e-01, 0., 0., 2.29574069e-01,
          8.49248886e-01, 0., 1.44248709e-01, 1., 0., 1.11749351e-01,
          4.02050972e-01, 2.36293361e-01, 1.45930499e-01, 1.99007541e-01,
          3.63988578e-01, 3.73822778e-01, 1.13486841e-01, 1.40122131e-01,
          8.02934840e-02, 1.09150991e-01, 9.41250473e-02 ]
      - [ 0., 3.68256752e-38, 0., 3.68267963e-38, 0., 3.68279173e-38, 0.,
          3.68290383e-38, 0., 3.68301594e-38, 0., 3.68312804e-38, 0.,
          3.68324015e-38, 0., 3.68335225e-38, 0., 3.68346435e-38, 0.,
          3.68357646e-38, 0., 3.68368856e-38, 0., 3.68380067e-38, 0.,
          3.68391277e-38, 0., 3.68402487e-38, 0., 3.68413698e-38, 0.,
          3.68424908e-38, 0., 3.68436118e-38, 0., 3.68447329e-38, 0.,
          3.68458539e-38, 0., 3.68469750e-38, 0., 3.68480960e-38, 0.,
          3.68492170e-38, 0., 3.68503381e-38, 0., 3.68514591e-38, 0.,
          3.68525802e-38, 0., 3.68537012e-38, 0., 3.68548222e-38, 0.,
          3.68559433e-38, 0., 3.68570643e-38, 0., 3.68581854e-38, 0.,
          3.68593064e-38, 0., 3.68604274e-38, 0., 3.68615485e-38, 0.,
          3.68626695e-38, 0., 3.68637905e-38, 0., 3.68649116e-38, 0.,
          3.68660326e-38, 0., 3.68671537e-38, 0., 3.68682747e-38, 0.,
          3.68693957e-38, 0., 3.68705168e-38, 0., 3.68716378e-38, 0.,
          3.68727589e-38, 0., 3.68738799e-38, 0., 3.68750009e-38, 0.,
          3.68761220e-38, 0., 3.68772430e-38, 0., 3.68783640e-38, 0. ]
      - [ 0., 0., 3., 5., 1., 1., 10., 10., 5., 4., 10., 53., 3., 11.,
          7., 1., 10., 1., 5., 3., 8., 3., 0., 5.61920684e-43, 0., 0.,
          7.60522306e-01, 1.82088569e-01, 4.74022657e-01, 2.66753465e-01,
          0., 5.87633997e-02, 2.15389878e-01, 0., 4.70107198e-02, 0.,
          1.47179142e-01, 2.30030969e-01, 1., 1.75237522e-01,
          3.54042172e-01, 2.21716911e-01, 0., 4.70107198e-02,
          1.39720529e-01, 0., 1.04048252e-01, 1.71961308e-01, 0.,
          9.40214396e-02, 4.95018035e-01, 0., 2.78702855e-01,
          2.66822100e-01, 5.14861383e-02, 2.92759746e-01, 2.51768470e-01,
          0., 9.40214396e-02, 0., 2.44359702e-01, 3.24944317e-01,
          7.54930556e-01, 9.62559059e-02, 1.53150976e-01, 3.15948874e-01,
          0., 8.71513486e-02, 1.38689592e-01, 0., 4.70107198e-02,
          4.34434384e-01, 5.00613749e-01, 2.16332242e-01, 7.52617717e-02,
          9.07163993e-02, 8.99941921e-02, 6.69525862e-02, 5.14861383e-02,
          6.22673379e-03, 6.77789524e-02, 0., 4.86818552e-02,
          6.73772991e-02, 7.43460506e-02, 1.95929617e-01, 8.68552402e-02,
          2.03840002e-01, 7.22929090e-02, 2.66109586e-01, 10., 18., 9.,
          8., 17., 14., 14. ]
      - [ 8., 6., 12., 6., 7., 14., 3., 5., 6., 3., 2., 16., 13., 6., 7.,
          0., 5., 29., 3., 15., 5., 3., 9., 3., 5., 10., 7., 24., 0.,
          5.61920684e-43, 0., 1.04612321e-01, 4.86449957e-01,
          1.09206572e-01, 1.30847290e-01, 2.95788258e-01, 0.,
          1.52779698e-01, 2.81144321e-01, 2.95039602e-02, 4.84380685e-02,
          2.58782476e-01, 0., 1.21570051e-01, 3.33840162e-01, 0., 0.,
          8.54940176e-01, 0., 3.03925127e-02, 3.12988818e-01,
          1.79582193e-01, 0., 1., 2.20427573e-01, 2.27096990e-01,
          3.10868025e-01, 7.82102197e-02, 4.86280203e-01, 5.99471986e-01,
          2.82385740e-02, 2.00925723e-01, 2.70751715e-01, 0., 0.,
          2.60929048e-01, 2.95102239e-01, 4.16686177e-01, 3.85018378e-01,
          1.50871798e-01, 1.82355076e-01, 2.59592444e-01, 1.20125696e-01,
          2.53127247e-01, 5.04214644e-01, 7.84175545e-02, 1.98497429e-01,
          4.89691049e-01, 4.12439674e-01, 6.59064809e-03, 1.01078428e-01,
          8.45721513e-02, 8.88313949e-02, 9.13542286e-02, 7.41821378e-02,
          7.58601353e-03, 8.55687186e-02, 7.18759298e-02, 6.17338754e-02,
          9.56858322e-02, 9.27969441e-02, 1.89667329e-01, 8.00713152e-02,
          1.92699283e-01, 7.14121908e-02, 2.23050445e-01, 54. ]
      - [ 0., 3.70431567e-38, 0., 0., 5.08175373e-01, 1.64013341e-01,
          3.23194027e-01, 4.69646454e-01, 7.91706890e-02, 7.36706257e-02,
          0., 0., 1.46697998e-01, 0., 3.28026682e-01, 0., 9.14260089e-01,
          1.64013341e-01, 2.60443121e-01, 1., 0., 0., 3.02934110e-01, 0.,
          2.25644395e-01, 2.83927649e-01, 0., 1.19390316e-01,
          5.00077009e-01, 1.66319579e-01, 5.13442993e-01, 3.58305961e-01,
          0., 3.50329518e-01, 4.31242228e-01, 0., 1.10023499e-01, 0.,
          1.51212826e-01, 0., 6.48919880e-01, 1.44551307e-01,
          3.85163367e-01, 4.11010146e-01, 9.19437557e-02, 2.33558655e-01,
          5.85259080e-01, 0., 3.99143040e-01, 1.73626184e-01, 0.,
          1.19390316e-01, 1.02857292e-01, 1.59724385e-01, 9.88162383e-02,
          1.06617272e-01, 8.55572224e-02, 6.44665491e-03, 1.01495028e-01,
          0., 8.81508961e-02, 1.14388458e-01, 1.59746513e-01,
          1.53052583e-01, 6.26646280e-02, 1.45302147e-01, 5.68289421e-02,
          2.29517609e-01, 37., 9., 6., 24., 4., 1., 4., 5., 7., 1., 0.,
          0., 9., 1., 2., 34., 5., 7., 2., 2., 5., 7., 2., 4., 4., 1.,
          26., 26., 1. ]
      - [ 7.86530599e-02, 3.87328148e-01, 1.76265448e-01, 0., 1.,
          1.06459014e-01, 4.12606224e-02, 4.70528305e-01, 0., 0.,
          7.50028551e-01, 0., 2.81087995e-01, 3.42000782e-01,
          4.67038564e-02, 0., 0., 1.21675394e-01, 4.56898749e-01,
          3.45221817e-01, 3.38637024e-01, 0., 5.60968339e-01, 0.,
          4.11316842e-01, 5.71208358e-01, 0., 0., 6.20145023e-01,
          1.67788446e-01, 4.42262292e-01, 2.62721151e-01, 1.84523121e-01,
          0., 1.18241362e-01, 0., 7.00961724e-02, 1.25167102e-01,
          7.43231028e-02, 1.66930538e-03, 1.24217466e-01, 9.89807099e-02,
          7.23401308e-02, 1.23481624e-01, 1.74386725e-01, 1.29807994e-01,
          5.15451953e-02, 1.15009286e-01, 4.72696014e-02, 1.99313819e-01,
          56., 5., 5., 19., 10., 1., 5., 1., 14., 3., 1., 2., 2., 0., 1.,
          19., 21., 7., 3., 2., 9., 7., 3., 3., 4., 2., 33., 18., 1., 6.,
          6., 19., 0., 5.61920684e-43, 0., 0., 5.49789131e-01, 0.,
          4.95138854e-01, 2.48792350e-01, 4.80932482e-02, 2.68250227e-01,
          8.30821842e-02, 6.98728189e-02, 1.17495961e-01, 1.31491810e-01,
          0. ]
      - [ 11., 18., 3., 5., 10., 18., 0., 5.61920684e-43, 0., 0., 1.,
          1.05532028e-01, 5.29048622e-01, 3.61445218e-01, 1.89986676e-01,
          0., 5.67424953e-01, 1.90878153e-01, 6.40345365e-02,
          1.43255472e-01, 1.43185571e-01, 4.55811203e-01, 8.16696405e-01,
          1.82524920e-01, 7.60096610e-01, 6.57534957e-01, 0., 0.,
          2.99206585e-01, 0., 2.13279575e-01, 2.19663456e-02,
          1.28166750e-01, 1.28069073e-01, 6.95887506e-01, 9.11315307e-02,
          1.72860041e-01, 5.59693277e-01, 7.15927854e-02, 0.,
          5.60785770e-01, 1.61332171e-02, 1.28069073e-01, 2.71809250e-01,
          2.75196135e-01, 2.22970694e-01, 7.08261847e-01, 0.,
          5.34430146e-01, 6.55557096e-01, 0., 1.83877394e-01,
          1.91731960e-01, 0., 1.50208503e-01, 4.34694737e-01,
          2.64239937e-01, 4.07500518e-03, 9.47307572e-02, 9.47971195e-02,
          1.05075546e-01, 9.30929407e-02, 8.71931538e-02, 2.87308428e-03,
          1.01196826e-01, 6.90037906e-02, 6.17324114e-02, 1.08965725e-01,
          1.35131404e-01, 2.02858895e-01, 8.96409675e-02, 2.05511138e-01,
          7.85228387e-02, 2.85350978e-01, 42., 15., 20., 4., 15., 4., 4.,
          0., 19., 3., 5., 3., 6., 3., 1., 0., 21., 12., 15., 6., 11.,
          18., 6. ]
      - [ 1., 15., 3., 10., 1., 23., 0., 5.61920684e-43, 0.,
          1.08720466e-01, 3.03217828e-01, 0., 1.55384257e-01,
          7.43536532e-01, 0., 7.76921287e-02, 6.82438731e-01,
          2.01132491e-01, 3.56851935e-01, 4.10829723e-01, 0., 0.,
          1.37341574e-01, 0., 6.23716116e-01, 6.61239088e-01,
          1.80158660e-01, 0., 4.96654242e-01, 1.46741137e-01,
          4.69657481e-01, 5.39044142e-01, 2.09796324e-01, 1.55384257e-01,
          4.22470063e-01, 0., 8.74036431e-01, 6.48074031e-01,
          1.21181324e-01, 1.06418952e-01, 2.95695901e-01, 1.43573686e-01,
          2.33076379e-01, 5.05092204e-01, 3.16825658e-01, 1.56593487e-01,
          1., 1.76752266e-02, 3.10768515e-01, 9.72186923e-01, 0.,
          8.48021656e-02, 3.05038273e-01, 2.01652586e-01, 6.76938295e-01,
          4.63686138e-01, 3.90326589e-01, 2.10349113e-01, 1.24201968e-01,
          1.76752266e-02, 1.15523838e-01, 1.16347566e-01, 1.00446664e-01,
          3.63396318e-03, 1.11239195e-01, 1.15516655e-01, 9.13960040e-02,
          1.47588626e-01, 1.30992651e-01, 1.82763547e-01, 7.77038038e-02,
          1.78164572e-01, 6.41135201e-02, 2.53926188e-01, 57., 9., 3.,
          22., 10., 2., 5., 2., 8., 1., 5., 6., 11., 1., 0., 2., 6., 2.,
          3., 3., 1., 2., 6. ]
      - [ 5.61188459e-02, 4.50728042e-03, 7.21097142e-02, 6.53929040e-02,
          5.02051786e-02, 6.90969899e-02, 5.02463691e-02, 1.85349986e-01,
          8.03074613e-02, 1.90526858e-01, 6.67628869e-02, 2.61875093e-01,
          15., 17., 10., 3., 12., 7., 10., 12., 10., 4., 3., 6., 5., 9.,
          6., 15., 11., 10., 9., 3., 9., 9., 5., 15., 9., 4., 6., 9., 6.,
          10., 7., 22., 0., 5.61920684e-43, 0., 0., 1.34865373e-01, 0.,
          6.50541008e-01, 6.77043498e-02, 0., 0., 2.14134455e-01, 0., 0.,
          0., 7.49736056e-02, 0., 1.33807614e-01, 0., 1., 0., 0., 0.,
          3.14115137e-01, 5.35184555e-02, 0., 1.37572750e-01,
          7.02947155e-02, 3.27705801e-01, 0., 0., 3.82946908e-01,
          1.13391735e-01, 0., 0., 3.95742089e-01, 3.05102132e-02,
          4.12864625e-01, 2.03639463e-01, 0., 0., 0., 0., 8.82290781e-01,
          0., 0., 0., 5.30881464e-01, 0., 1.54824227e-01, 8.52644622e-01,
          2.84702182e-01, 3.27705801e-01, 6.71682507e-02 ]
      - [ 4., 8., 8., 4., 1., 2., 2., 2., 3., 16., 26., 7., 9., 4., 13.,
          22., 1., 4., 11., 2., 9., 6., 1., 2., 3., 24., 0.,
          5.61920684e-43, 0., 0., 4.57583219e-01, 5.31179011e-02,
          3.25857729e-01, 3.47623259e-01, 5.06490134e-02, 1.98467448e-01,
          6.18165620e-02, 0., 0., 8.07516351e-02, 1.74789757e-01,
          1.48042426e-01, 4.23718959e-01, 0., 1.14307903e-01,
          6.07518971e-01, 5.88740110e-02, 8.15153867e-02, 4.29704249e-01,
          3.90059091e-02, 1.18696988e-01, 3.57560813e-02, 1.46331593e-01,
          3.25012326e-01, 3.50927919e-01, 0., 5.38000703e-01,
          5.17576814e-01, 0., 0., 6.41001239e-02, 0., 6.71894252e-02,
          1.16316557e-01, 1.39980301e-01, 8.95859003e-02, 2.86315978e-01,
          2.40811020e-01, 4.47929502e-02, 1., 0., 4.49893624e-02,
          2.57094473e-01, 9.51953139e-03, 6.71894252e-02, 7.99867213e-02,
          6.83602840e-02, 1.32698275e-03, 6.90248236e-02, 7.34822303e-02,
          7.30685145e-02, 6.34030551e-02, 5.47615141e-02, 4.11357218e-03,
          7.38832206e-02, 2.42627207e-02, 6.32689595e-02, 7.82027468e-02,
          6.61827400e-02, 1.88657731e-01, 8.14559460e-02, 1.88289434e-01,
          6.82571083e-02, 2.72642672e-01, 39., 7., 10. ]
      - [ 5.42624444e-02, 1.67156339e-01, 16., 0., 0., 0., 0., 6., 8.,
          9., 0., 16., 0., 0., 0., 0., 0., 89., 5., 0., 0., 4., 0., 16.,
          0., 8., 0., 0., 0., 0., 1., 16., 0., 94., 0., 5.61920684e-43,
          0., 1.83831379e-01, 3.84765357e-01, 8.13966766e-02,
          1.58963129e-01, 1.44479811e-01, 0., 1.49292216e-01, 0., 0.,
          6.62656799e-02, 7.80070186e-01, 2.14419946e-01, 6.05237365e-01,
          6.87195733e-02, 1.72270104e-01, 3.08070868e-01, 1.,
          8.66785198e-02, 0., 5.09002924e-01, 7.28434771e-02, 0.,
          2.11625114e-01, 1.99340627e-01, 2.63115197e-01, 7.59581089e-01,
          0., 5.08973002e-01, 1.89385101e-01, 5.25508858e-02, 0., 0., 0.,
          1.27454624e-01, 1.99553847e-01, 3.85574669e-01, 3.64434838e-01,
          6.54532671e-01, 0., 8.56493175e-01, 6.60139740e-01,
          1.55458435e-01, 1.25911608e-01, 0., 0., 1.01963699e-01, 0., 0.,
          1.57402098e-01, 7.18307197e-02, 8.45555961e-02, 8.32954645e-02,
          7.38520175e-02, 5.89375682e-02, 4.23390511e-03, 8.48338231e-02,
          7.28434771e-02, 5.91368005e-02, 8.50892216e-02, 7.99335241e-02 ]
      - [ 2.06739053e-01, 4.12938558e-03, 1.04281150e-01, 1.16925798e-01,
          8.45518112e-02, 1.07259341e-01, 9.44358408e-02, 5.11620194e-03,
          9.71698090e-02, 5.00075705e-02, 7.94356167e-02, 1.13478027e-01,
          1.28395066e-01, 1.86401427e-01, 8.03902224e-02, 1.85152858e-01,
          7.32352063e-02, 2.61611581e-01, 60., 11., 6., 8., 14., 3., 6.,
          5., 9., 6., 2., 3., 3., 2., 1., 5., 32., 8., 5., 5., 11., 16.,
          1., 10., 3., 3., 15., 8., 3., 9., 7., 8., 0., 5.61920684e-43,
          0., 2.37663746e-01, 5.42002738e-01, 1.61880940e-01,
          8.08550715e-02, 3.57889026e-01, 0., 9.45437402e-02,
          1.49815053e-01, 6.45458549e-02, 3.45581621e-02, 1.01068839e-01,
          0., 1.61710143e-01, 9.28530931e-01, 6.51396737e-02,
          4.09888744e-01, 3.99732053e-01, 5.74030168e-02, 3.30653079e-02,
          7.28817731e-02, 5.33648282e-02, 2.40157440e-01, 1.66814432e-01,
          0., 0., 4.06196266e-01, 1.12836950e-01, 1.81923911e-01,
          6.27008438e-01, 0., 8.08550715e-02, 3.19258362e-01, 0., 0.,
          9.09312442e-02, 1.46032691e-01, 4.63323832e-01, 1.,
          8.33434984e-02, 3.84076506e-01, 1.14097327e-01, 8.35443363e-02,
          0., 0. ]
      - [ 1.43874645e-01, 0., 0., 0., 0., 5.61707504e-02, 0., 0.,
          3.89233947e-01, 0., 1.17832147e-01, 4.72576059e-02,
          2.42370114e-01, 0., 2.36024842e-01, 7.61186108e-02, 0.,
          1.08368739e-01, 7.81282037e-02, 0., 2.05486536e-01,
          3.87922600e-02, 7.36155137e-02, 4.72576059e-02, 5.33456624e-01,
          0., 5.95238097e-02, 2.68288374e-01, 6.61554709e-02,
          4.11348715e-02, 3.90641019e-02, 0., 4.76891100e-02,
          5.05250134e-02, 3.82895321e-02, 1.09901407e-03, 4.60790284e-02,
          0., 3.00207064e-02, 4.30508740e-02, 6.61554709e-02,
          1.55316591e-01, 6.65330961e-02, 1.38480291e-01, 5.96298128e-02,
          2.03760058e-01, 62., 9., 7., 22., 16., 1., 3., 1., 8., 4., 0.,
          2., 6., 3., 0., 0., 26., 10., 5., 5., 6., 5., 3., 5., 2., 4.,
          38., 18., 8., 3., 6., 0., 0., 5.61920684e-43, 0.,
          1.07356668e-01, 4.90766823e-01, 0., 4.45026219e-01,
          9.42744732e-01, 1.00961953e-01, 0., 8.65137950e-02, 0.,
          2.40033180e-01, 4.94520456e-01, 2.02619672e-01, 2.60394245e-01,
          4.94468004e-01, 2.60607123e-01, 8.73481110e-02 ]
      - [ 7.60196820e-02, 6.35376498e-02, 7.10297942e-01, 0.,
          1.51613548e-01, 3.55437040e-01, 1.29874423e-01, 0.,
          1.29399836e-01, 5.36034815e-02, 1.89516935e-02, 1.45214885e-01,
          0., 5.49925752e-02, 1., 0., 3.93992573e-01, 5.25131464e-01,
          4.34800595e-01, 1.12354182e-01, 7.96480477e-02, 5.36034815e-02,
          7.02567622e-02, 8.68845731e-02, 7.60196820e-02, 2.14428944e-03,
          8.32980350e-02, 0., 6.95301592e-02, 8.80788267e-02,
          1.17796987e-01, 1.48269504e-01, 6.14866465e-02, 1.34055138e-01,
          5.72053082e-02, 2.10277244e-01, 36., 3., 2., 14., 7., 2., 7.,
          3., 7., 9., 1., 2., 1., 3., 5., 42., 12., 4., 2., 2., 5., 11.,
          4., 6., 6., 2., 12., 14., 4., 9., 3., 48., 0., 5.61920684e-43,
          0., 1.19597211e-01, 3.29894453e-01, 0., 6.34260058e-01,
          7.20708787e-01, 8.85438323e-02, 2.45675042e-01, 2.20392197e-01,
          2.03412786e-01, 7.95934126e-02, 3.37250978e-01, 0.,
          2.13684753e-01, 3.83052588e-01, 1.64086029e-01, 2.50651985e-01,
          4.05147046e-01, 0., 3.74929279e-01, 4.97440368e-01,
          1.05275042e-01, 1.60988674e-01, 9.92884099e-01, 4.11210179e-01,
          3.52582067e-01, 4.01270092e-01 ]
      - [ 4., 9., 2., 6., 7., 71., 0., 3., 0., 1., 2., 5., 1., 3., 0.,
          3., 14., 11., 2., 7., 7., 85., 0., 5.61920684e-43, 0., 0.,
          1.05136707e-01, 1.20213754e-01, 8.06470871e-01, 1.15617886e-01,
          0., 0., 4.89379853e-01, 1.02966607e-01, 1.61283672e-01,
          8.12754929e-01, 1.05992302e-01, 0., 5.83703041e-01, 0.,
          3.69194567e-01, 2.58774847e-01, 2.78095827e-02, 0.,
          5.95831871e-01, 1.84254616e-01, 8.06418359e-02, 1., 0., 0.,
          2.20379665e-01, 2.35176742e-01, 9.57769156e-02, 2.82910675e-01,
          3.24469283e-02, 1.22216344e-01, 1.06978513e-01, 8.07904527e-02,
          1.92277014e-01, 3.52412730e-01, 8.40019137e-02, 4.87445593e-01,
          8.34324479e-01, 2.41624862e-01, 2.63131857e-01, 4.76970792e-01,
          2.94486303e-02, 0., 3.73795539e-01, 0., 0., 4.64393616e-01,
          8.98675248e-02, 2.17609643e-03, 9.17654634e-02, 1.19403079e-01,
          9.02690664e-02, 8.72518644e-02, 2.99017131e-02, 1.74594775e-03,
          7.82992914e-02, 9.20029208e-02, 6.20289333e-02, 8.48245546e-02,
          6.99654371e-02, 1.98684394e-01, 8.61811936e-02, 2.09170148e-01,
          7.72354752e-02, 2.83521414e-01, 33., 6., 9., 6., 17., 2., 10. ]
      - [ 2.21816719e-01, 5.09173535e-02, 6.30543455e-02, 7.27139413e-02,
          7.05364347e-02, 6.77585825e-02, 6.23012707e-02, 2.35035457e-03,
          5.89282699e-02, 6.23042695e-02, 4.63533923e-02, 6.47346452e-02,
          7.06796274e-02, 1.76400334e-01, 7.32973516e-02, 1.78147286e-01,
          6.40568957e-02, 2.47528091e-01, 37., 13., 10., 17., 5., 5., 4.,
          9., 15., 2., 7., 6., 8., 1., 4., 1., 18., 2., 6., 5., 4., 5.,
          8., 2., 12., 8., 19., 29., 6., 1., 10., 9., 0., 5.61920684e-43,
          0., 7.22838715e-02, 7.21742392e-01, 0., 3.39603961e-01, 0., 0.,
          0., 5.12490988e-01, 2.59739459e-01, 1.32393584e-01,
          4.09794956e-01, 1.49071574e-01, 5.11733770e-01, 4.87933099e-01,
          0., 7.71897882e-02, 3.62921625e-01, 0., 7.35345334e-02,
          9.00902748e-01, 7.32739344e-02, 0., 7.51271427e-01,
          1.82652891e-01, 3.78314734e-01, 2.61088908e-01, 1.48998827e-01,
          6.43490851e-01, 1.53601095e-01, 6.25206754e-02, 9.23127457e-02,
          4.09998566e-01, 9.04073119e-02, 2.52962679e-01, 9.89401400e-01,
          0., 1.66765630e-01, 1., 2.99682140e-01, 3.06039661e-01,
          2.61248440e-01, 1.23646490e-01, 3.73530447e-01, 6.74830496e-01 ]
      - [ 1.73730567e-01, 0., 0., 6.18236214e-02, 3.49263757e-01, 0.,
          2.57149376e-02, 0., 4.03019577e-01, 3.40038352e-02,
          1.77084893e-01, 1., 7.48742521e-02, 8.37017447e-02,
          3.42418104e-01, 0., 2.65470266e-01, 1.20138280e-01,
          4.18508723e-02, 5.00032827e-02, 2.63305783e-01, 0.,
          1.59989893e-01, 5.03512323e-01, 1.86368138e-01, 1.25780240e-01,
          2.68921494e-01, 0., 1.19685955e-01, 2.36239955e-01, 0., 0.,
          4.45907503e-01, 8.51517692e-02, 3.03608418e-01, 2.34117001e-01,
          1.46572009e-01, 1.04740992e-01, 6.11339584e-02, 6.18236214e-02,
          4.65876572e-02, 5.93963712e-02, 3.37829068e-02, 8.62125540e-04,
          5.89229092e-02, 3.97185348e-02, 4.22075875e-02, 5.89779839e-02,
          6.46161065e-02, 1.95234403e-01, 8.75159875e-02, 1.91315427e-01,
          7.52256513e-02, 2.82163501e-01, 45., 6., 3., 11., 13., 0., 4.,
          1., 7., 3., 1., 2., 9., 2., 6., 31., 12., 7., 2., 3., 6., 3.,
          5., 4., 4., 1., 26., 13., 1., 8., 16., 33., 0., 5.61920684e-43,
          0., 0., 1.68903574e-01, 4.52734306e-02, 9.72740352e-02,
          1.06043302e-01, 0., 5.99496923e-02, 2.66854405e-01 ]
      - [ 8.42798352e-01, 1.05084568e-01, 2.33091682e-01, 9.13049340e-01,
          1.06280863e-01, 2.00628340e-01, 1.98560134e-01, 2.62158588e-02,
          0., 2.30358779e-01, 1.06747866e-01, 0., 6.36862040e-01, 0.,
          2.33091682e-01, 7.58825779e-01, 1.95896924e-01, 1.45682305e-01,
          1.12624414e-01, 5.69114909e-02, 1.12484857e-01, 0.,
          9.83524173e-02, 9.86535907e-01, 1., 3.86298560e-02,
          1.16545841e-01, 9.84155595e-01, 0., 6.98252320e-02, 0., 0.,
          1.07429124e-01, 2.00317591e-01, 1.88877746e-01, 3.72921419e-03,
          9.55133662e-02, 1.01079717e-01, 1.06833689e-01, 8.90270621e-02,
          1.05147541e-01, 6.44537108e-03, 9.12518650e-02, 2.77091172e-02,
          7.33046606e-02, 7.42698163e-02, 1.04856052e-01, 1.94720045e-01,
          8.45958069e-02, 2.02385709e-01, 6.82303607e-02, 2.62245566e-01,
          28., 12., 6., 10., 6., 4., 11., 5., 7., 10., 6., 3., 3., 7.,
          6., 20., 3., 6., 2., 4., 9., 23., 3., 15., 2., 4., 10., 11.,
          3., 14., 9., 26., 0., 5.61920684e-43, 0., 1.14457779e-01, 0.,
          0., 0., 7.93413743e-02, 7.08770379e-02, 2.28821754e-01,
          3.69495928e-01, 9.61332023e-02, 0. ]
      - [ 4.54257369e-01, 6.27916038e-01, 1.92302987e-02, 0.,
          9.08914432e-02, 6.72364011e-02, 1.77040726e-01, 1.70063779e-01,
          0., 1.13107175e-01, 4.53729779e-01, 0., 8.75927627e-01, 1.,
          4.12580259e-02, 9.12447050e-02, 0., 0., 5.05830646e-02,
          1.13836594e-01, 1.43525735e-01, 1.38398707e-01, 8.27875584e-02,
          9.12141427e-02, 7.82954395e-02, 7.49326795e-02, 3.90139706e-02,
          1.38249551e-03, 8.82018432e-02, 6.72364011e-02, 6.10405542e-02,
          1.03448249e-01, 8.82148370e-02, 2.01578617e-01, 8.90978351e-02,
          2.08353996e-01, 7.36898705e-02, 2.67771542e-01, 22., 7., 8.,
          7., 10., 4., 7., 9., 6., 8., 4., 6., 15., 4., 6., 21., 4., 3.,
          3., 5., 3., 14., 5., 10., 4., 3., 14., 16., 7., 5., 16., 32.,
          0., 5.61920684e-43, 0., 2.23256588e-01, 4.27595407e-01, 0.,
          3.04750174e-01, 5.30943274e-01, 0., 1.13648869e-01,
          2.70131320e-01, 0., 1.25769913e-01, 0., 1.26604378e-01,
          2.90845692e-01, 5.52103162e-01, 0., 4.95823711e-01,
          9.77130949e-01, 0., 0., 3.15167964e-01, 1.60216317e-01,
          3.86984348e-02, 0., 3.78578931e-01 ]
      - [ 1.48485348e-01, 1.23471469e-01, 4.33561534e-01, 1.02994978e-01,
          6.25872314e-02, 5.06514788e-01, 0., 2.29634941e-01,
          4.60378170e-01, 6.29454479e-02, 3.93405467e-01, 7.03010082e-01,
          0., 7.37296492e-02, 2.86740929e-01, 1.52596429e-01,
          1.43509135e-01, 4.74915177e-01, 6.79187655e-01, 1.43056542e-01,
          3.07343155e-01, 2.19625250e-01, 3.57641339e-01, 1.,
          8.60211551e-02, 0., 2.40752310e-01, 1.44169837e-01,
          2.13577166e-01, 8.58211577e-01, 3.66418868e-01, 2.05831215e-01,
          1.19987421e-01, 1.01201713e-01, 1.04776591e-01, 9.67850983e-02,
          8.30337331e-02, 3.37967463e-03, 8.73686150e-02, 7.99522474e-02,
          5.85517697e-02, 1.14966430e-01, 1.15773715e-01, 1.88591734e-01,
          8.22078958e-02, 1.82510138e-01, 7.04468712e-02, 2.80229867e-01,
          29., 10., 7., 8., 13., 19., 5., 4., 8., 7., 5., 2., 4., 3., 3.,
          17., 22., 11., 4., 5., 10., 10., 3., 5., 3., 4., 13., 9., 4.,
          4., 10., 27., 0., 5.61920684e-43, 0., 7.65680671e-02,
          2.89142102e-01, 0., 2.06060916e-01, 5.92250645e-01, 0.,
          8.86664763e-02, 2.03786090e-01, 0., 0., 1.43814921e-01, 0.,
          7.02143192e-01, 4.81457293e-01 ]
      - [ 15., 6., 42., 14., 5., 5., 7., 1., 0., 5.61920684e-43, 0.,
          1.62582472e-01, 3.44617814e-01, 0., 1.61518008e-01, 0.,
          9.14991796e-02, 0., 1.33844361e-01, 4.36443053e-02,
          5.44955395e-02, 4.08030033e-01, 0., 3.47409070e-01,
          3.79866570e-01, 0., 4.58703607e-01, 8.31838325e-02, 0.,
          9.09694135e-02, 3.88125777e-01, 8.29761922e-02, 4.65610102e-02,
          6.42060995e-01, 3.56636271e-02, 6.73418343e-02, 1.00729264e-01,
          0., 0., 0., 0., 4.41254079e-02, 1.84485927e-01, 1.34767532e-01,
          1.85284838e-01, 7.62949109e-01, 4.49381731e-02, 9.11401287e-02,
          4.43260401e-01, 0., 2.17982158e-01, 8.31838325e-02,
          4.49381731e-02, 0., 2.53140450e-01, 1.32095262e-01,
          4.08716546e-03, 1., 7.49344677e-02, 5.06419316e-03,
          8.45649391e-02, 0., 7.62003437e-02, 8.31838325e-02,
          4.54791188e-02, 1.66783726e-03, 6.39730990e-02, 4.91854101e-02,
          3.63035686e-02, 6.39327317e-02, 5.18454202e-02, 1.71346560e-01,
          7.20915124e-02, 1.69048145e-01, 6.79896846e-02, 2.08315060e-01,
          43., 8., 6., 18., 9., 4., 3., 9., 8., 4., 0., 1., 6., 7., 2.,
          16., 16., 0., 5., 4., 4. ]
      - [ 7.99901560e-02, 9.27620754e-02, 1.02998644e-01, 1.96310326e-01,
          8.56015310e-02, 1.99383140e-01, 7.09902272e-02, 2.82176495e-01,
          21., 11., 11., 4., 13., 2., 2., 10., 8., 8., 8., 6., 6., 6.,
          10., 18., 10., 5., 13., 5., 5., 9., 5., 4., 12., 3., 13., 8.,
          5., 10., 11., 26., 0., 5.61920684e-43, 0., 3.31975132e-01,
          5.57457268e-01, 1.65987566e-01, 5.26390314e-01, 1.04188658e-01,
          0., 1.12883754e-01, 4.02336031e-01, 0., 2.37332568e-01,
          8.41198862e-01, 1.01890765e-01, 1.83353633e-01, 5.19244492e-01,
          0., 4.82483000e-01, 5.96728921e-01, 7.92796984e-02,
          8.29937831e-02, 9.97338116e-01, 1.46681562e-01, 1.62184179e-01,
          3.26718509e-01, 2.67281890e-01, 2.96927571e-01, 5.51497996e-01,
          3.15606743e-01, 9.44483042e-01, 2.91293085e-01, 1.24198548e-01,
          1.49679407e-01, 2.21502677e-01, 7.80225024e-02, 2.01817960e-01,
          8.41986001e-01, 1.53318405e-01, 2.87890047e-01, 7.56591260e-01,
          5.44558227e-01, 2.01902285e-01, 5.99631071e-01, 0.,
          9.52227116e-02, 1., 0., 0., 7.65741110e-01, 4.87519294e-01,
          1.59441512e-02, 1.49049446e-01, 1.46593228e-01, 1.26779914e-01,
          1.22449361e-01, 1.01739123e-01 ]
      - [ 2.40936458e-01, 3.34027499e-01, 0., 1.83586448e-01,
          3.16917747e-01, 0., 6.93427026e-02, 3.32274795e-01,
          1.04516722e-01, 4.39213872e-01, 4.62911338e-01, 4.32539105e-01,
          2.39213035e-01, 2.70164818e-01, 0., 4.17104483e-01,
          1.75182849e-01, 1.04656667e-01, 0., 1., 1.17044657e-01,
          3.59129876e-01, 1.84774682e-01, 0., 2.80216992e-01,
          3.38848919e-01, 0., 3.34034786e-02, 4.79902267e-01, 0., 0.,
          4.89954263e-01, 1.76266477e-01, 2.86502659e-01, 4.99855757e-01,
          1.22423172e-01, 3.89681727e-01, 3.42274010e-01, 0.,
          9.28709134e-02, 2.24125564e-01, 7.25168064e-02, 0.,
          9.88143563e-01, 0., 1.61917396e-02, 1.02409124e-01,
          1.10465251e-01, 9.58373547e-02, 9.18082371e-02, 0.,
          8.07739235e-03, 9.20098722e-02, 5.90578206e-02, 6.93427026e-02,
          8.51628035e-02, 9.94569659e-02, 1.75596789e-01, 7.91967139e-02,
          1.74179852e-01, 7.05093667e-02, 2.10255668e-01, 34., 4., 0.,
          7., 7., 4., 2., 18., 1., 14., 0., 1., 3., 7., 3., 39., 11., 2.,
          3., 6., 5., 18., 0., 12., 6., 1., 3., 8., 1., 17., 0., 51., 0.,
          5.61920684e-43, 0. ]
      - [ 5., 4., 2., 7., 31., 7., 6., 1., 6., 3., 3., 5., 4., 2., 40.,
          12., 6., 3., 7., 8., 0., 5.61920684e-43, 0., 1.29328683e-01,
          4.21312213e-01, 1.11288711e-01, 9.25400734e-01, 6.50775790e-01,
          0., 8.83729234e-02, 2.51249522e-01, 6.83781952e-02, 0.,
          5.06804213e-02, 3.53137434e-01, 4.64687124e-02, 4.35840905e-01,
          0., 5.43475032e-01, 1., 0., 0., 1.17444277e-01, 1.95312798e-01,
          1.15352526e-01, 2.57579684e-01, 7.58108199e-02, 2.43196353e-01,
          5.46558321e-01, 0., 4.62700367e-01, 3.24444264e-01, 0., 0.,
          3.97616476e-01, 1.80304855e-01, 2.87844688e-01, 3.29215169e-01,
          2.48563841e-01, 7.66824782e-02, 1.55941993e-01, 5.39206229e-02,
          2.89187729e-01, 5.66957057e-01, 0., 1.08182892e-01,
          6.56532288e-01, 1.12073079e-01, 2.16603950e-01, 5.24605870e-01,
          5.37537560e-02, 1.23919062e-01, 9.74783376e-02, 8.26046690e-02,
          1.00943811e-01, 8.20057169e-02, 0., 2.80794036e-03,
          9.48561653e-02, 7.94384256e-02, 6.19801171e-02, 8.30057934e-02,
          9.14082304e-02, 1.98256239e-01, 8.87232572e-02, 2.04882145e-01,
          7.10652173e-02, 2.65676945e-01, 37., 10., 6., 9., 10., 1., 1.,
          2., 12. ]
      - [ 6.32856190e-02, 1.00160195e-02, 9.22908559e-02, 9.13366079e-02,
          5.89213222e-02, 1.05435871e-01, 1.13227665e-01, 2.09392145e-01,
          8.97662044e-02, 2.22309709e-01, 7.91040659e-02, 3.06238323e-01,
          48., 8., 4., 5., 8., 0., 10., 0., 11., 3., 0., 0., 7., 3., 6.,
          31., 17., 9., 7., 2., 6., 21., 4., 8., 5., 2., 8., 1., 4., 5.,
          8., 37., 0., 5.61920684e-43, 0., 0., 7.79301882e-01, 0.,
          3.51685345e-01, 3.76778752e-01, 1.20840490e-01, 7.70838559e-02,
          2.16536954e-01, 1.21426880e-02, 2.71001965e-01, 2.49092087e-01,
          4.97866631e-01, 0., 8.64263892e-01, 9.61671993e-02,
          5.92031658e-01, 5.61834931e-01, 1.06146865e-01, 0.,
          3.88490319e-01, 4.11059223e-02, 3.94219533e-02, 2.33596295e-01,
          2.76384413e-01, 2.79851764e-01, 4.66888011e-01, 0.,
          3.08680356e-01, 5.01319468e-01, 0., 6.34185225e-02,
          2.58646786e-01, 0., 0., 6.38671339e-01, 5.89437187e-01,
          2.44064003e-01, 1.79726809e-01, 0., 5.68387330e-01, 1.,
          2.50510842e-01, 1.01179019e-01, 1.97332188e-01, 1.78872854e-01,
          1.23679414e-01, 4.55443144e-01, 9.26619768e-02, 2.67303968e-03,
          9.95730758e-02 ]
      - [ 1.11096323e-01, 7.35395476e-02, 2.64281005e-01, 8.35940838e-02,
          5.93531579e-02, 3.39304507e-01, 4.71744925e-01, 4.09720931e-03,
          1.04923032e-01, 9.09259319e-02, 9.65672061e-02, 9.40136239e-02,
          7.18927160e-02, 9.68451891e-03, 8.73275399e-02, 6.83509484e-02,
          6.37893155e-02, 8.62427354e-02, 8.23716298e-02, 2.04377800e-01,
          8.71094912e-02, 2.04788566e-01, 7.57620484e-02, 2.96278179e-01,
          74., 11., 13., 2., 15., 1., 5., 0., 14., 6., 1., 0., 1., 0.,
          1., 0., 25., 16., 11., 6., 16., 15., 8., 4., 12., 3., 16., 1.,
          3., 7., 1., 0., 0., 5.61920684e-43, 0., 0., 2.77724087e-01,
          2.51967553e-02, 2.01475695e-01, 4.57094789e-01, 0.,
          5.04242294e-02, 2.66514748e-01, 9.03422609e-02, 0.,
          1.53661281e-01, 1.56994238e-01, 1.08733386e-01, 7.04083085e-01,
          0., 4.50304627e-01, 1.40885398e-01, 5.42126670e-02,
          3.77766937e-02, 2.63500452e-01, 0., 7.55533874e-02,
          1.42025873e-01, 1.73778221e-01, 1.79334462e-01, 4.18425739e-01,
          0., 2.49586672e-01, 4.22133476e-01, 1.03470698e-01, 0.,
          1.11389659e-01, 0., 2.07832336e-01, 3.15400213e-01, 0., 0.,
          2.04330012e-01 ]
      - [ 0., 5.48329484e-03, 1.13798767e-01, 8.35695043e-02,
          1.11849874e-01, 9.77120772e-02, 8.92491788e-02, 7.15779234e-03,
          9.67721343e-02, 9.13269743e-02, 7.18321502e-02, 9.92043167e-02,
          9.52901542e-02, 1.99525476e-01, 8.61068144e-02, 2.02051997e-01,
          7.09584579e-02, 2.79955000e-01, 59., 13., 9., 5., 12., 2., 8.,
          2., 14., 4., 2., 3., 0., 2., 7., 2., 32., 12., 10., 5., 10.,
          7., 3., 7., 8., 4., 25., 2., 4., 4., 6., 5., 0.,
          5.61920684e-43, 0., 8.22021365e-02, 1., 1.59647450e-01,
          1.66053951e-01, 1.35386437e-01, 4.37625460e-02, 0.,
          6.92244396e-02, 1.85634553e-01, 4.74439822e-02, 2.36939982e-01,
          9.84829888e-02, 9.48879644e-02, 4.91456002e-01, 1.96723655e-01,
          2.14517638e-01, 2.69106507e-01, 0., 3.66647780e-01,
          3.50686878e-01, 8.89225379e-02, 0., 1.65355325e-01,
          7.46667385e-02, 3.22042972e-01, 6.65807903e-01, 1.47696897e-01,
          4.61917847e-01, 1.34889618e-01, 7.68716112e-02, 9.51246023e-02,
          7.02488720e-02, 3.51557136e-02, 1.18609957e-01, 1.72433853e-01,
          0., 2.84498900e-01, 8.78136933e-01, 8.12848732e-02,
          2.69464880e-01, 3.36352646e-01, 1.07671939e-01, 3.56601253e-02,
          4.95695680e-01 ]
      - [ 0., 2.71003366e-01, 7.31518343e-02, 5.73900156e-02,
          3.23297918e-01, 0., 7.26942495e-02, 3.19008648e-01, 0.,
          6.70456737e-02, 3.94521713e-01, 0., 1.78226650e-01,
          6.20436966e-01, 0., 1.00349136e-01, 3.23283702e-01, 0.,
          1.45388499e-01, 4.80086148e-01, 5.77785186e-02, 1.15557037e-01,
          4.20803964e-01, 0., 4.20400500e-02, 5.42906523e-01, 0.,
          7.03344569e-02, 9.60427374e-02, 7.22231492e-02, 2.95630336e-01,
          1.30378753e-01, 1.77058950e-01, 1.42911270e-01, 1.,
          1.19113468e-01, 8.40801001e-02, 1.56109959e-01, 0.,
          1.41858622e-01, 0., 4.43141013e-02, 1.41483501e-01,
          6.37795389e-01, 1.72732234e-01, 7.34474063e-02, 8.61955136e-02,
          1.19113468e-01, 7.60867000e-02, 8.37082565e-02, 7.31518343e-02,
          3.66269541e-03, 8.25138241e-02, 5.82686253e-02, 5.03997393e-02,
          9.79543030e-02, 8.15139413e-02, 1.43133804e-01, 5.73443323e-02,
          1.31503567e-01, 5.15496545e-02, 2.21247464e-01, 46., 11., 7.,
          20., 12., 0., 3., 3., 11., 4., 1., 2., 2., 1., 2., 19., 19.,
          7., 4., 3., 7., 7., 3., 3., 3., 4., 32., 18., 2., 6., 6., 20.,
          0., 5.61920684e-43, 0. ]
      - [ 1., 3., 0., 6., 13., 2., 1., 98., 0., 2., 0., 0., 3., 1., 0.,
          0., 0., 1., 2., 12., 0., 5., 13., 105., 0., 5.61920684e-43, 0.,
          0., 2.22842768e-01, 3.23606104e-01, 1.61990330e-01,
          2.10071772e-01, 0., 2.29350373e-01, 6.20503128e-01, 0.,
          1.67052522e-01, 4.65028584e-01, 0., 0., 5.15700042e-01,
          1.54635429e-01, 4.01179165e-01, 7.37132967e-01, 0., 0.,
          5.80248654e-01, 1.37706667e-01, 2.27798894e-01, 5.72260737e-01,
          3.29391032e-01, 8.09951648e-02, 5.45160413e-01, 0.,
          3.79801929e-01, 2.25622997e-01, 0., 0., 2.98128605e-01,
          3.95436674e-01, 2.10081205e-01, 5.11338353e-01, 1.60799503e-01,
          2.59733021e-01, 1., 0., 7.46674165e-02, 3.37636203e-01,
          5.94942831e-02, 9.05553475e-02, 1.42872617e-01, 8.15689862e-01,
          2.69562036e-01, 6.72682703e-01, 6.07990809e-02, 3.40728194e-01,
          1.08747780e-01, 1.59413844e-01, 1.27204850e-01, 1.25872001e-01,
          5.94942831e-02, 3.43984645e-03, 1.17268071e-01, 1.12402767e-01,
          7.94995129e-02, 1.23406135e-01, 1.37747407e-01, 1.58464506e-01,
          6.69403896e-02, 1.45811856e-01, 5.77795357e-02, 2.21889183e-01,
          52., 13., 6., 14., 12. ]
      - [ 3.59411210e-01, 0., 5.79292513e-02, 5.31641953e-02,
          1.54242828e-01, 5.08703411e-01, 7.18560517e-01, 8.00278708e-02,
          1.34827361e-01, 0., 0., 5.67470230e-02, 2.38876447e-01,
          7.92684704e-02, 1.03736624e-01, 2.81353295e-01, 0.,
          8.53438303e-03, 5.86746559e-02, 6.32233098e-02, 6.36967048e-02,
          6.11319356e-02, 2.37992536e-02, 4.07998124e-03, 5.24876267e-02,
          3.96342352e-02, 3.32495384e-02, 5.85612692e-02, 6.60579354e-02,
          1.76109672e-01, 7.50430673e-02, 1.80154577e-01, 6.81468025e-02,
          2.42803454e-01, 18., 5., 6., 17., 7., 2., 0., 7., 7., 6., 0.,
          4., 13., 3., 5., 44., 8., 1., 2., 6., 3., 1., 2., 4., 4., 4.,
          13., 17., 4., 9., 15., 51., 0., 5.61920684e-43, 0., 0.,
          2.54615724e-01, 8.76466334e-02, 4.95573878e-01, 5.19225240e-01,
          0., 0., 3.20988685e-01, 2.75952041e-01, 3.62797797e-01,
          1.06150135e-01, 1.39607802e-01, 0., 2.56033868e-01, 0.,
          4.37041521e-01, 9.54247057e-01, 0., 1.27898097e-01,
          7.87001967e-01, 1.98441923e-01, 2.05314025e-01, 2.35488027e-01,
          2.29874060e-01, 6.24345019e-02, 1.44541189e-01, 5.58788963e-02,
          1. ]
      - [ 3.78580719e-01, 3.24151814e-01, 0., 2.54214674e-01,
          3.72062951e-01, 0., 1.50324300e-01, 5.70789993e-01,
          4.79685307e-01, 3.82684320e-01, 8.79664838e-01, 2.05761597e-01,
          5.41857839e-01, 5.10842025e-01, 0., 5.16770482e-02,
          4.50071871e-01, 0., 9.93844792e-02, 1., 1.17844179e-01,
          1.01857977e-02, 1.14636242e-01, 8.41583759e-02, 1.01683095e-01,
          1.06258258e-01, 1.09057240e-01, 4.36988194e-03, 1.17447838e-01,
          8.46532211e-02, 1.01690426e-01, 1.08993091e-01, 1.19505897e-01,
          1.89185843e-01, 8.18101466e-02, 1.84590429e-01, 6.86644837e-02,
          2.25635022e-01, 59., 8., 9., 2., 15., 6., 9., 2., 16., 9., 4.,
          1., 1., 2., 0., 1., 32., 8., 12., 2., 7., 15., 4., 8., 8., 3.,
          25., 1., 4., 9., 4., 2., 0., 5.61920684e-43, 0., 0.,
          7.06249297e-01, 0., 7.93603718e-01, 2.33003959e-01, 0.,
          1.43025532e-01, 1.04274213e-01, 0., 2.71698982e-01,
          5.20012915e-01, 2.67048210e-01, 3.60211805e-02, 5.79683959e-01,
          0., 9.06316996e-01, 5.66282570e-01, 0., 0., 5.37822664e-01, 0.,
          7.26030096e-02, 1., 7.52511472e-02 ]
      - [ 7.31111690e-02, 2.46944249e-01, 8.75986516e-02, 0.,
          1.56240776e-01, 1.10478908e-01, 0., 6.33056685e-02,
          8.72938275e-01, 0., 1.49071217e-01, 1., 2.30069190e-01,
          6.59436313e-03, 8.87992084e-02, 0., 8.84244666e-02,
          5.30561805e-02, 6.05960004e-02, 4.30805469e-03, 8.38931650e-02,
          5.07325232e-02, 6.30043522e-02, 7.53756687e-02, 9.87373888e-02,
          1.94156185e-01, 8.48620236e-02, 1.96136862e-01, 7.39049241e-02,
          2.40381122e-01, 33., 10., 3., 12., 8., 1., 3., 5., 3., 4., 0.,
          5., 12., 9., 8., 28., 4., 3., 3., 2., 3., 3., 2., 6., 4., 0.,
          30., 14., 2., 8., 16., 44., 0., 5.61920684e-43, 0., 0.,
          2.52558321e-01, 1.42505512e-01, 3.55717510e-01, 6.51378036e-01,
          0., 1.06553912e-01, 3.76036078e-01, 0., 2.53577113e-01,
          2.64053077e-01, 0., 3.18652004e-01, 4.11038339e-01,
          9.76849124e-02, 2.03820795e-01, 4.86907393e-01, 0., 0.,
          5.13451755e-01, 3.94563153e-02, 1.25159368e-01, 6.32302821e-01,
          2.05977842e-01, 1.63309157e-01, 5.94354928e-01, 3.13456297e-01,
          4.37551707e-01, 2.58605748e-01, 0., 0., 2.80333310e-01 ]
      - [ 6.32201195e-01, 3.79965842e-01, 2.18104020e-01, 1.18520945e-01,
          1., 8.04257616e-02, 0., 8.24404418e-01, 1.59890115e-01,
          2.12812543e-01, 6.81252718e-01, 1.86561748e-01, 2.59788007e-01,
          4.28565890e-01, 1.40832081e-01, 1.94064602e-01, 4.21586335e-01,
          0., 3.54687572e-02, 4.25228387e-01, 2.92218000e-01,
          5.24852872e-01, 9.11853850e-01, 1.73738718e-01, 1.03835128e-01,
          6.04256392e-01, 0., 2.36693814e-01, 3.59086603e-01, 0.,
          1.42298087e-01, 4.97493565e-01, 1.46241426e-01, 2.78299162e-03,
          1.31248385e-01, 9.63209122e-02, 1.03805371e-01, 1.00928001e-01,
          1.19645365e-01, 1.05764065e-02, 1.04924992e-01, 8.04257616e-02,
          5.33089004e-02, 1.02294154e-01, 1.39859453e-01, 1.82172388e-01,
          7.85151049e-02, 1.79170281e-01, 6.94960877e-02, 2.50198931e-01,
          24., 9., 4., 3., 5., 2., 8., 2., 6., 7., 1., 4., 5., 4., 6.,
          54., 7., 5., 4., 4., 8., 11., 4., 6., 6., 1., 7., 3., 3., 10.,
          5., 60., 0., 5.61920684e-43, 0., 0., 1.00536935e-01, 0.,
          2.39846244e-01, 5.08311272e-01, 0., 4.94424738e-02,
          1.83011785e-01, 8.24296102e-02, 4.94424738e-02, 1.64115742e-01,
          2.83801496e-01 ]
      - [ 5.19715995e-02, 1., 3.55175994e-02, 1.52673349e-01,
          5.05750954e-01, 1.41463608e-01, 3.16046506e-01, 7.41821304e-02,
          8.21743160e-02, 1.86117515e-01, 6.23054743e-01, 0.,
          9.20256302e-02, 1.84430540e-01, 1.27110019e-01, 1.03943199e-01,
          6.67123258e-01, 1.07142195e-01, 3.98091048e-01, 2.71523446e-01,
          1.02721103e-01, 1.54061645e-01, 2.77377397e-01, 0., 0.,
          8.82307768e-01, 2.11657375e-01, 5.64891798e-03, 9.85303149e-02,
          8.17311406e-02, 8.54949281e-02, 9.30603892e-02, 8.59288424e-02,
          8.00974667e-03, 7.96888173e-02, 6.70380965e-02, 4.95880842e-02,
          7.38732293e-02, 6.98116049e-02, 2.10705280e-01, 9.06001329e-02,
          2.19733864e-01, 7.57817253e-02, 2.80879557e-01, 74., 10., 15.,
          2., 13., 1., 3., 1., 10., 6., 1., 2., 2., 1., 2., 1., 52., 10.,
          7., 5., 17., 21., 3., 7., 2., 1., 2., 2., 4., 9., 0., 2., 0.,
          5.61920684e-43, 0., 0., 5.71243107e-01, 0., 8.15825820e-01,
          2.07955614e-01, 0., 0., 1.47046819e-01, 0., 1.03977807e-01, 0.,
          1.45498589e-01, 0., 1., 0., 7.15047359e-01, 2.88442433e-01, 0. ]
      - [ 0., 5.61920684e-43, 0., 8.27329680e-02, 2.20204487e-01,
          9.54677016e-02, 3.83662641e-01, 4.01705891e-01, 7.91016817e-02,
          9.37441587e-02, 1.65272847e-01, 5.79490811e-02, 5.26410937e-02,
          1.69910789e-01, 0., 2.07324937e-01, 1., 1.67653412e-01,
          2.07375541e-01, 4.37497407e-01, 1.73820972e-01, 0.,
          3.36176723e-01, 0., 5.18312342e-02, 4.99889165e-01, 0., 0.,
          6.09401107e-01, 5.79490811e-02, 2.36920938e-01, 3.58461022e-01,
          0., 5.18312342e-02, 1.56646967e-01, 1.09022126e-01,
          1.45121425e-01, 1.92908540e-01, 4.31613475e-01, 2.46533141e-01,
          6.95622087e-01, 8.20163786e-02, 1.23141795e-01, 6.07176840e-01,
          1.80614695e-01, 0., 7.78817087e-02, 1.03644848e-01,
          1.23909041e-01, 3.48223984e-01, 2.22729504e-01, 2.68295527e-01,
          8.70768130e-02, 8.06173161e-02, 6.79357797e-02, 7.52017125e-02,
          8.67074728e-02, 1.96723500e-03, 7.35978261e-02, 6.76540136e-02,
          4.66878489e-02, 8.64951760e-02, 9.34775695e-02, 1.95878580e-01,
          8.36900324e-02, 2.00297862e-01, 7.82505646e-02, 2.76436627e-01,
          59., 9., 7., 7., 16., 4., 8., 4., 11., 8., 0., 3., 0., 4., 0.,
          4., 26., 6., 9., 8., 9., 10., 5., 6., 8., 7., 19., 8., 7. ]
      - [ 4.30816740e-01, 5.31453729e-01, 0., 4.04001549e-02, 1.,
          7.12044761e-02, 1.77271649e-01, 4.36015010e-01, 7.69656375e-02,
          4.05843407e-01, 5.85378885e-01, 0., 2.69334376e-01,
          3.07760030e-01, 0., 1.34667186e-02, 2.80612260e-01,
          1.24000058e-01, 2.69334372e-02, 5.67853928e-01, 4.38011259e-01,
          2.15467498e-01, 4.64334130e-01, 3.57324868e-01, 3.01724941e-01,
          9.71098840e-02, 1.74423724e-01, 1.37478203e-01, 4.86253262e-01,
          0., 1.28472254e-01, 3.08139116e-01, 2.59844720e-01,
          5.51345898e-03, 1.04311235e-01, 8.86252820e-02, 8.99872929e-02,
          7.80269727e-02, 6.75895363e-02, 3.13680456e-03, 8.25578421e-02,
          8.37159306e-02, 5.54462224e-02, 7.74577036e-02, 7.04383329e-02,
          2.07141668e-01, 9.16596651e-02, 2.12628424e-01, 7.45773315e-02,
          3.10878068e-01, 56., 18., 9., 2., 8., 9., 8., 3., 17., 3., 3.,
          2., 2., 2., 2., 0., 37., 15., 6., 6., 11., 15., 6., 6., 7., 3.,
          15., 1., 5., 9., 1., 1., 0., 5.61920684e-43, 0., 0.,
          3.78554612e-01, 1.57955140e-01, 1.74764812e-01, 4.23693269e-01,
          1.11062206e-01, 2.15151355e-01, 2.91046619e-01, 1.94876045e-01,
          2.90172786e-01, 5.00743926e-01, 0. ]
      - [ 7.64517263e-02, 1.92421138e-01, 6.76764622e-02, 2.61425585e-01,
          66., 5., 8., 8., 9., 1., 4., 6., 7., 3., 1., 3., 2., 1., 4.,
          16., 27., 4., 9., 3., 8., 26., 2., 5., 8., 2., 12., 6., 3., 4.,
          3., 22., 0., 5.61920684e-43, 0., 1.12788551e-01,
          4.95164245e-01, 0., 6.46051392e-02, 4.27024692e-01,
          8.70319232e-02, 0., 1.06754765e-01, 0., 0., 4.71804410e-01,
          2.06517726e-01, 1.49121523e-01, 6.17435932e-01, 0.,
          4.36037898e-01, 8.03925276e-01, 2.21536636e-01, 1.56171203e-01,
          3.94887179e-01, 8.42940658e-02, 0., 1.94664270e-01, 0.,
          2.84248114e-01, 4.61369246e-01, 2.23000377e-01, 1.,
          2.06962675e-01, 1.17003389e-01, 0., 5.84355474e-01,
          1.15080528e-01, 0., 1.89686149e-01, 0., 1.52686313e-01,
          4.62180793e-01, 1.63413256e-01, 5.77861726e-01, 5.54309905e-01,
          2.71725133e-02, 1.29151717e-01, 4.85577345e-01, 0.,
          6.98152259e-02, 6.67228818e-01, 0., 6.85141655e-03,
          1.07165799e-01, 9.66034085e-02, 1.15472488e-01, 1.04853816e-01,
          9.05488878e-02, 3.17025441e-03, 9.82234180e-02, 9.96872932e-02,
          6.98152259e-02 ]
      - [ 4.07152981e-01, 7.76625872e-02, 5.49963601e-02, 6.96994185e-01,
          9.96957198e-02, 1.62192315e-01, 2.78543800e-01, 1.13045253e-01,
          3.40410411e-01, 1.57482341e-01, 5.00253066e-02, 1.65792853e-01,
          1., 0., 1.13429993e-01, 5.17438650e-01, 7.92252123e-02,
          3.48401934e-01, 7.77765960e-02, 1.22975603e-01, 4.97930378e-01,
          4.14577812e-01, 2.88281471e-01, 7.23104849e-02, 4.91579175e-01,
          2.33443696e-02, 5.49963601e-02, 7.79283568e-02, 0.,
          1.09992720e-01, 7.26412714e-01, 1.10958576e-01, 3.50665241e-01,
          6.40608072e-01, 0., 4.67519611e-02, 5.03557920e-01,
          2.33759806e-02, 0., 4.74812090e-01, 1.49918795e-01,
          9.74122435e-03, 1.09795399e-01, 1.15659811e-01, 9.52595621e-02,
          8.66191536e-02, 6.83570206e-02, 3.56069137e-03, 8.00763369e-02,
          4.14609797e-02, 5.58556765e-02, 9.30091217e-02, 8.22099298e-02,
          1.95529103e-01, 8.51610526e-02, 2.07677141e-01, 7.37133324e-02,
          2.54256666e-01, 29., 5., 4., 0., 2., 1., 2., 2., 5., 1., 2.,
          0., 11., 7., 2., 71., 3., 2., 1., 3., 6., 1., 0., 2., 6., 1.,
          22., 5., 1., 0., 17., 74., 0., 5.61920684e-43, 0.,
          1.32784590e-01, 6.09846175e-01, 0., 5.59694827e-01 ]
      - [ 0., 3.53138268e-01, 1.56507999e-01, 7.71514118e-01,
          2.63138920e-01, 3.82597923e-01, 0., 2.19588220e-01,
          6.62411079e-02, 2.02619866e-01, 1., 1.84136733e-01,
          1.12131238e-01, 3.55715811e-01, 0., 7.79307187e-02,
          6.43438756e-01, 1.12953342e-01, 3.83242875e-01, 1.53769553e-01,
          0., 2.17278972e-01, 9.09342468e-02, 0., 0., 6.61149383e-01,
          1.28954142e-01, 5.63879967e-01, 1.10798910e-01, 0.,
          2.86535591e-01, 4.44097400e-01, 0., 8.47496539e-02,
          6.40951991e-01, 7.76379257e-02, 2.87616104e-01, 4.35589731e-01,
          2.16756880e-01, 6.28695730e-03, 1.04495659e-01, 9.91102532e-02,
          9.93084460e-02, 9.08283517e-02, 8.76133144e-02, 8.42582434e-03,
          8.22644085e-02, 7.30616301e-02, 7.99494684e-02, 9.02796611e-02,
          1.00443803e-01, 1.75507396e-01, 7.65275061e-02, 1.66235715e-01,
          6.43608496e-02, 2.38162622e-01, 60., 5., 6., 12., 8., 0., 8.,
          7., 6., 2., 1., 4., 8., 7., 2., 8., 6., 2., 3., 2., 2., 45.,
          3., 6., 2., 0., 13., 22., 2., 5., 17., 14., 0., 5.61920684e-43,
          0., 1.12800650e-01, 0., 0., 2.91364133e-01, 3.98356408e-01, 0. ]
      - [ 4., 3., 13., 5., 2., 7., 12., 3., 3., 4., 11., 8., 8., 6., 15.,
          7., 4., 5., 10., 7., 17., 12., 4., 4., 17., 9., 0.,
          5.61920684e-43, 0., 1.00857355e-01, 3.86924088e-01, 0.,
          2.39309534e-01, 1.51582286e-01, 9.82790589e-02, 8.37225392e-02,
          5.34542859e-01, 0., 1.28617734e-01, 3.43143135e-01,
          1.93955466e-01, 5.59261799e-01, 2.74205357e-01, 2.70756651e-02,
          3.37626994e-01, 1.24360226e-01, 2.18153790e-01, 3.49848777e-01,
          8.30573857e-01, 1.22340560e-01, 5.48395142e-02, 4.28950876e-01,
          2.15283111e-01, 2.59878516e-01, 1., 8.12709555e-02,
          3.71763140e-01, 1.29374415e-01, 5.15581071e-02, 3.28387134e-02,
          1.83085829e-01, 1.02760568e-01, 9.07149389e-02, 6.10551417e-01,
          0., 2.77172625e-01, 2.74433702e-01, 2.57552177e-01,
          6.75167143e-01, 3.05741936e-01, 0., 9.34017152e-02,
          7.15698063e-01, 5.13498597e-02, 1.24919027e-01, 5.02093911e-01,
          1.51590809e-01, 8.80272221e-03, 1.29037544e-01, 9.14746970e-02,
          1.01491675e-01, 7.90065378e-02, 9.19977352e-02, 7.36594340e-03,
          8.70730951e-02, 9.21503305e-02, 6.65151998e-02, 8.97494927e-02,
          8.01184848e-02, 1.94944292e-01, 8.30103382e-02, 2.02930719e-01,
          7.11461157e-02, 2.73238361e-01, 82., 5., 11. ]
      - [ 0., 2.15946734e-01, 1.70159355e-01, 0., 0., 1.50767684e-01,
          4.54365522e-01, 0., 3.37944448e-01, 6.02582276e-01, 0., 0., 0.,
          0., 2.35605270e-01, 0., 0., 1.63311556e-01, 7.79846191e-01,
          7.04873949e-02, 3.21817696e-01, 6.30168140e-01, 7.39169493e-02,
          0., 0., 1.07973367e-01, 8.98790434e-02, 0., 0., 4.57349373e-03,
          7.48581588e-02, 7.04873949e-02, 5.65392599e-02, 6.88365474e-02,
          7.39169493e-02, 1.46908060e-01, 5.89870028e-02, 1.34202719e-01,
          5.26895225e-02, 2.08886996e-01, 66., 4., 9., 19., 5., 2., 3.,
          0., 12., 1., 1., 1., 3., 0., 0., 18., 9., 14., 2., 1., 13.,
          19., 2., 4., 4., 1., 29., 18., 3., 3., 4., 18., 0.,
          5.61920684e-43, 0., 0., 2.01178730e-01, 0., 4.65200245e-01, 0.,
          8.88662711e-02, 2.26977214e-01, 6.17669582e-01, 2.04299077e-01,
          0., 3.78472000e-01, 2.13926017e-01, 5.38987100e-01,
          6.17655873e-01, 0., 1., 2.24368721e-01, 1.40495867e-01,
          2.40707755e-01, 6.63374662e-01, 7.05469772e-02, 3.10595054e-02 ]
      - [ 9., 12., 3., 7., 8., 7., 20., 6., 6., 6., 4., 8., 0.,
          5.61920684e-43, 0., 1.67750627e-01, 5.15326619e-01, 0.,
          5.10755241e-01, 7.38438785e-01, 0., 1.53525978e-01,
          4.94049340e-01, 0., 1.55142128e-01, 2.11376950e-01,
          5.59837259e-02, 1.55729726e-01, 1.20091170e-01, 0.,
          8.72161508e-01, 1., 1.38442904e-01, 1.32369623e-01,
          2.17939496e-01, 0., 1.37046367e-01, 4.41605002e-01, 0.,
          4.99509335e-01, 5.61706066e-01, 4.23452221e-02, 1.34633914e-01,
          7.42472351e-01, 0., 3.56957346e-01, 1.20091170e-01, 0., 0.,
          2.13873059e-01, 0., 2.25061074e-01, 2.37902686e-01, 0.,
          5.97818494e-01, 8.26082528e-01, 0., 2.96544023e-02,
          6.79578722e-01, 1.99855551e-01, 2.26233274e-01, 3.21638346e-01,
          2.75901500e-02, 2.62012690e-01, 1.59447387e-01, 4.23452221e-02,
          1.24433473e-01, 1.10233121e-01, 1.38442904e-01, 6.86231907e-03,
          1.16281435e-01, 9.99277756e-02, 7.40602538e-02, 1.08044855e-01,
          4.17869389e-02, 1.49890751e-01, 6.54424950e-02, 1.47404432e-01,
          5.55620268e-02, 2.07494646e-01, 6., 3., 2., 10., 6., 15., 4.,
          12., 6., 3., 4., 12., 8., 7., 7., 39., 2. ]
      - [ 6., 19., 0., 9., 0., 1., 4., 63., 0., 5.61920684e-43, 0., 0.,
          1.98683649e-01, 0., 1., 3.30671698e-01, 0., 0., 0., 0.,
          3.59644331e-02, 0., 0., 0., 9.26844120e-01, 0., 7.58580744e-01,
          8.18120360e-01, 9.95387211e-02, 7.33977556e-02, 0., 0.,
          3.59644331e-02, 0., 0., 8.04189220e-02, 1.99513227e-01, 0.,
          2.65973926e-01, 5.01656651e-01, 7.22442642e-02, 2.16303930e-01,
          1.05770990e-01, 0., 2.15786606e-01, 1.05770990e-01, 0.,
          3.60884696e-01, 6.71746194e-01, 0., 1.43857732e-01,
          4.73801762e-01, 2.35694602e-01, 1.99739531e-01, 5.29622436e-01,
          0., 1.25875518e-01, 2.06745118e-01, 2.16365278e-01,
          1.10325903e-01, 1.05094053e-01, 0., 7.74433017e-02,
          1.06212519e-01, 8.14955160e-02, 4.84595262e-03, 1.05898909e-01,
          0., 4.13590968e-02, 1.04172029e-01, 7.21217617e-02,
          1.35023102e-01, 5.45534715e-02, 1.21394143e-01, 5.44973761e-02,
          1.93415970e-01, 41., 10., 3., 15., 10., 1., 5., 2., 5., 2., 1.,
          4., 4., 6., 4., 31., 28., 5., 3., 0., 6. ]
      - [ 2., 1., 6., 6., 4., 48., 15., 3., 4., 5., 5., 1., 5., 3., 6.,
          1., 8., 18., 7., 1., 5., 57., 0., 5.61920684e-43, 0.,
          1.22159593e-01, 4.13950741e-01, 0., 1.29905611e-01,
          1.96600735e-01, 1.43116981e-01, 0., 4.34068888e-01, 0.,
          7.87558928e-02, 2.72196233e-01, 9.92185473e-02, 2.94543356e-01,
          3.34077835e-01, 1.34941280e-01, 1.84757277e-01, 1.71368465e-01,
          0., 0., 1., 0., 6.03475720e-02, 2.58731008e-01, 3.08039397e-01,
          0., 4.09478933e-01, 0., 1.65955827e-01, 4.14265931e-01, 0., 0.,
          1.82100281e-01, 1.35329738e-01, 2.00734839e-01, 2.40991279e-01,
          2.47700632e-01, 0., 5.28972685e-01, 0., 1.50868937e-01,
          7.34467089e-01, 0., 1.09758392e-01, 4.99783039e-01,
          1.43892020e-01, 2.31018052e-01, 2.00399920e-01, 6.74706399e-02,
          1.04175739e-01, 9.36933458e-02, 1.34941280e-01, 7.89359584e-02,
          7.98264295e-02, 7.15584904e-02, 1.18019781e-03, 8.46380889e-02,
          6.98054433e-02, 7.13570490e-02, 8.83925855e-02, 1.03204183e-01,
          1.50142267e-01, 6.20484650e-02, 1.36289567e-01, 5.72708175e-02,
          2.18546554e-01, 36., 13., 7., 20., 10., 0., 6. ]
      - [ 2., 4., 10., 12., 4., 6., 3., 2., 28., 18., 2., 9., 6., 18.,
          0., 5.61920684e-43, 0., 1.37193471e-01, 3.31547648e-01, 0.,
          3.57523948e-01, 1.52473569e-01, 0., 8.72338489e-02,
          4.79228348e-01, 1.80362597e-01, 1.14418693e-01, 3.04479003e-01,
          9.27460566e-02, 3.59799713e-01, 8.88831973e-01, 1.59240350e-01,
          2.86780357e-01, 3.76801431e-01, 1.09221004e-01, 1.90591961e-02,
          7.61949956e-01, 0., 0., 1.65241867e-01, 4.38982584e-02,
          3.47642243e-01, 5.40114999e-01, 0., 5.66207170e-01, 0., 0., 0.,
          7.44726658e-01, 7.97872692e-02, 3.08518410e-01, 8.76101330e-02,
          3.53759974e-01, 1.88887641e-01, 8.43204618e-01, 2.33093306e-01,
          2.93650299e-01, 8.62941816e-02, 1.30140960e-01, 6.31547123e-02,
          1., 0., 1.50911048e-01, 3.31760228e-01, 1.36376515e-01,
          3.91486008e-03, 1.04147971e-01, 9.80834141e-02, 9.40101072e-02,
          1.02594860e-01, 1.19680986e-01, 2.20062002e-03, 9.33095291e-02,
          8.67166221e-02, 8.19783062e-02, 9.87879187e-02, 1.04463466e-01,
          1.94493815e-01, 8.54769871e-02, 2.02285856e-01, 7.40735233e-02,
          2.63338387e-01, 21., 0., 7., 7., 1., 1., 5., 5., 9., 3., 9.,
          12., 3., 0., 19. ]
      - [ 1.93113297e-01, 0., 2.58038700e-01, 0., 3.70702595e-01,
          4.42072600e-02, 9.89776328e-02, 4.63378243e-02, 4.13260162e-01,
          1.25000626e-01, 6.95067346e-02, 1., 1.43123418e-01, 0.,
          2.58038700e-01, 0., 5.49997330e-01, 1.76829040e-01, 0.,
          4.63378243e-02, 9.21876967e-01, 7.18942434e-02, 2.70786643e-01,
          8.73852074e-01, 2.56533712e-01, 0., 1.29530638e-01, 0.,
          1.05275549e-01, 1.10518150e-01, 9.89776328e-02, 1.48413447e-03,
          1.25526264e-01, 6.56316206e-02, 8.90555009e-02, 1.25501379e-01,
          1.18554093e-01, 1.04876697e-01, 3.56207825e-02, 9.08605680e-02,
          3.39930356e-02, 1.30866438e-01, 45., 8., 5., 15., 8., 2., 3.,
          3., 8., 1., 0., 2., 4., 1., 7., 32., 12., 6., 2., 3., 5., 9.,
          4., 4., 6., 0., 25., 19., 1., 3., 10., 35., 0., 5.61920684e-43,
          0., 1.55870140e-01, 8.45795691e-01, 7.78208151e-02,
          6.00566506e-01, 2.96158195e-01, 0., 1.86436847e-02,
          2.69243807e-01, 0., 1.88222364e-01, 6.20830119e-01, 0.,
          2.90679336e-01, 5.59264779e-01, 1.18964672e-01, 3.49705547e-01,
          1., 0., 2.59577274e-01, 4.46693569e-01 ]
      - [ 10., 23., 10., 3., 11., 2., 12., 9., 2., 0., 7., 6., 4., 3.,
          22., 9., 7., 4., 13., 3., 6., 6., 10., 6., 10., 20., 6., 6.,
          7., 9., 0., 5.61920684e-43, 0., 0., 1.22684896e-01, 0.,
          6.66666687e-01, 1.23647086e-01, 0., 0., 1.39959008e-01, 0., 0.,
          1.24616824e-01, 0., 0., 3.91133368e-01, 0., 1., 2.72598594e-01,
          0., 0., 0., 0., 0., 0., 1.76224217e-01, 1.95503220e-01,
          6.33810401e-01, 1.23435602e-01, 6.12021863e-01, 7.13832140e-01,
          0., 1.84481323e-01, 1.29457459e-01, 1.43748045e-01,
          1.76568061e-01, 3.78062725e-01, 1.20598316e-01, 1.59128085e-01,
          6.18785560e-01, 1.52222827e-01, 4.78381932e-01, 4.87990916e-01,
          0., 1.54032707e-01, 6.38252974e-01, 1.54558852e-01,
          5.57269901e-02, 9.22793627e-01, 2.80052155e-01, 1.77315652e-01,
          1.26172438e-01, 1.37829214e-01, 1.02113724e-01, 1.33172393e-01,
          0., 2.89328233e-03, 1.29667059e-01, 1.49153441e-01,
          1.16147526e-01, 1.29588470e-01, 1.44218683e-01, 1.31985605e-01,
          4.74289507e-02, 1.26563996e-01, 4.08343449e-02 ]
      - [ 1.11318462e-01, 1.66974053e-01, 8.58732387e-02, 3.34561942e-03,
          1.17764473e-01, 6.48732856e-02, 8.19219127e-02, 1.15564652e-01,
          1.44713566e-01, 1.50760964e-01, 6.22114204e-02, 1.40878290e-01,
          5.17329946e-02, 2.06361979e-01, 57., 8., 4., 20., 16., 4., 2.,
          0., 5., 0., 1., 0., 2., 6., 1., 18., 19., 8., 7., 0., 6., 1.,
          4., 1., 9., 0., 39., 20., 3., 3., 5., 19., 0., 5.61920684e-43,
          0., 0., 8.56247395e-02, 6.39049932e-02, 3.08925211e-01,
          3.50036144e-01, 0., 0., 8.62231493e-01, 0., 0., 0.,
          6.93146959e-02, 0., 2.15456411e-01, 1.74635295e-02,
          4.89803493e-01, 5.47640681e-01, 0., 1.25931308e-01,
          7.64121294e-01, 6.39049932e-02, 9.39641297e-02, 1.74671561e-01,
          0., 2.71997571e-01, 3.37014019e-01, 0., 1.85022146e-01, 0.,
          6.62127733e-02, 0., 8.23190391e-01, 0., 6.19969517e-02,
          1.76052198e-01, 3.46573479e-02, 1.86213806e-01, 5.01292825e-01,
          2.77258784e-01, 3.75797808e-01, 4.61244434e-01, 1.47121161e-01,
          0., 1., 6.12661168e-02, 0., 0., 2.37548456e-01 ]
      - [ 7.24452883e-02, 1.74293622e-01, 7.67953992e-02, 1.80117577e-01,
          6.52710795e-02, 2.27558136e-01, 23., 5., 2., 17., 4., 1., 1.,
          11., 5., 0., 0., 0., 17., 3., 0., 55., 10., 1., 4., 4., 2., 1.,
          0., 0., 2., 0., 16., 21., 0., 1., 22., 60., 0., 5.61920684e-43,
          0., 0., 7.01364949e-02, 0., 7.55717978e-02, 1.87956020e-01, 0.,
          9.18032303e-02, 2.07350224e-01, 0., 4.59728420e-01,
          1.46529064e-01, 1.03863500e-01, 0., 6.95820823e-02,
          1.12655781e-01, 2.61692107e-01, 1.57770932e-01, 5.38071394e-02,
          1.02427557e-01, 1.37277737e-01, 1.07893206e-01, 2.93526858e-01,
          6.97710156e-01, 0., 1.76334187e-01, 0., 0., 5.97574770e-01, 0.,
          0., 2.85246838e-02, 5.19874632e-01, 2.32928827e-01,
          2.06248030e-01, 2.91422874e-01, 7.08879083e-02, 4.46492396e-02,
          0., 6.24875128e-02, 2.38580197e-01, 0., 1.42750904e-01,
          1.17770977e-01, 5.87538064e-01, 4.12438959e-02, 7.55717978e-02,
          1., 1.39995649e-01, 2.20983431e-01, 6.98592886e-02,
          8.75716507e-02, 6.51899353e-02, 5.76211624e-02, 6.55193478e-02,
          3.86961899e-03, 8.06689262e-02 ]
      - [ 5., 3., 10., 15., 4., 14., 8., 2., 21., 5., 3., 16., 7., 4.,
          0., 5.61920684e-43, 0., 0., 0., 0., 3.81249994e-01,
          1.38714164e-01, 0., 0., 6.90732822e-02, 0., 6.62500024e-01,
          1.32876828e-01, 0., 0., 0., 0., 5.71874976e-01, 2.08355039e-01,
          0., 0., 6.39337450e-02, 0., 1., 1.32876828e-01, 1.06800042e-01,
          0., 2.75712073e-01, 8.22059140e-02, 1.00000001e-01,
          1.39818713e-01, 0., 0., 2.56094635e-01, 5.79011627e-02,
          1.25000000e-01, 3.38778794e-01, 2.87577391e-01, 0.,
          3.09003413e-01, 0., 0., 5.43419659e-01, 0., 2.61328846e-01,
          3.03080976e-01, 5.38155921e-02, 2.24999994e-01, 4.51076925e-01,
          2.99719572e-01, 0., 7.30894357e-02, 8.22059140e-02,
          4.57880460e-02, 6.86871707e-02, 0., 2.78009404e-03,
          6.92182630e-02, 3.72389182e-02, 7.74038509e-02, 8.79674554e-02,
          8.67621303e-02, 1.50445178e-01, 6.10180236e-02, 1.38159290e-01,
          5.62758110e-02, 2.14071989e-01, 41., 7., 11., 22., 13., 0., 2.,
          3., 17., 2., 3., 2., 2., 1., 0. ]
      - [ 5., 0., 1., 5., 7., 3., 14., 17., 4., 3., 16., 32., 0.,
          5.61920684e-43, 0., 0., 2.54513323e-01, 0., 0., 0., 0.,
          6.49102181e-02, 8.31078351e-01, 0., 0., 2.60568649e-01, 0., 0.,
          3.39352876e-01, 0., 0., 0., 0., 1.49781555e-01, 4.63391721e-01,
          0., 9.35257599e-02, 2.57236868e-01, 2.49287486e-01, 0., 0., 0.,
          1.36037469e-01, 0., 0., 0., 2.88753837e-01, 7.90351182e-02,
          2.20841646e-01, 1., 3.60151201e-01, 0., 0., 0., 1.20922200e-01,
          0., 0., 0., 6.81080401e-01, 0., 8.05873990e-01, 5.27987957e-01,
          1.68163136e-01, 0., 8.48380327e-02, 0., 8.56532231e-02, 0., 0.,
          1.88326114e-03, 8.70886296e-02, 3.95175591e-02, 6.22356348e-02,
          8.89475420e-02, 1.11085966e-01, 1.20758608e-01, 4.82697003e-02,
          1.04831859e-01, 3.72754373e-02, 1.86857358e-01, 46., 8., 8.,
          19., 14., 0., 4., 1., 15., 6., 0., 2., 2., 0., 1., 18., 11. ]
      - [ 0., 0., 8.28983545e-01, 1.59190506e-01, 6.31151974e-01,
          4.11019832e-01, 1.81860521e-01, 1.19376309e-01, 1.64075404e-01,
          0., 3.47304046e-01, 1.87536255e-01, 0., 2.56519437e-01, 1., 0.,
          9.29334044e-01, 6.15576804e-01, 1.09509751e-01, 0.,
          1.42494842e-01, 0., 1.39151618e-01, 2.38375545e-01, 0.,
          1.49509758e-01, 8.48359287e-01, 0., 5.10636747e-01,
          4.27518070e-01, 1.00505978e-01, 8.70141238e-02, 4.40588593e-01,
          0., 3.71485114e-01, 2.17327476e-01, 3.02509516e-01,
          5.60037434e-01, 9.64048862e-01, 0., 1.52818292e-01,
          5.48093557e-01, 1.50195494e-01, 6.62691519e-02, 3.25938761e-01,
          1.14794977e-01, 6.69667184e-01, 3.49858791e-01, 2.31245443e-01,
          1.38009518e-01, 1.13793492e-01, 1.59190506e-01, 7.17400387e-02,
          1.05379380e-01, 9.03452933e-02, 4.06954624e-03, 1.53299659e-01,
          1.14794977e-01, 8.98592919e-02, 1.24137253e-01, 1.33438736e-01,
          1.69844136e-01, 6.98811635e-02, 1.51108280e-01, 5.80224022e-02,
          2.24920243e-01, 40., 5., 3., 12., 6., 1., 2., 0., 5., 2., 2.,
          5., 16., 1., 4., 40., 14., 0., 7., 1., 0., 4., 2., 0., 5., 2.,
          28., 14., 1., 3., 17. ]
      - [ 1., 30., 0., 12., 5., 1., 9., 3., 0., 15., 3., 52., 0.,
          5.61920684e-43, 0., 1.82802364e-01, 3.62316459e-01,
          1.27109751e-01, 5.68452068e-02, 2.38985404e-01, 0.,
          1.21657595e-01, 4.35446680e-01, 0., 1.52771488e-01,
          1.02421403e-01, 2.22026050e-01, 3.66523027e-01, 1.,
          1.92632973e-01, 0., 3.23173493e-01, 0., 2.10950226e-01,
          5.97191453e-01, 9.88639221e-02, 8.79324302e-02, 1.81716084e-01,
          1.19951688e-01, 1.42113015e-01, 5.09937584e-01, 0.,
          3.02418053e-01, 4.20811355e-01, 8.98801610e-02, 2.14522272e-01,
          3.51828873e-01, 1.42721117e-01, 9.94791090e-02, 1.83027267e-01,
          2.07049936e-01, 1.14188932e-01, 4.38238859e-01, 3.58047411e-02,
          2.52455950e-01, 4.01851296e-01, 1.38603538e-01, 3.56817126e-01,
          4.30841655e-01, 0., 1.29897028e-01, 4.13810939e-01, 0.,
          6.10323763e-03, 9.62705389e-02, 8.88868719e-02, 7.64649063e-02,
          8.14600885e-02, 7.61612356e-02, 1.10237468e-02, 8.64432678e-02,
          6.03962615e-02, 4.70080040e-02, 8.80975723e-02, 7.84325227e-02,
          1.83277786e-01, 7.83695579e-02, 1.84137434e-01, 6.56715035e-02,
          2.50172973e-01, 68., 7., 10., 6., 10., 2., 3., 7., 11., 2., 0.,
          2., 4., 0., 1., 11., 30. ]
      - [ 12., 2., 0., 5.61920684e-43, 0., 6.83660358e-02,
          3.94368798e-01, 0., 7.32905209e-01, 1.27084583e-01,
          1.95431888e-01, 1.05684832e-01, 1.96344972e-01, 1.20285153e-01,
          2.48718001e-02, 5.21972418e-01, 7.41533861e-02, 1.39538765e-01,
          7.96554983e-01, 6.68409541e-02, 3.49185973e-01, 6.94674134e-01,
          0., 2.15173587e-01, 3.26941103e-01, 0., 0., 7.51528680e-01,
          2.13223055e-01, 4.97579664e-01, 1.04561038e-01, 1.25459537e-01,
          4.02031302e-01, 2.81081080e-01, 9.67341512e-02, 7.24093840e-02,
          2.93139189e-01, 0., 0., 7.33253539e-01, 2.56403446e-01,
          3.69506001e-01, 1., 2.51516342e-01, 3.72089982e-01,
          3.29665095e-01, 0., 1.34263828e-01, 4.14167702e-01, 0.,
          6.63248003e-02, 6.61236346e-01, 9.98374224e-02, 8.02231766e-03,
          1.04340225e-01, 8.87633711e-02, 1.09188974e-01, 8.95315558e-02,
          9.73886847e-02, 6.76322589e-03, 1.02549411e-01, 1.20285153e-01,
          4.55982983e-02, 1.02615036e-01, 9.19453278e-02, 1.86706170e-01,
          7.89467096e-02, 1.89595714e-01, 7.31564611e-02, 2.60499567e-01,
          32., 8., 5., 8., 9., 3., 3., 13., 7., 7., 0., 5., 9., 9., 11.,
          15., 12., 7., 4., 3., 10., 5., 1., 10., 4., 5., 9. ]
      - [ 0., 0., 3.50139230e-01, 0., 9.27635431e-02, 9.23398435e-01, 0.,
          4.81208652e-01, 2.43691221e-01, 0., 3.35667551e-01,
          9.83652771e-01, 0., 0., 5.02320170e-01, 1.10941395e-01,
          1.38307899e-01, 7.10398734e-01, 0., 2.16927484e-01,
          6.10927820e-01, 0., 4.09391701e-01, 2.90549874e-01, 0.,
          1.77996382e-01, 5.17780960e-01, 1.03896096e-01, 2.49194935e-01,
          8.19043815e-01, 3.37534845e-01, 7.11985528e-02, 9.75434035e-02,
          1.28475487e-01, 3.54246110e-01, 1.56760663e-01, 9.20402780e-02,
          0., 8.52464378e-01, 9.76799503e-02, 3.20393503e-01, 1.,
          3.63469124e-01, 4.59668692e-03, 1.35848418e-01, 1.28475487e-01,
          1.09207615e-01, 1.14943929e-01, 9.20402780e-02, 2.40535662e-03,
          1.01032041e-01, 7.81293586e-02, 8.89622122e-02, 1.07901283e-01,
          1.16833992e-01, 1.91724390e-01, 8.11181441e-02, 1.93727568e-01,
          6.56768680e-02, 3.09267789e-01, 71., 11., 10., 10., 9., 1., 7.,
          4., 13., 3., 1., 0., 2., 0., 2., 0., 30., 16., 6., 2., 10.,
          18., 6., 4., 9., 0., 24., 10., 3., 2., 3., 1., 0.,
          5.61920684e-43, 0., 0., 6.97183788e-01 ]
      - [ 3.19013685e-01, 7.44580209e-01, 0., 0., 3.11178744e-01, 0.,
          5.10604024e-01, 4.06747967e-01, 8.56993720e-02, 5.13194859e-01,
          4.17473108e-01, 3.21555048e-01, 5.18459618e-01, 9.04115438e-01,
          8.70229900e-02, 0., 3.85508657e-01, 1.03736021e-01,
          2.13831201e-01, 1.55694395e-01, 3.63703787e-01, 2.92131841e-01,
          1., 1.43155649e-01, 1.00233369e-01, 8.09608400e-01,
          9.13487226e-02, 2.44984820e-01, 3.84792477e-01, 2.02038556e-01,
          4.88419980e-01, 7.45765328e-01, 1.43473446e-01, 1.01145161e-02,
          1.31245613e-01, 1.16177678e-01, 8.52699280e-02, 1.37214020e-01,
          8.91858563e-02, 3.75587842e-03, 1.35184988e-01, 1.02504320e-01,
          9.87653732e-02, 1.38375133e-01, 1.45332769e-01, 1.72638208e-01,
          7.04071522e-02, 1.68833002e-01, 6.31416738e-02, 2.13452518e-01,
          56., 12., 8., 13., 17., 0., 4., 1., 7., 5., 1., 3., 3., 1., 1.,
          12., 17., 5., 6., 3., 9., 19., 3., 9., 7., 4., 21., 13., 2.,
          9., 7., 10., 0., 5.61920684e-43, 0., 0., 5.01850545e-01, 0.,
          0., 5.79997711e-02, 1.08430021e-01, 2.78017253e-01,
          6.19687319e-01, 1.84748471e-01, 1.37429208e-01, 2.65321195e-01,
          0. ]
      - [ 0., 4.99051698e-02, 2.94710636e-01, 0., 5.03310978e-01,
          7.16575980e-01, 7.05153421e-02, 1.06898099e-01, 0., 0.,
          4.99051698e-02, 0., 2.50619985e-02, 2.97289550e-01,
          5.40941477e-01, 0., 4.60480928e-01, 1., 0., 8.02820642e-03, 0.,
          2.52553467e-02, 0., 1.04244262e-01, 3.63075942e-01,
          2.23502532e-01, 8.35915804e-02, 9.91573259e-02, 8.41434374e-02,
          7.24753365e-02, 3.52576710e-02, 3.10213910e-03, 7.95322135e-02,
          4.45148572e-02, 5.70299588e-02, 9.62032452e-02, 6.46896586e-02,
          1.88049197e-01, 8.30145404e-02, 1.90955862e-01, 7.27820694e-02,
          2.20397025e-01, 26., 7., 6., 18., 4., 1., 2., 11., 9., 0., 0.,
          8., 20., 13., 3., 16., 6., 0., 3., 3., 1., 1., 1., 0., 2., 3.,
          26., 28., 2., 2., 32., 34., 0., 5.61920684e-43, 0.,
          1.46747559e-01, 7.51281321e-01, 0., 1.53225213e-01,
          2.17569157e-01, 0., 0., 2.58073241e-01, 1.54361948e-01,
          3.08844566e-01, 7.67003953e-01, 0., 4.86833155e-01,
          4.69421208e-01, 0., 3.03050637e-01, 4.33505327e-01,
          1.06114879e-01, 1.16115987e-01, 9.14081216e-01 ]
      - [ 9., 3., 14., 19., 2., 8., 5., 3., 9., 2., 6., 6., 2., 6., 0.,
          5.61920684e-43, 0., 0., 0., 1.22915544e-01, 2.03320384e-01, 0.,
          0., 7.03586787e-02, 6.94937229e-01, 0., 5.56642041e-02,
          5.35375834e-01, 7.26439208e-02, 1.11328408e-01, 0., 0.,
          5.56642041e-02, 0., 0., 7.03586787e-02, 1., 1.14467584e-01,
          4.73988950e-01, 5.87448359e-01, 1.68364212e-01, 1.11328408e-01,
          0., 0., 5.12284636e-01, 2.80678779e-01, 0., 0., 5.74008942e-01,
          1.10033229e-01, 4.99424964e-01, 5.12061298e-01, 1.46555483e-01,
          0., 5.05400181e-01, 1.06710598e-01, 5.71422040e-01, 0., 0.,
          1.69670835e-01, 8.37287426e-01, 1.14978611e-01, 2.13089526e-01,
          6.01943076e-01, 2.60203630e-01, 0., 1.26350045e-01,
          1.14813074e-01, 6.71345592e-02, 1.40339389e-01, 0.,
          4.08405531e-03, 8.17429870e-02, 8.48698542e-02, 6.53772503e-02,
          8.94731432e-02, 8.09709057e-02, 1.84909597e-01, 7.88579509e-02,
          1.84223711e-01, 6.77142069e-02, 2.55981177e-01, 71., 9., 8.,
          18., 13., 1., 2., 0., 10., 1., 1., 0., 5., 4., 0. ]
      - [ 1.00677878e-01, 1.96333364e-01, 2.77356625e-01, 9.10224095e-02,
          2.54708529e-01, 3.42752218e-01, 0., 8.22711810e-02,
          3.26737046e-01, 9.21047255e-02, 4.36301738e-01, 7.49301374e-01,
          1.40711576e-01, 8.13081712e-02, 2.82376945e-01, 4.34157044e-01,
          1.02847606e-01, 5.65346003e-01, 9.27647576e-02, 1.02847606e-01,
          2.59991765e-01, 0., 1.02847606e-01, 1.98117435e-01,
          7.89710879e-02, 3.59966636e-01, 8.24253559e-01, 1.05454192e-01,
          1.90386236e-01, 3.18958014e-01, 1.80832371e-01, 3.39851677e-02,
          4.39946800e-01, 0., 1.79983318e-01, 4.76877630e-01,
          1.14987120e-01, 6.50620600e-03, 9.48440954e-02, 1.05105609e-01,
          9.10554379e-02, 8.76468793e-02, 9.11990404e-02, 3.63395340e-03,
          7.34632984e-02, 6.30418360e-02, 5.47986850e-02, 7.37996697e-02,
          7.25579485e-02, 2.01787472e-01, 8.96637067e-02, 2.05465004e-01,
          7.56294802e-02, 2.61109173e-01, 63., 15., 9., 2., 22., 1., 6.,
          0., 9., 10., 1., 0., 2., 2., 1., 1., 27., 12., 6., 4., 15.,
          27., 4., 9., 7., 4., 10., 2., 3., 9., 5., 0., 0.,
          5.61920684e-43, 0., 1.66122779e-01, 2.04936206e-01, 0.,
          7.05094993e-01, 3.65579784e-01, 0., 6.64052069e-02, 0. ]
      - [ 27., 26., 0., 5.61920684e-43, 0., 2.20459491e-01,
          7.83470869e-01, 0., 1.61055714e-01, 5.44668674e-01, 0.,
          3.60131525e-02, 4.86989230e-01, 6.12289794e-02, 0.,
          5.82053661e-01, 4.36039120e-01, 2.23774299e-01, 4.49314743e-01,
          9.14080366e-02, 8.86942029e-01, 2.56635636e-01, 0., 0., 1.,
          2.82443345e-01, 1.90012738e-01, 3.08342069e-01, 1.38517022e-01,
          0., 9.00328830e-02, 5.48067510e-01, 5.34764767e-01,
          1.63421512e-01, 1.30828723e-01, 5.24615385e-02, 2.14921355e-01,
          1.43528521e-01, 1.57876223e-01, 8.17587376e-01, 1.74207777e-01,
          2.24580452e-01, 4.46756870e-01, 0., 2.27058813e-01,
          5.92220306e-01, 7.69241229e-02, 1.40217096e-01, 9.59357142e-01,
          0., 6.12496585e-02, 7.30068326e-01, 2.53420770e-01,
          1.59241492e-03, 1.36121184e-01, 1.27895102e-01, 1.13113828e-01,
          1.11210443e-01, 1.03876427e-01, 3.00910254e-03, 1.10886157e-01,
          1.21800214e-01, 6.81897700e-02, 1.10820524e-01, 1.25273079e-01,
          1.92853242e-01, 8.35754126e-02, 1.99080572e-01, 6.90787286e-02,
          2.89733022e-01, 70., 6., 14., 5., 8., 1., 2., 4., 12., 3., 3.,
          2., 2., 0., 4., 8., 33., 7., 13., 2., 6., 11., 5., 2., 9., 5.,
          25. ]
      - [ 0., 3.66081937e-38, 0., 3.66093147e-38, 0., 3.66104358e-38, 0.,
          3.66115568e-38, 0., 3.66126779e-38, 0., 3.66137989e-38, 0.,
          3.66149199e-38, 0., 3.66160410e-38, 0., 3.66171620e-38, 0.,
          3.66182831e-38, 0., 3.66194041e-38, 0., 3.66205251e-38, 0.,
          3.66216462e-38, 0., 3.66227672e-38, 0., 3.66238882e-38, 0.,
          3.66250093e-38, 0., 3.66261303e-38, 0., 3.66272514e-38, 0.,
          3.66283724e-38, 0., 3.66294934e-38, 0., 3.66306145e-38, 0.,
          3.66317355e-38, 0., 3.66328566e-38, 0., 3.66339776e-38, 0.,
          3.66350986e-38, 0., 3.66362197e-38, 0., 3.66373407e-38, 0.,
          3.66384618e-38, 0., 3.66395828e-38, 0., 3.66407038e-38, 0.,
          3.66418249e-38, 0., 3.66429459e-38, 0., 3.66440669e-38, 0.,
          3.66451880e-38, 0., 3.66463090e-38, 0., 3.66474301e-38, 0.,
          3.66485511e-38, 0., 3.66496721e-38, 0., 3.66507932e-38, 0.,
          3.66519142e-38, 0., 3.66530353e-38, 0., 3.66541563e-38, 0.,
          3.66552773e-38, 0., 3.66563984e-38, 0., 3.66575194e-38, 0.,
          3.66586405e-38, 0., 3.66597615e-38, 0., 3.66608825e-38, 0. ]
      - [ 8.59000459e-02, 2.65088049e-03, 1.14387475e-01, 1.04834720e-01,
          7.87389874e-02, 1.19521692e-01, 1.15026459e-01, 1.62264600e-01,
          6.90816566e-02, 1.72228426e-01, 6.06115051e-02, 2.31097922e-01,
          8., 4., 2., 3., 6., 0., 2., 17., 5., 8., 2., 2., 2., 3., 3.,
          77., 11., 4., 0., 7., 5., 0., 2., 1., 3., 0., 3., 6., 2., 8.,
          2., 90., 0., 5.61920684e-43, 0., 1.48312196e-01,
          1.92810506e-01, 0., 6.41561225e-02, 1.08446471e-01, 0.,
          8.27014223e-02, 2.78237164e-01, 3.25956605e-02, 1.50466919e-01,
          2.06561059e-01, 0., 1.54566616e-01, 1.63376421e-01,
          6.24247976e-02, 3.82669531e-02, 1.07913814e-01, 0., 0., 1.,
          1.24650203e-01, 1.99848607e-01, 1.42847300e-01, 0.,
          2.57001728e-01, 1.71108499e-01, 1.13916785e-01, 2.38635302e-01,
          2.15515345e-01, 0., 3.82669531e-02, 9.76910517e-02, 0.,
          1.14800856e-01, 3.92363846e-01, 3.50332782e-02, 6.80264980e-02,
          6.33705676e-01, 0., 3.46293151e-01, 1.08400300e-01,
          3.82108539e-02, 2.68532485e-02, 2.61978328e-01, 7.05952197e-02,
          1.09060951e-01, 2.94601053e-01, 1.40828356e-01, 7.84883723e-02,
          5.80500551e-02 ]
      - [ 1.42772362e-01, 0., 1.80961609e-01, 4.46566999e-01,
          1.19101278e-01, 3.53102565e-01, 8.00709665e-01, 1.11685619e-01,
          2.94964224e-01, 7.56037533e-01, 0., 2.03285173e-01,
          5.14288545e-01, 1.12795405e-01, 7.35769272e-02, 0.,
          1.36978969e-01, 1.83111608e-01, 7.21630216e-01, 0.,
          2.58345842e-01, 6.60334587e-01, 1.10747948e-01, 6.88922256e-02,
          3.34759682e-01, 0., 3.62935483e-01, 1.91235602e-01,
          1.29928708e-01, 7.24699199e-01, 5.16468644e-01, 2.41455674e-01,
          6.73710942e-01, 1., 0., 3.83964747e-01, 3.41535926e-01,
          2.63586670e-01, 5.16691692e-02, 1.26800910e-01, 0.,
          1.85428429e-02, 9.93453041e-02, 1.25047714e-01, 8.14839005e-02,
          1.06129490e-01, 1.10747948e-01, 8.41207802e-03, 1.02565885e-01,
          9.40955207e-02, 9.55918878e-02, 1.09229073e-01, 1.28669649e-01,
          1.92074955e-01, 8.07982534e-02, 1.89582571e-01, 6.47283271e-02,
          2.76751816e-01, 53., 10., 10., 10., 13., 2., 5., 4., 9., 8.,
          2., 2., 6., 5., 1., 4., 27., 13., 6., 3., 13., 23., 6., 4., 8.,
          3., 5., 8., 4., 6., 3., 12., 0., 5.61920684e-43, 0.,
          4.48229946e-02, 7.00837851e-01, 0., 1.99238747e-01 ]
      - [ 1., 0., 1., 3., 1., 5., 16., 1., 8., 56., 9., 5., 4., 0., 1.,
          4., 2., 2., 4., 1., 11., 16., 1., 4., 17., 63., 0.,
          5.61920684e-43, 0., 1.31323382e-01, 1.87459201e-01, 0.,
          5.65480709e-01, 0., 0., 2.67480433e-01, 8.67255032e-01, 0.,
          1.43236578e-01, 5.51707149e-01, 0., 3.06407005e-01,
          1.28110841e-01, 2.42481992e-01, 2.84252435e-01, 7.47318089e-01,
          2.03180805e-01, 0., 8.73531044e-01, 0., 1.51624441e-01,
          9.79925394e-01, 3.75606626e-01, 2.55160064e-01, 0.,
          1.58901945e-01, 2.47328967e-01, 9.97905210e-02, 1.95312247e-01,
          1.30487248e-01, 6.32866800e-01, 1.07796565e-01, 0.,
          4.04797643e-01, 2.73771763e-01, 2.16091752e-01, 1.86676100e-01,
          0., 8.71396303e-01, 4.35758382e-01, 1.95360124e-01,
