%YAML:1.0
my_svm: !!opencv-ml-svm
   svm_type: C_SVC
   kernel: { type:LINEAR }
   C: 1.
   term_criteria: { epsilon:2.2204460492503131e-16, iterations:100 }
   var_all: 53
   var_count: 53
   class_count: 3
   class_labels: !!opencv-matrix
      rows: 1
      cols: 3
      dt: i
      data: [ -1, 0, 1 ]
   sv_total: 3
   support_vectors:
      - [ 2.83622020e-35, 1.25895801e-34, 2.88021761e-34, 7.42708612e-35,
          1.18674076e-34, 6.75469934e-35, 2.84784198e-35, 4.50797434e-35,
          1.17653198e-34, 1.32365657e-35, 4.44153165e-35, 1.97297061e-34,
          7.52839101e-35, 8.75194689e-35, 1.73226450e-34, 7.04515435e-35,
          1.17406906e-34, 1.74506384e-34, 2.45456651e-35, 6.45161063e-35,
          1.73512494e-34, 2.56469621e-35, 3.96710546e-35, 1.67465827e-34,
          5.81165498e-35, 1.24284685e-34, 2.40400166e-34, 2.41592730e-35,
          1.53651415e-34, 1.08644526e-34, 1.43148781e-35, 2.07711689e-35,
          1.21872821e-34, 2.56270740e-35, 2.85340980e-35, 1.82129843e-34,
          4.90152503e-35, 2.84792366e-34, 2.84324165e-34, 2.89757245e-34,
          -4.69929963e-25, 2.41989838e-34, 2.56475286e-38,
          -2.55338104e-38, 2.56481564e-38, 6.18698550e-35,
          1.07233232e-34, 5.06086191e-35, 6.07222098e-35, 6.81736589e-32,
          6.80546048e-32, 6.94248399e-35, 2.24050807e-34 ]
      - [ 2.43418813e+00, 4.61281157e+00, 5.26642990e+00, 3.32844925e+00,
          5.05871010e+00, 5.77693748e+00, 2.32950854e+00, 4.90268755e+00,
          4.54459953e+00, 2.21237850e+00, 5.98231983e+00, 6.17519903e+00,
          4.36868477e+00, 5.20617819e+00, 5.04907942e+00, 2.61670184e+00,
          4.17297745e+00, 4.42450285e+00, 1.86430919e+00, 6.69032669e+00,
          4.99027300e+00, 3.97197056e+00, 7.72516537e+00, 4.27250957e+00,
          4.36855364e+00, 6.14780188e+00, 3.81812119e+00, 2.58534980e+00,
          6.38193941e+00, 2.80145836e+00, 4.04569340e+00, 7.45936012e+00,
          2.30860567e+00, 3.26977754e+00, 5.70794725e+00, 2.01475191e+00,
          2.95820737e+00, 5.36210394e+00, 1.67292047e+00,
          -5.44683075e+31, -4.94615440e+22, -1.98026249e+20,
          -1.97840899e+29, -1.34192490e+34, 3.33175564e+00, -153368464.,
          7.35641193e+00, 2.33974338e+00, 5.35763025e+00, 6.84757757e+00,
          4.22699881e+00, 4.27788162e+00, 5.29458570e+00 ]
      - [ 1.56917772e+01, 1.70062885e+01, 7.47782898e+00, 1.13433170e+01,
          1.42182474e+01, 9.67271996e+00, 1.33398876e+01, 1.57452784e+01,
          1.16468906e+01, 1.82449684e+01, 1.48604231e+01, 9.91823959e+00,
          1.73497467e+01, 1.54719410e+01, 4.96909094e+00,
          -4.82217751e+30, -1.07647170e+21, -1.07647170e+21,
          -4.37891467e+27, -7.31694844e+28, -7.52609355e+28,
          -3.27968828e+04, 1.40693884e+01, 1.02361946e+01,
          2.06811676e+01, 1.32737150e+01, 7.61451960e+00,
          -5.05025859e+04, 9.55862904e+00, -1.35644283e+10,
          -1.49699594e+25, -1.02460977e+04, -2.73757760e+20,
          -6.85145540e+34, -1.82910667e+34, -8.63961612e+11,
          -3.20306372e+03, 9.33131981e+00, 5.84580803e+00,
          -5.02019745e+31, -4.55873720e+22, -1.82515465e+20,
          -1.82344624e+29, -1.23681611e+34, 1.42920599e+01, -141355568.,
          8.02208328e+00, 9.43288708e+00, 1.38991795e+01, 6.85587263e+00,
          1.08899260e+01, 1.69838600e+01, 1.07033176e+01 ]
   decision_functions:
      -
         sv_count: 1
         rho: -3.3333333333342985e-01
         alpha: [ 1. ]
         index: [ 0 ]
      -
         sv_count: 1
         rho: 1.6276290669761219e+33
         alpha: [ 1. ]
         index: [ 1 ]
      -
         sv_count: 1
         rho: -5.4599635739111888e+34
         alpha: [ 1. ]
         index: [ 2 ]
