%YAML:1.0
my_svm: !!opencv-ml-svm
   svm_type: C_SVC
   kernel: { type:RBF, gamma:2.2500000000000003e-03 }
   C: 3.1250000000000000e+02
   term_criteria: { epsilon:1.1920928955078125e-07, iterations:1000 }
   var_all: 256
   var_count: 256
   class_count: 2
   class_labels: !!opencv-matrix
      rows: 1
      cols: 2
      dt: i
      data: [ 0, 1 ]
   sv_total: 831
   support_vectors:
      - [ -64., 70., 43., 66., 125., -12., 86., 65., 98., 87., -88., 65.,
          57., 91., 2., 66., 126., -3., -79., 65., 54., -123., 61., -63.,
          3., -124., -94., 65., -12., 105., -100., 65., -54., -69., 48.,
          -63., -32., -96., -100., -65., 59., -5., 29., 64., 40., -30.,
          87., -63., -32., -44., -54., 64., 48., -4., 56., 65., -123.,
          32., -118., -63., 100., -84., -115., -63., -96., 15., 24.,
          -64., -111., -110., -89., -65., -48., 40., -69., -64., -96.,
          -54., 108., -64., 61., 35., 34., -63., 74., -38., -70., -64.,
          -48., -123., 65., 64., -84., -109., -59., 63., 32., -75.,
          -106., 63., 46., -40., -25., 64., 77., 15., -87., 64., 0., 0.,
          1.45875170e-42, 0., 0., -114., 5., 69., -90., -92., 23., -61.,
          96., -42., -108., -62., -3., 71., 16., -62., -68., 22., -35.,
          67., -45., -14., -119., 66., -107., -42., -101., -62., 117.,
          22., 45., 66., 110., 78., -21., 66., 61., -61., -70., -62.,
          112., 118., -27., 65., 4., 73., -98., -64., -48., -66., 15.,
          -63., 100., 54., 17., 67., 86., 72., 49., 67., 45., 25., -127.,
          -62., -73., 31., -103., 65., -45., 21., 125., 66., -14., -51.,
          69., -62., 117., 82., -50., -63., -125., 14., -112., -62., 93.,
          -58., -65., -62., -67., 51., 107., -62., -92., -51., -120.,
          66., -49., 91., 65., 66., -92., -102., 33., 66., -52., -93.,
          46., 66., -82., -72., 111., 65., -9., -105., -34., 64., -48.,
          3., 55., -64., 64., -63., -52., -68., -102., -45., -87., -63.,
          0., 0., -111., -63., -36., -80., -98., -63., 16., -80., 54.,
          -64., 40., -88., 28., 64. ]
      - [ 3.98128400e-38, 0., 3.98157547e-38, 0., 3.98186694e-38, 0.,
          3.98215841e-38, 0., 3.98244988e-38, 0., 3.98274135e-38, 0.,
          3.98303282e-38, 0., 3.98332429e-38, 0., 3.98361576e-38, 0.,
          3.98390723e-38, 0., 3.98419870e-38, 0., 3.98449017e-38, 0.,
          3.98478164e-38, 0., 3.98507311e-38, 0., 3.98536458e-38, 0.,
          3.98565605e-38, 0., 3.98594752e-38, 0., 3.98623899e-38, 0.,
          3.98653046e-38, 0., 3.98682193e-38, 0., 3.98711340e-38, 0.,
          3.98740487e-38, 0., 3.98769634e-38, 0., 3.98798781e-38, 0.,
          3.98827928e-38, 0., 3.98857075e-38, 0., 3.98886222e-38, 0.,
          3.98915369e-38, 0., 3.98944516e-38, 0., 3.98973663e-38, 0.,
          3.99002810e-38, 0., 3.99031957e-38, 0., 3.99061104e-38, 0.,
          3.99090251e-38, 0., 3.99119398e-38, 0., 3.99148545e-38, 0.,
          3.99177692e-38, 0., 3.99206839e-38, 0., 3.99235986e-38, 0.,
          3.99265133e-38, 0., 3.99294280e-38, 0., 3.99323427e-38, 0.,
          3.99352574e-38, 0., 3.99381721e-38, 0., 3.99410868e-38, 0.,
          3.99440015e-38, 0., 3.99469162e-38, 0., 3.99498309e-38, 0.,
          3.99527456e-38, 0., 3.99556603e-38, 0., 3.99585750e-38, 0.,
          3.99614897e-38, 0., 3.99644044e-38, 0., 3.99673191e-38, 0.,
          3.99702338e-38, 0., 3.99731485e-38, 0., 3.99760632e-38, 0.,
          3.99789779e-38, 0., 3.99818926e-38, 0., 3.99848073e-38, 0.,
          3.99877220e-38, 0., 3.99906367e-38, 0., 3.99935514e-38, 0.,
          3.99964661e-38, 0., 3.99993808e-38, 0., 4.00022955e-38, 0.,
          4.00052102e-38, 0., 4.00081249e-38, 0., 4.00110396e-38, 0.,
          4.00139543e-38, 0., 4.00168690e-38, 0., 4.00197837e-38, 0.,
          4.00226984e-38, 0., 4.00256131e-38, 0., 4.00285278e-38, 0.,
          4.00314425e-38, 0., 4.00343572e-38, 0., 4.00372719e-38, 0.,
          4.00401866e-38, 0., 4.00431013e-38, 0., 4.00460160e-38, 0.,
          4.00489307e-38, 0., 4.00518454e-38, 0., 4.00547601e-38, 0.,
          4.00576748e-38, 0., 4.00605895e-38, 0., 4.00635042e-38, 0.,
          4.00664189e-38, 0., 4.00693336e-38, 0., 4.00722484e-38, 0.,
          4.00751631e-38, 0., 4.00780778e-38, 0., 4.00809925e-38, 0.,
          4.00839072e-38, 0., 4.00868219e-38, 0., 4.00897366e-38, 0.,
          4.00926513e-38, 0., 4.00955660e-38, 0., 4.00984807e-38, 0.,
          4.01013954e-38, 0., 4.01043101e-38, 0., 4.01072248e-38, 0.,
          4.01101395e-38, 0., 4.01130542e-38, 0., 4.01159689e-38, 0.,
          4.01188836e-38, 0., 4.01217983e-38, 0., 4.01247130e-38, 0.,
          4.01276277e-38, 0., 4.01305424e-38, 0., 4.01334571e-38, 0.,
          4.01363718e-38, 0., 4.01392865e-38, 0., 4.01422012e-38, 0.,
          4.01451159e-38, 0., 4.01480306e-38, 0., 4.01509453e-38, 0.,
          4.01538600e-38, 0., 4.01567747e-38, 0., 4.01596894e-38, 0.,
          4.01626041e-38, 0., 4.01655188e-38, 0., 4.01684335e-38, 0.,
          4.01713482e-38, 0., 4.01742629e-38, 0., 4.01771776e-38, 0.,
          4.01800923e-38, 0., 4.01830070e-38, 0. ]
      - [ 24., -114., 59., 64., 12., -3., -59., 65., -64., -40., -24.,
          64., -20., -5., -113., 64., -83., 12., -95., -64., 127., 67.,
          -122., 65., 88., -69., 36., -65., -114., 66., -99., 62., 120.,
          54., -65., -65., 0., 0., 1.45875170e-42, 0., 0., 66., 30., 69.,
          33., -5., 36., -61., -112., -50., -121., 67., -110., -27.,
          111., -62., 104., 65., -91., 66., -96., 22., -101., -62., 104.,
          9., -11., 65., 53., 54., -103., 66., 18., -14., 24., 67., 89.,
          -23., 85., -64., -1., -22., 54., 66., -71., 102., -128., 65.,
          58., -98., -99., 65., -99., 86., -89., 66., -116., 99., 91.,
          -62., 104., 18., -37., -62., 112., 71., -24., 66., 10., 40.,
          98., 66., -44., 55., 31., 66., -22., -11., -34., 65., 29., 16.,
          77., -62., 12., -11., 9., -64., 98., -16., -41., -63., -124.,
          -31., 66., 66., -98., 46., -61., 66., 72., 107., -62., 65.,
          67., -109., -78., -62., 62., -49., 1., -63., 126., 46., -44.,
          -63., -18., 60., 125., -65., 109., 127., 57., -64., 79., -89.,
          -105., -64., 0., 0., -31., 65., -80., -34., 16., -63., 64.,
          93., -28., -63., -68., 53., -28., 64., -64., -59., -74., -65.,
          56., -2., 29., -64., 54., 2., 12., 64., -83., 62., -117., -64.,
          40., -45., 100., 65., 16., -107., 24., -63., -62., 22., 90.,
          -63., 12., 72., -92., 63., -34., 117., -36., -64., 111., -100.,
          -108., -64., 124., 106., 94., -64., -36., 23., -106., -64., 2.,
          -9., 56., 65., -108., -90., -43., -64., 122., 52., -94., -63.,
          0., -85., 120., -67., -6., 28., -25., -64., 32., 71., 47.,
          -65. ]
      - [ -16., -66., -68., 64., -110., -68., -30., -62., -60., -43.,
          -109., 65., 35., 50., -89., -63., 110., -43., 56., 65., 102.,
          -120., -72., -63., -88., -59., 42., 65., 114., 72., 0., -63.,
          -78., 75., -5., 63., -9., 104., 36., 63., 0., 14., -5., -64.,
          10., 2., -86., 64., -38., -61., 15., -65., 0., 0., 81., 65.,
          12., 76., -76., -64., 89., 11., -111., 64., 32., -52., -102.,
          63., -92., -36., 42., -64., 34., 35., -105., -64., 28., 24.,
          -127., -65., 114., -54., -48., 63., 16., 93., 24., -64., -38.,
          -58., -79., -64., 49., 19., 103., -64., -41., -6., 113., 64.,
          -64., -10., 26., 63., -64., 13., -50., -67., 32., -65., 27.,
          63., -64., 121., 32., 63., -32., 93., 113., -65., -102., 5.,
          87., 64., 8., 103., 31., 64., -42., -1., 26., -64., 32., 3.,
          -27., 64., 0., 57., -31., 63., 100., -84., -36., 63., -126.,
          17., -119., -65., -64., -73., 108., -65., -52., 24., -38., 63.,
          -128., 4., -75., -65., 64., 102., -97., -67., 8., -103., 50.,
          -63., 119., 38., 93., 64., 28., 24., 74., -64., 36., -126.,
          99., 63., 0., 0., 1.45875170e-42, 0., 0., -100., -12., 68.,
          -14., 23., -95., 66., 85., -72., 72., -61., 29., 35., 22.,
          -61., -60., 22., 70., -61., 40., -57., -115., -62., -111., 77.,
          52., 67., -86., -9., -104., -63., -50., 44., 118., 67., 93.,
          -27., 69., -61., 30., 0., 28., 65., -8., -48., 20., 67., -30.,
          -24., -117., 66., 30., -103., -53., 64., 24., 119., 60., -62.,
          -2., 114., -26., 65., 53., 81., 11., 67., -76., 97., -124.,
          -62. ]
      - [ 34., -66., 112., 64., 25., -92., -120., -63., -16., -95., 91.,
          -63., -109., 16., 25., -64., -128., -82., -128., 64., 0., 0.,
          76., 64., 80., 85., -8., -64., 32., -58., 98., -66., 54., -86.,
          -116., 64., -54., 126., -74., -64., -68., 26., -15., 63., -72.,
          126., 17., 64., 40., 120., 112., -66., 77., -53., 4., -64.,
          26., -45., -56., 64., -88., 104., -104., 62., 84., 113., 95.,
          -65., -128., -49., -44., 62., 64., -89., -42., 62., -128.,
          -26., -92., -67., 88., 35., 110., -66., 32., -100., -18., -65.,
          33., -122., -69., -64., -96., -41., 46., -65., -22., -19., 55.,
          63., 24., -3., -16., 64., 84., 111., 5., -64., -52., 23., -53.,
          -65., 96., 64., 23., -67., -80., -86., 68., 64., 112., 112.,
          85., 64., 112., -44., -23., 62., -94., 18., -88., -65., 32.,
          101., 85., -65., -108., -89., -37., 64., 82., -91., -35., 63.,
          61., 122., -117., -65., 0., 0., 1.45875170e-42, 0., 0., -82.,
          41., 69., -103., 69., -22., -61., 32., 59., -36., 66., -113.,
          19., 9., -61., -95., -110., 76., -60., 89., -112., -50., 66.,
          71., -46., 83., 67., -125., 20., -78., -62., -94., 109., 76.,
          67., -110., 86., -26., 67., -123., -33., -107., -62., -31.,
          60., 91., -62., 77., 111., -19., 65., 42., -64., 67., 65.,
          -48., -114., 77., -61., -12., -119., -63., 65., 20., -3., -98.,
          -62., 62., 90., 54., -62., -64., -98., 28., 61., -109., 87.,
          -124., 66., -128., -89., 26., -62., -35., 80., -113., -63.,
          44., -74., 35., 65., -120., -38., -57., 64., -119., 75., 99.,
          -63., -6., 102., 66., -63. ]
      - [ -3., 67., -121., -63., 116., -11., -86., -63., -98., 27., 20.,
          65., -124., 46., -46., 65., -104., -30., -72., -64., -44.,
          120., -6., -65., -94., -41., -76., -64., -32., -66., 68., -64.,
          -115., 10., -114., -63., 36., 47., -48., 63., 0., 0., -66.,
          -64., 0., -3., 32., 65., 0., -2., 20., 65., 30., -66., -10.,
          64., -74., -78., -115., -64., 66., 39., -126., 64., -128.,
          -118., 16., -65., 118., 3., -89., -65., -116., 39., -118.,
          -64., -80., -4., 127., 64., 24., -18., 125., -64., 76., -85.,
          -53., 63., 0., -118., -93., 62., 30., -9., -3., 63., -25., 45.,
          -91., -64., -128., -104., -29., 62., 104., -82., -70., -65.,
          -87., 87., -93., 63., 44., 89., 34., -64., 32., 48., 19., -65.,
          -56., -48., -65., -65., 96., -29., 81., 64., 28., -57., -103.,
          -65., 72., -108., 59., -66., 32., -52., -51., -65., -96., 106.,
          109., 63., -96., 16., 6., 63., -52., -84., 121., -65., -60.,
          -41., -107., -65., 64., 65., -88., 63., 0., -70., 65., 63.,
          28., -99., 101., -65., 0., 0., 1.45875170e-42, 0., 0., 93.,
          35., 69., 78., -122., 14., 67., 73., -52., 33., -61., -6., 48.,
          64., -61., 55., 43., 45., 67., 24., 84., -85., 67., -73., 7.,
          -97., 66., 0., -80., 27., 66., 102., 2., -48., 67., 2., 11.,
          -103., -61., -108., 89., -103., -63., 45., -3., -30., 66.,
          -116., -70., -118., 66., 113., 65., 6., -62., -106., 70.,
          -106., 66., -77., 107., -121., -62., 29., -88., 97., -62.,
          -120., 55., 33., -61., 29., -32., -118., 65., -32., -86., -63.,
          65., -128., -85., -71., 66. ]
      - [ -93., -80., 55., 64., -76., -37., 58., -63., -110., -31., 41.,
          -64., 74., -45., -78., -64., -36., -52., -9., -65., 64., -100.,
          -17., 64., 15., -84., -90., 64., -96., -6., 56., -66., 55.,
          -28., -25., -65., 32., 21., 110., 63., -92., -2., 102., 63.,
          -20., -41., 46., 63., 2., 83., 7., -66., 12., -37., -39., -64.,
          -112., 12., 62., -64., -96., 47., 60., 62., -8., 88., -117.,
          63., -92., 95., -13., 64., 0., -60., -25., -66., 40., -119.,
          -66., 63., 107., -14., 117., 63., 0., 14., 47., -64., -128.,
          117., -104., -65., -88., -125., -49., 62., -38., -14., -28.,
          -65., 112., -51., 98., 64., 0., 115., 119., 63., -128., 77.,
          -52., 62., -83., 20., -106., -66., 0., 0., 1.45875170e-42, 0.,
          -1., -1., -26., 68., -87., 126., 20., -61., 108., 99., -99.,
          -62., -57., 34., 63., 66., -40., -64., -108., -61., -116.,
          -54., -68., -62., -90., -32., 71., -62., 111., 66., -105.,
          -62., 24., 40., -77., 67., -38., 80., -91., 66., 15., -13.,
          -88., 66., -107., 122., -97., -62., -56., -57., -121., -61.,
          63., 16., 19., 65., -30., 124., -16., 65., 6., 60., 107., 66.,
          -71., -109., 101., 66., -122., -112., 123., 66., -92., 46.,
          105., 65., -24., -69., 39., -65., -52., -4., 119., 65., 77.,
          -101., -111., -62., -119., -78., -19., -64., -31., -121.,
          -126., 66., -82., 71., -64., 64., 92., -74., 112., -64., 0.,
          -54., 38., -62., 81., 23., 74., -62., 127., -84., 80., -62.,
          123., 122., 53., 66., -42., -61., 20., 66., -127., 43., 16.,
          64., 0., 0., 48., 66., 66., -105., 57., -62. ]
      - [ -87., 113., -121., 65., 34., -61., -41., 64., 80., -38., -14.,
          -65., -104., -116., -73., 64., -46., -104., 64., -64., 79.,
          65., -114., -64., 77., -52., 1., 65., 0., 118., -60., 65., 70.,
          -74., 42., -63., 40., -100., 13., 64., -68., -101., -50., 64.,
          -44., 16., -122., 65., -76., -55., -73., -64., -22., 108.,
          -109., 64., 0., 34., -99., 63., 76., 92., -95., 65., -26.,
          -73., 16., 64., 52., -8., -35., -64., 40., -119., 116., -64.,
          -30., -42., -106., 65., -26., -11., -109., 64., -107., 99., 8.,
          -64., -116., 55., 42., -64., 0., 0., 1.45875170e-42, 0., -1.,
          57., 18., 69., 53., -114., -105., -62., 82., 72., 11., 67.,
          110., 98., -104., -62., 118., 64., -49., 65., 81., 37., -70.,
          66., 10., -54., 87., -61., -127., -58., -22., -63., -40., 103.,
          14., 67., 92., -13., -11., -62., -95., 2., -123., 66., 33.,
          62., 0., 67., -40., 90., 118., -62., 114., -37., 26., 66.,
          -28., 112., -107., 62., 84., 45., -118., -63., -38., -25.,
          -82., 66., -106., 21., -97., -62., 38., 122., -29., 66., -111.,
          -17., 26., 66., -72., -54., -9., -63., 87., 100., -61., -63.,
          -90., 36., 88., 66., 105., 46., 66., 64., -32., 110., 66., 67.,
          21., 37., -52., 66., -111., -99., 7., -61., -48., 7., 80.,
          -62., 92., 114., 73., 66., 83., -115., 49., -62., 112., 36.,
          -23., 63., -52., -118., 59., -66., 0., -128., 78., 66., -100.,
          70., -81., 65., -96., 110., 101., -64., 64., -6., -58., 63.,
          14., 27., 91., -63., 45., 62., 101., -63., 52., 15., -83., 65.,
          0., 44., -60., 59. ]
      - [ 119., 83., -82., 67., 30., -99., 80., 67., -24., 28., 102.,
          66., -98., 14., -55., -62., 32., 74., -117., 66., -8., 86.,
          42., 67., 51., -91., 26., -61., 89., -14., 12., -62., -107.,
          -89., 103., 66., -49., -93., 60., 66., 48., -90., -83., -62.,
          125., -127., -73., -63., 97., 117., 25., -62., 116., -105.,
          87., -62., 60., -57., 30., -61., 114., 28., -43., 64., -12.,
          62., 22., 66., 123., 38., 62., -62., 41., -120., 34., -62.,
          16., 107., 71., 66., -25., 4., -123., 64., -82., -52., 20.,
          -62., 70., 69., -102., -63., 82., -86., 43., 66., 0., -128.,
          15., 66., 32., -123., -56., -64., -16., -36., -31., 65., 92.,
          -103., 39., 66., -14., -32., 14., 65., 64., -14., -105., -64.,
          88., -60., 31., 64., 97., -20., 71., 65., -112., 88., -124.,
          63., -16., 99., -95., 64., -46., 20., 78., 65., -128., -77.,
          38., 62., -50., -38., 32., -63., -12., 14., -14., -64., -64.,
          12., -80., 63., 91., 123., 36., -64., -28., -115., 18., 65.,
          36., 45., -89., 64., -76., 98., -115., 64., 16., -51., 80.,
          63., 112., 92., -33., -65., 96., 78., -21., -65., 96., 73.,
          -52., -65., -120., 45., -62., 63., 32., -68., 28., 64., -16.,
          -54., -109., -64., -51., -57., -120., 64., 88., 43., 95., 64.,
          -128., -50., 100., 63., 24., -106., -114., -64., 32., -86.,
          73., -64., -116., -63., -59., 63., 0., 0., 1.45875170e-42, 0.,
          -1., -52., 59., 69., -24., -50., -119., 66., -104., 25., 1.,
          67., -26., 97., -48., 66., -18., 112., -96., 67., -122., -26.,
          -5., -63., -4., -35., -107., 66. ]
      - [ 109., 56., 22., 66., -51., 55., -45., 64., -88., -67., 12.,
          65., 118., -20., 55., 65., -80., -119., -12., -63., -80., 119.,
          4., 66., 0., 109., -116., 62., 52., -126., -36., -64., 64.,
          -7., 82., 64., -4., -10., -126., -63., 40., -74., 65., 65.,
          94., -66., 126., 65., -24., -111., -120., 65., 36., 119., 0.,
          65., -90., -37., -104., 65., 92., 63., 44., 64., 0., 0.,
          1.45875170e-42, 0., 0., 52., -104., 68., -128., -54., 62.,
          -62., 100., -110., -6., 65., 111., 13., -104., 65., 14., 78.,
          120., 65., -89., -101., -41., -63., -68., 71., 15., 66., 100.,
          -112., -13., 65., -28., 127., 117., -62., 82., 83., 114., -62.,
          -63., 50., 37., 65., -45., -98., -109., 65., 9., 28., -62.,
          67., -67., 71., 125., -63., -91., -20., -42., 64., 33., -58.,
          39., 65., -71., 59., -82., 63., -4., 109., 4., -63., -86.,
          107., -39., 64., -11., -98., 67., 65., -77., 12., 24., -61.,
          -90., 45., -68., 64., -48., 101., 5., -63., -62., -85., -24.,
          -66., 2., 63., 113., -62., 32., -59., -97., -68., 109., 38.,
          -121., -64., 104., 124., 22., -64., -24., 96., 79., 65., 115.,
          76., -114., 64., -22., 65., -25., -65., -52., -13., 60., -64.,
          0., 0., -20., 65., -112., -52., 24., -64., 32., -119., -15.,
          63., 8., 73., 59., -64., -47., -57., -99., -63., 107., -85.,
          -117., -64., 120., 71., 121., 62., -128., 97., -7., 63., 56.,
          -100., 59., 64., 58., 31., 4., 64., -95., -85., 98., -64., -8.,
          94., 47., 62., -128., 62., 27., -65., -88., -97., 3., -65.,
          -24., -120., -94., 62. ]
      - [ -13., 90., 106., -61., 39., 19., 96., -61., 120., 99., -38.,
          -61., 82., 93., -49., -61., -20., -46., -58., 67., -54., -44.,
          15., 66., 48., 77., 63., 66., -128., 87., -20., -61., -53.,
          -83., -101., 67., 98., -111., -36., 66., 76., -73., -110., 66.,
          -2., 95., -99., -61., 53., -15., -2., -61., -118., 58., 53.,
          -61., 27., -110., -52., 66., -126., 102., 87., -61., -69.,
          -56., 21., -61., 40., 101., -97., 66., 40., 7., -119., 66.,
          -29., -89., -83., 66., -122., -43., -6., -62., 84., -93., -85.,
          66., -126., -13., -52., 64., 116., 56., 0., -61., 52., 87.,
          15., 67., -104., -33., 15., 67., -20., -80., -88., -65., -30.,
          115., 53., 66., -115., -93., -106., 66., -41., -105., 12., 66.,
          -97., 38., -99., -63., 0., -32., 9., -61., -108., 64., -65.,
          -63., -22., -54., 72., -62., 16., 104., 0., 66., -19., 19.,
          -14., 66., -6., 100., -101., 65., 71., -44., 42., -62., -15.,
          83., 9., -63., -128., 42., 11., 63., -120., 89., 75., -63., 1.,
          65., 76., -62., -21., 12., -127., 65., -107., -36., -52., 66.,
          20., -4., 45., 66., -112., -39., 104., 64., -107., -9., -128.,
          -63., -78., -82., -58., -63., -84., 82., 117., -63., 96., 0.,
          57., -63., -23., -22., 38., 65., 0., 51., 115., 65., -32.,
          -29., 42., 65., 40., 36., -53., 64., -88., 127., -96., -64.,
          4., 114., -89., -63., -32., -15., 17., -63., -104., 86., 41.,
          -64., -124., -33., 113., 64., -8., -43., -108., 64., -108.,
          -24., -27., 64., -34., -42., 32., -64., -36., 98., 53., -64.,
          0., 0., 1.45875170e-42, 0. ]
      - [ 0., 77., 65., 69., 25., 48., -38., -61., 98., -32., -37., -61.,
          33., 43., 31., -61., -15., -26., 106., 66., -10., -78., -113.,
          66., -96., 65., 26., 66., 84., -4., 4., -62., 38., 123., 127.,
          -61., 52., 77., -111., 66., -46., -68., -87., 66., -19., -41.,
          68., 66., -71., 106., 69., -62., -108., 15., -84., 66., -83.,
          -53., 25., -62., -7., -25., 7., -63., 106., -115., 24., -61.,
          -96., -45., 33., 66., 19., -3., 35., 66., 0., -18., 101., -64.,
          126., -86., -72., -63., -100., -35., -63., 65., 120., 13., 9.,
          -63., 118., -47., 30., -65., 10., -93., 121., -62., -58.,
          -111., 43., 66., -62., 118., -62., 65., -62., 18., 12., -64.,
          114., 10., -53., -64., 95., 91., 78., 65., 121., 8., 68., 65.,
          5., 127., -25., 64., 0., -128., -78., -63., 16., -43., -92.,
          65., -128., -83., -42., 64., 48., -113., 31., -63., -74., -39.,
          -106., 64., -102., 39., 47., 64., -4., -40., -64., 64., -104.,
          -45., -72., 63., 48., -18., 38., -64., -18., -122., 4., 65.,
          -32., -33., 118., -65., -63., -44., 43., -65., 0., 31., 5.,
          61., -128., 59., 124., 62., -96., -9., -73., 61., 93., 22.,
          16., -66., -128., -48., -86., -66., -10., -115., -111., -64.,
          -96., -12., -69., 63., -60., 107., 117., 63., -124., 10., 79.,
          -64., -128., 115., 81., 62., -10., 88., 81., -64., -28., 29.,
          82., -65., 64., 41., 60., -65., -112., 68., -120., -64., 0.,
          104., 1., -66., 66., -3., 43., 64., 32., -115., -53., -66.,
          -88., 98., 82., -65., 117., -67., 71., -64., -89., -115., -41.,
          -65. ]
      - [ 48., -52., 58., 64., -108., 110., -118., -65., 32., 33., 33.,
          63., 0., 0., 1.45875170e-42, 0., -1., -73., -91., 68., 17.,
          -32., -1., -61., 92., 5., -123., 67., -82., -109., -98., -62.,
          -13., -27., 31., -62., 47., 104., -107., -61., 110., -5., 46.,
          67., -108., 73., 66., -62., 79., 22., -96., -63., 31., -31.,
          -107., 66., -19., 116., 37., -62., -27., -84., -105., 63., 23.,
          -105., -31., 66., 64., 114., -125., -63., -1., -7., -62., 65.,
          -56., -27., -107., -65., 63., 68., -99., -62., -69., -17.,
          -119., -62., -92., 42., -48., 65., 106., 92., -96., -64.,
          -105., -33., 102., 66., -91., -5., -58., 65., -17., 88., -88.,
          62., -126., -20., 112., -65., -107., 31., 19., -63., -14.,
          -41., 64., -64., -13., -70., 1., -65., -44., -25., 112., -64.,
          -78., -121., 52., 64., -128., -100., 76., -63., 66., 111.,
          -40., 64., -93., -12., 91., 64., 0., 0., 0., 62., 64., -7.,
          28., 64., 0., -32., -58., -66., 64., 0., 45., -65., 82., -3.,
          111., 64., 46., -115., -115., -64., 84., 113., 36., 64., -82.,
          6., -12., -65., 0., 16., -15., -67., 74., 32., 56., 63., -128.,
          10., 53., -66., 108., -5., -108., -66., 32., -60., 19., -64.,
          -32., -116., 1., 64., 39., 64., -108., -65., -58., -115., -44.,
          63., -32., 107., 54., -65., 80., 46., -62., -65., -64., 125.,
          72., 62., -104., 101., 114., 62., -96., -110., 105., -65.,
          -52., -82., 75., 64., 40., -66., -110., -65., -18., 35., -50.,
          -65., 72., -105., -66., 63., -72., 116., -95., 63., -16., 75.,
          60., -65., 14., 41., 93., 63. ]
      - [ -28., -50., -4., -63., 40., 75., 11., 65., 53., -91., 61., 65.,
          -38., -79., -71., -63., -12., 33., 15., 65., 53., 72., -51.,
          64., 0., -64., 64., 66., 0., -127., 48., -62., -18., -112.,
          -119., 65., -32., 94., 118., -64., 44., 86., -114., 65., -67.,
          -47., -54., -63., 124., -98., 75., 65., -12., -101., 72., 64.,
          -68., -33., -104., -64., 0., -94., 118., 64., 96., -128.,
          -120., 63., 92., 51., -15., -65., 2., -7., -113., -63., -90.,
          93., -73., 65., 10., 117., 5., -63., 30., -7., -121., 63., 88.,
          -128., 2., -63., -85., -114., -35., 64., 24., 37., 86., -64.,
          -64., 65., -38., -66., 0., -74., -97., 63., -128., -68., -21.,
          62., 120., 61., 80., -65., -34., 116., 23., -65., 24., -43.,
          44., 64., -48., 10., -62., -64., 34., -90., 101., 64., -128.,
          46., 22., -66., 64., 44., -92., 64., 16., -109., -1., -64.,
          34., -87., -98., 64., 122., -94., 71., -64., 0., 0.,
          1.45875170e-42, 0., 0., -68., -127., 68., 67., -10., -85.,
          -63., 82., 50., 19., 65., -51., 54., -33., -63., -12., -69.,
          -114., -61., 12., -46., 44., -62., -62., 102., 26., 65., -29.,
          -71., -24., -63., 107., -10., 21., -61., -72., 69., 56., -62.,
          58., -112., 29., 64., -4., -46., -47., -63., -84., -24., -92.,
          67., 56., -108., 27., -63., -58., 124., 2., 64., 68., -79.,
          93., -63., -56., -22., 26., -63., 44., 28., 107., 65., 110.,
          -102., 65., 63., -65., -31., 2., 63., -20., 15., -79., -62.,
          99., 111., -81., -65., 10., -106., -41., -64., 46., 123.,
          -109., 64., 4., 119., -89., -63. ]
      - [ 89., -120., -100., 66., 81., 22., -74., -62., 14., -68., -115.,
          -62., -124., -91., -123., -62., -69., -101., 41., 66., 91.,
          91., 71., 66., -65., -69., 25., 67., 8., -28., 42., -61., 104.,
          92., -126., 65., 126., 24., -98., 66., -100., -47., -42., -62.,
          103., 27., 26., -61., -99., -80., -88., 66., 94., -50., 81.,
          66., 40., 52., 58., 65., -27., -89., 14., -63., -109., -82.,
          -111., 65., 108., 78., -109., 65., -68., -69., 32., 67., -70.,
          32., -3., 65., -27., -74., 127., -62., 2., 64., 84., -62., 0.,
          64., 116., -62., -104., 1., -89., -63., -118., -12., 101.,
          -62., -128., 86., 83., -64., -83., -4., 89., -62., 91., 19.,
          62., -62., 58., 76., -123., 65., -8., -38., 96., 64., -33.,
          -118., -53., 64., -90., 51., -71., 65., -56., -109., -1., -63.,
          -38., -104., 2., 66., 96., 116., -95., -64., -82., 123., -59.,
          -63., -9., -74., -111., -63., 24., 24., 57., 64., -32., -123.,
          -71., 64., -6., 122., -107., 65., 37., 31., -86., -63., -114.,
          46., 53., -63., 96., 62., 87., -63., 22., 33., 78., 65., 21.,
          -74., 121., -63., 64., 88., -93., -66., 120., -91., 127., -63.,
          -68., -36., 35., -63., -50., 127., -95., -63., 104., 33., 27.,
          -63., 0., -75., 95., 63., 122., -14., 3., 65., 35., -99., 15.,
          65., 98., -37., 0., 65., 0., 0., 1.45875170e-42, 0., -1., -69.,
          40., 69., 18., 45., 32., 66., -109., -3., 78., -62., -65.,
          -91., 45., -63., 86., 27., -70., -61., 0., 46., 107., 67., 25.,
          -48., -26., 66., 7., -15., -113., 66., -118., 36., -89., 67. ]
      - [ -12., -54., -128., -64., 96., 60., -75., -62., 100., -39., 97.,
          65., 76., 106., 64., -61., 65., -11., -108., -62., 79., 40.,
          -115., 66., -26., 50., 115., 66., -60., 98., -41., -63., 86.,
          -79., -97., 66., 126., -18., -97., 66., 55., 13., 72., 67.,
          -66., -65., -61., -63., -70., -68., -82., -63., 27., -81.,
          -112., -64., -120., -58., -114., -62., -40., 35., 59., 66.,
          -57., -30., -56., -62., -103., 85., -77., 66., -100., -120.,
          59., 64., -1., -121., -103., -62., -67., 85., 58., 66., 27.,
          96., 123., -63., 66., -21., 106., -62., 10., -82., -110., 66.,
          -104., -1., 11., 65., -32., -14., -30., -63., -90., 6., 62.,
          -62., 0., -64., -96., -62., -16., 87., 15., 66., 120., 118.,
          -25., 65., -16., -107., 79., 65., -16., -118., 39., 66., 52.,
          -82., -76., -65., -44., 45., 50., -63., 51., -34., -40., -63.,
          76., -92., 2., -62., 80., -20., 67., -64., -71., 28., -102.,
          65., -62., 56., 77., 65., -13., 67., 61., 65., -8., -67.,
          -114., 64., 0., 109., 97., 63., 0., -96., 119., -63., -62.,
          -113., -70., -64., 86., -123., 11., -64., -90., 6., 37., 64.,
          -96., 27., -40., 63., 64., 32., -32., -64., -72., -74., 74.,
          64., -28., -25., -8., 64., 24., 27., -92., -64., 64., 47., 43.,
          -65., 24., 105., -85., -65., 88., -118., 57., -64., -112.,
          -126., -39., 63., 112., -108., -92., -64., 118., -49., 50.,
          63., -56., -57., 113., 64., 18., 85., 63., -65., 0., 0.,
          1.45875170e-42, 0., 0., 80., 1., 69., -57., 42., -98., -62.,
          -116., 66., -128., -63., 58., -16., -122., 64. ]
      - [ 62., -124., -74., -64., 121., 1., -108., -63., 72., -29., 12.,
          -61., 74., 107., 55., -62., -77., -115., 70., 65., 77., -127.,
          -80., 65., 40., 97., 34., -63., -56., -88., -71., 62., -60.,
          2., -35., 64., -9., 17., 28., 64., -31., -70., 52., -62., -24.,
          22., 74., -63., 0., -40., -38., 62., 64., 113., -38., 64.,
          -56., -6., 2., -63., -52., 96., 70., -64., -76., -93., -25.,
          64., -76., -49., -99., 64., -40., -69., 51., -63., -64., 77.,
          -70., -65., 28., 10., -110., -64., 104., 119., -88., 64.,
          -120., 35., 69., 64., -122., 106., 34., 64., -112., 11., 72.,
          -66., -109., 80., 98., -65., 0., 0., 1.45875170e-42, 0., -1.,
          61., -77., 68., 127., -105., 107., 68., 0., 44., 18., -61.,
          -123., -8., 90., -61., -14., -69., -33., 66., -5., 91., -34.,
          66., -122., 45., 72., -62., 32., -13., -99., 66., 127., 62.,
          -112., 67., -53., 3., 22., 67., 50., 22., -91., -63., -56.,
          -113., -39., -63., 24., -72., 33., 66., 57., 69., -128., 66.,
          -75., -110., -127., -62., -109., 7., -19., -63., 114., 107.,
          -127., 66., -24., -126., -102., -63., 78., 91., 121., -63.,
          -43., 95., -51., -63., 54., 108., 29., -62., 54., -115., -87.,
          65., 29., 64., -97., -63., -106., -38., -128., -64., -104.,
          87., 87., 67., -104., 10., -13., 66., -58., 38., -43., -63.,
          -37., 56., -90., -62., 62., 16., 26., -61., -103., 95., -124.,
          -62., 26., 4., -6., 65., 0., -123., 119., 66., 0., 0., 80.,
          63., -128., -42., 18., -62., 88., 63., 3., 65., -80., -74.,
          91., -63., 96., 61., -20., -64. ]
      - [ -96., 123., -89., 66., 101., -37., -25., -62., -4., -82., 20.,
          67., 95., 34., -121., -64., -119., -25., -109., -63., 98., 9.,
          -4., -64., 16., 25., 36., 66., -94., -75., 70., -62., -113.,
          126., -74., 65., 65., -126., 42., -63., -114., -58., -60.,
          -64., -107., 124., -6., -64., -109., 124., 74., 65., 16., 41.,
          38., -63., 38., -119., -81., 63., -86., -127., -76., -65., 36.,
          1., -114., -64., 7., 122., -41., 63., -24., -68., 39., 65.,
          75., 68., 121., -64., 34., 18., 2., 64., -38., 48., 31., 64.,
          53., -49., 5., 65., -61., -40., -97., -64., 0., 0., 9., 65.,
          96., 1., -98., 64., -128., -90., 16., 64., -12., -82., -88.,
          64., 107., -23., 95., 64., 52., -72., 126., 64., 91., -33.,
          56., 64., -84., -70., 44., 64., -78., -3., 83., 63., 71., -24.,
          126., 64., -86., 123., -24., 63., -56., -112., 113., 62.,
          -112., -98., 11., 63., 0., 121., 107., -66., -32., -44., 120.,
          61., 0., 13., 71., 59., 96., 111., -72., 62., 64., -24., 120.,
          -64., -48., -94., 86., 62., -36., -119., 39., -65., -66., -71.,
          -55., -65., -25., -69., 7., -64., 32., -93., -88., -66., 104.,
          -45., 1., -64., 24., -119., -101., -65., -64., -101., 9., -64.,
          -64., 64., -112., -65., -32., 50., 10., -64., -64., 9., 52.,
          63., 20., 4., -111., -65., -32., 112., -61., -65., -32., 35.,
          30., 63., 0., 0., 1.45875170e-42, 0., -1., -67., 55., 69.,
          -27., -27., 103., -62., -48., 18., 9., 65., -65., -75., -21.,
          -62., 87., 120., 16., -60., 7., 121., -111., 65., 69., -115.,
          -123., -62. ]
      - [ -32., -32., 38., -66., 20., 94., 38., 63., 0., 0.,
          1.45875170e-42, 0., -1., 63., -98., 68., 126., 34., -59., -63.,
          29., 64., -84., -62., -89., 82., -93., 65., 57., -7., -66.,
          -61., -58., 114., -45., -62., 65., 64., -105., 66., 108., 4.,
          109., -62., -8., -85., -80., -61., -122., 49., -56., 66., 0.,
          82., -68., -62., -46., -118., 50., 66., -29., 121., 87., -62.,
          43., -118., 21., 67., 54., -78., -91., 66., 117., -42., -123.,
          -64., 68., -114., 32., -62., -19., 56., -107., -62., -51., 94.,
          -89., 66., 75., -122., -88., 64., 16., -112., 56., 67., -16.,
          -27., -106., -62., -64., 114., -93., -62., 91., 72., -123.,
          66., -36., 111., -103., 66., -83., 56., -99., 64., 74., 11.,
          -22., -63., -123., 68., -72., -62., -56., 26., -5., 64., 8.,
          109., -105., -64., 60., -123., -126., -63., 106., 38., -7.,
          -65., 0., -64., -50., -62., 45., -83., -50., 65., -86., -21.,
          67., 66., 109., 91., -6., 65., -97., -93., 12., -63., -32.,
          -73., 70., 65., -31., -90., 54., -63., 36., 36., 66., 63.,
          -62., 114., 11., 65., 16., 37., -97., 62., 12., 48., -117.,
          64., -8., -70., -29., -64., -112., -65., -110., 64., -88.,
          -80., -3., -64., -56., 7., 63., -64., 16., -98., 44., 64., 18.,
          109., 51., 65., -32., -26., -55., -65., -80., -86., -29., 63.,
          -48., 73., -27., -66., 16., 121., 23., -65., -80., 90., 6.,
          -64., 56., 93., -126., -64., 32., 85., -78., -65., 32., -47.,
          55., 64., -4., 124., -126., -64., 64., 62., -78., 63., -32.,
          -53., -79., 63., 64., -77., -33., -65. ]
      - [ 0., 0., 98., -62., -96., 51., 120., -62., -80., 60., -20.,
          -65., -128., -20., 113., 65., -48., 52., 79., -65., -108.,
          -83., 8., -63., 56., -38., 117., -64., 94., -14., -126., 63.,
          -4., 99., 8., -62., -82., -3., 16., -62., -28., 83., -17.,
          -65., 1., 66., 15., 65., 74., 66., 5., 64., 13., -63., -61.,
          -64., 60., 78., -122., 63., 90., 118., -28., 63., -66., -76.,
          82., -63., -40., -122., 110., -63., -12., -28., -68., -65.,
          -11., -67., -87., 64., 0., -34., -113., 63., 2., 118., 84.,
          -64., -110., -11., -16., 63., 14., -88., -47., 63., 78., 87.,
          6., -63., -20., -53., -83., -64., -124., -102., -33., -65.,
          48., 47., -71., 63., 96., -79., -92., -66., -18., -46., 61.,
          -65., 0., 32., -63., -70., 12., -120., 85., 63., 0., 0.,
          1.45875170e-42, 0., 0., -100., -85., 68., -46., -7., 25., 65.,
          -121., -24., 18., -61., 52., 86., -118., 66., -6., -80., 39.,
          -61., -11., 82., 72., -62., 10., 33., -123., -62., 88., 68.,
          34., 67., -27., 50., 60., -61., -78., -29., -40., 66., 56.,
          43., -85., 66., -40., 92., -116., 67., 49., 42., -21., -62.,
          -28., 120., 47., 66., -103., 43., -84., 66., 35., -115., -97.,
          -61., -125., 55., 18., -61., 23., 82., 87., 63., 48., 112., 9.,
          66., -120., 52., -48., -62., 2., -50., 0., 67., -58., 14.,
          -21., 65., -128., -28., 22., -67., 44., -112., 44., 66., 39.,
          -43., 19., -61., -110., -73., 56., -62., -28., -119., 29., 64.,
          -68., 57., 110., -62., -94., 122., -83., 65., -103., -11., 54.,
          -63., -11., -15., 13., 65. ]
      - [ 59., -11., 31., 65., -42., 123., -62., -64., -98., -28., -124.,
          -64., -86., 109., 6., -61., -63., 65., 32., 66., -109., -3.,
          1., -63., -44., 80., 84., -63., 30., 2., -10., -63., 79.,
          -100., 114., 65., -25., 9., 3., 64., -9., 52., -81., -64.,
          -74., -41., -87., 64., 91., -53., 25., -63., -116., -101.,
          -74., -65., 79., -7., -68., 63., 0., 0., 93., 65., -21., 68.,
          -106., -64., -78., 42., -125., -64., -16., -107., -79., 63.,
          -63., -101., -41., 63., -14., -78., -91., -64., -116., 15.,
          22., -66., 19., -79., 127., -64., -80., -45., 123., 63., -20.,
          -92., -18., -65., -59., -125., 63., -64., 75., 11., -89., -64.,
          0., 116., -79., 62., -64., -113., -29., -66., -32., 44., 20.,
          -65., 96., -101., 8., -66., 48., 104., 48., -64., -104., 59.,
          -11., 62., -6., -107., 1., 64., 12., -1., 75., 64., 32., -101.,
          -75., 64., 32., 98., 64., 63., -3., -91., -62., 62., 115.,
          -38., 27., 64., 64., 21., -56., -65., -64., 27., 1., 64., -74.,
          -74., 80., 63., 32., 6., -35., -66., 98., -66., 96., -63., 8.,
          68., -67., 64., 16., 32., 9., -66., 115., -26., -77., -65., 0.,
          0., 1.45875170e-42, 0., 0., 76., -9., 68., -38., -48., 58.,
          67., -45., 30., 26., 67., -114., 52., -126., -63., 7., -82.,
          -16., -62., 64., 25., 116., -61., 71., 127., -75., 65., 17.,
          -52., -104., 66., 0., -19., -79., 67., -48., 32., 41., -61.,
          44., 22., -8., -62., -76., -14., -35., -62., -20., -57., -84.,
          65., 82., -109., -58., 66., -89., 4., 83., -62., 74., 105.,
          98., -63. ]
      - [ -86., -62., -26., -64., 16., 98., 7., 64., 0., -65., 86., -66.,
          -24., -114., -62., -64., 106., -88., -100., 64., -56., 76.,
          -113., -64., 58., -83., -25., -64., 0., 30., 18., 64., -72.,
          13., -105., 64., 112., -105., -78., 63., -128., -49., 106.,
          -65., -112., -74., -64., 63., -8., 64., -78., -65., 72., 1.,
          32., 64., 49., 127., -59., 64., 0., 0., 1.45875170e-42, 0.,
          -1., 127., 34., 68., 68., 17., 3., -62., -50., 93., -29., 65.,
          116., -81., 102., -63., -52., -53., -79., -61., -94., -10., 9.,
          66., 21., -42., 27., 65., -72., 39., 72., -64., -8., -48.,
          -28., 66., 97., 29., 121., -63., 102., 36., 1., -63., 82.,
          -38., 103., -65., -84., 37., -43., 66., 31., 80., -91., -63.,
          -81., 25., -58., -64., 72., 15., -39., 64., -26., -24., 106.,
          -61., -90., -7., 9., 66., -6., 5., 36., -63., -122., 116.,
          110., 65., -87., 79., 74., 67., -43., -34., 25., -63., -107.,
          23., 28., -63., 79., 73., -49., -65., 13., 122., -37., -62.,
          -34., 3., 3., -66., 12., -109., 108., 63., 32., -73., -36.,
          64., 61., 58., -35., 65., -30., 23., 28., 64., 82., 60., -108.,
          63., 84., -73., -90., -64., 0., 0., -78., 65., -96., 91., 62.,
          -65., 48., -115., -80., 63., -68., 31., -64., -65., 117., 110.,
          -97., -63., 85., -36., 77., -64., -50., 45., 69., 63., -84.,
          121., 125., -65., 116., -40., 37., 65., -98., 29., -124., -65.,
          120., 5., 89., -67., 64., -108., 96., 62., -64., 59., 100.,
          64., 124., 87., -91., 63., 16., 14., -97., -65., -58., 47.,
          32., -64. ]
      - [ -20., -36., 89., -62., -113., -91., -53., -62., 0., 95., 96.,
          -62., -40., 55., 11., -63., -2., 12., -14., -62., 17., -120.,
          122., -62., 126., -36., 4., 66., -40., -113., 61., 66., -128.,
          -55., 0., -62., -36., 122., 39., 66., 91., 6., -109., 65.,
          -36., -82., 8., 65., 0., 64., -59., 66., -15., -112., 39., 66.,
          -122., -110., -59., -63., 82., 40., -83., -63., -57., -33.,
          -110., 66., -128., -80., 25., 62., 32., -2., -45., -64., -89.,
          68., -5., -64., 24., 105., -104., -64., 104., -5., 71., -63.,
          30., 56., -27., 64., 37., 62., 49., 65., 71., 8., 59., -62.,
          116., 96., 31., -63., 120., -57., -4., 64., -56., -9., 74.,
          -65., -103., 1., -88., -63., 48., 54., 60., -64., -42., 64.,
          91., 64., 64., -120., -57., 63., 91., -68., 112., 64., -16.,
          -49., -42., 63., 32., 10., -3., -64., 0., 82., 30., -66.,
          -128., -59., 25., 65., 8., -27., 8., 65., 81., 49., -93., -64.,
          -48., -81., -110., -64., 44., 59., 66., 65., 118., -84., -122.,
          64., -45., -99., -47., 64., 0., -123., 39., 61., 0., 0.,
          1.45875170e-42, 0., 0., -24., -120., 68., 22., 20., 57., 65.,
          -50., 39., -92., -63., -99., 33., 53., -63., -34., -45., 69.,
          -61., -68., -111., -95., 64., 66., 99., 51., -63., 32., 111.,
          -113., -63., 39., 67., 83., -62., 118., -45., 83., -63., 112.,
          49., -77., -64., -107., -104., 69., -63., 115., -78., -76.,
          67., -121., -82., -84., -64., 12., -53., -34., -64., -128.,
          -76., 52., 63., -60., 27., 92., -62., -19., 3., 73., 65., 124.,
          -21., -70., 64. ]
      - [ 122., 51., -4., -64., 64., -97., 3., -64., 112., 80., 35., 64.,
          115., -55., -68., -64., -128., 65., -90., 62., -33., -22., 37.,
          65., 32., 25., -15., -67., -58., -37., 44., -63., -80., 77.,
          -76., -64., -112., -105., -68., 64., -96., 32., 35., 64., 16.,
          -89., 124., -64., 32., 9., 75., 64., 12., 26., 125., 64., 22.,
          41., -116., 64., -28., 57., -23., -64., -31., 12., 92., 64.,
          76., -65., -100., 64., 8., 94., -78., 63., -50., -12., -105.,
          -64., -104., -41., 26., 63., -48., -27., -108., 63., 96., 4.,
          8., 64., 112., 95., 17., -64., 65., 32., -14., 63., 0., 0.,
          1.45875170e-42, 0., 0., -47., 11., 69., 14., -28., -65., 67.,
          121., 18., -17., 66., 28., 39., -46., -62., 83., -1., -114.,
          -61., -115., -99., -110., 67., 103., -56., 89., 67., -2., 25.,
          -28., -63., -116., 8., -117., -62., -90., 12., -123., -62.,
          -8., 32., 17., 67., 42., 73., -49., -63., 118., -125., -15.,
          65., -18., 118., -90., -62., -102., 3., -13., -63., -50., -24.,
          -106., 66., -62., -34., -111., 66., -108., -49., 42., -61.,
          108., 88., -61., 66., 16., -81., 25., -61., -62., -49., -76.,
          63., -52., -5., 79., -62., 63., -12., -27., 65., 109., -116.,
          -101., -62., -98., 64., -59., -63., -59., -83., 16., 65., -36.,
          -54., 65., -62., 97., 24., -16., 64., 55., 36., 6., 66., 86.,
          -81., 76., -63., -120., 31., 83., -64., -53., -102., -40.,
          -64., 0., 0., 117., -63., 96., 66., 90., 65., 68., 117., -45.,
          -63., -68., -110., 2., 65., 124., 11., 107., 64., -18., 5.,
          -127., -63. ]
      - [ 12., 48., -100., 65., -60., 60., 4., 66., -32., -96., 2., 61.,
          120., 8., 12., -62., 66., -91., 10., 67., 50., 109., -27., 65.,
          72., 81., -114., -63., 56., 115., 67., 65., 31., 55., 3., 66.,
          -4., -39., -98., -63., -58., -44., 102., 65., 112., 18., -51.,
          65., -8., -1., -59., 66., 0., 35., -4., -65., 40., 121., -103.,
          -63., -12., -28., -69., -64., 58., -35., -29., 65., -2., -35.,
          -111., -63., -92., -26., 88., 65., -102., -114., 74., -63.,
          96., 28., 123., 66., 124., -36., 71., -63., 82., 111., 72.,
          -64., 121., -44., -121., 64., -97., 83., 43., 66., 64., 96.,
          0., -63., -36., -15., 6., -64., 60., 81., 42., -64., -110.,
          -84., -30., 65., -33., 83., -109., 64., -16., -103., -72.,
          -65., -120., 99., -76., 63., 120., 42., -11., 65., 72., 22.,
          -113., 64., 0., -127., 2., -64., -72., -103., -49., -64., 64.,
          48., -105., 65., -80., 54., 28., -63., 48., -24., -74., -64.,
          114., 26., 8., 64., 30., 123., 89., 65., 0., -93., 89., 62.,
          120., -7., -62., -64., -10., 76., -84., 63., 0., 0.,
          1.45875170e-42, 0., -1., -115., 41., 69., -6., -60., 66., 66.,
          -34., 23., 37., -63., -127., 32., -73., 64., -128., -70.,
          -123., 68., -14., -77., 96., -63., 117., -61., 48., -63.,
          -107., -125., -63., 62., 93., 16., -23., -62., 104., 75., 6.,
          -62., 41., 40., 92., 64., -128., -20., -12., -64., -110., -19.,
          -71., 66., -15., 48., -72., 64., 63., -120., 82., 64., 13., 2.,
          115., 64., 23., 4., -111., -61., 15., 93., -34., 64., -66.,
          112., -48., 63. ]
      - [ 107., -67., -86., 66., -16., -108., 105., 65., -39., 45.,
          -102., 65., -81., -114., -107., -62., 21., -70., -108., 65.,
          122., -73., -48., 65., 23., 106., 2., 65., -78., 96., -40.,
          -63., 21., -126., -56., 64., -6., -19., 51., 65., 100., -77.,
          3., 65., -102., -2., 65., -63., 44., 77., -117., -64., 45.,
          -46., 6., 65., 48., -87., -97., 64., -37., 51., -109., -64.,
          -28., -111., 123., -64., 111., 33., -101., 64., 0., 0., 56.,
          64., -64., -78., -112., -64., -80., -8., 51., -64., -4., -16.,
          41., 64., -125., -125., -37., 64., 10., 22., -1., -64., 76.,
          28., 32., 63., 102., -31., -6., 63., 104., 110., 24., -65.,
          52., 63., -64., -65., -37., -48., -116., 63., 64., 15., 110.,
          62., 126., 0., -82., -64., 6., -6., -121., 64., -112., -126.,
          57., 62., 64., -123., -13., -65., 44., -120., -66., -65., -72.,
          -9., 6., 64., 60., 45., -74., 63., -88., -110., -123., -65.,
          2., -60., 5., -64., -128., -38., -44., 63., 96., 27., -122.,
          63., 66., -39., -85., -65., 48., 22., 36., -64., 0., 101., 66.,
          -66., 48., 50., 42., 64., 120., -118., 13., -64., -88., -115.,
          -25., -65., -12., 45., 1., -64., 54., 40., 5., 64., 116., 91.,
          -6., -66., 0., 0., 1.45875170e-42, 0., 0., 18., -89., 68., 99.,
          -6., -57., 66., 56., -93., 65., -63., 42., -20., 24., -62.,
          -104., -40., -85., -61., -62., -86., -91., -63., 17., -76.,
          -73., 66., 84., 54., 45., -61., -25., -75., 63., -61., 78.,
          80., 33., 67., -33., -109., 55., -61., -128., 64., 38., 64.,
          67., 9., -14., -62. ]
      - [ 4.13051668e-38, 0., 4.13080815e-38, 0., 4.13109962e-38, 0.,
          4.13139109e-38, 0., 4.13168256e-38, 0., 4.13197403e-38, 0.,
          4.13226550e-38, 0., 4.13255697e-38, 0., 4.13284844e-38, 0.,
          4.13313991e-38, 0., 4.13343138e-38, 0., 4.13372285e-38, 0.,
          4.13401432e-38, 0., 4.13430579e-38, 0., 4.13459726e-38, 0.,
          4.13488873e-38, 0., 4.13518020e-38, 0., 4.13547167e-38, 0.,
          4.13576314e-38, 0., 4.13605461e-38, 0., 4.13634608e-38, 0.,
          4.13663755e-38, 0., 4.13692902e-38, 0., 4.13722049e-38, 0.,
          4.13751196e-38, 0., 4.13780343e-38, 0., 4.13809490e-38, 0.,
          4.13838637e-38, 0., 4.13867784e-38, 0., 4.13896931e-38, 0.,
          4.13926078e-38, 0., 4.13955225e-38, 0., 4.13984372e-38, 0.,
          4.14013519e-38, 0., 4.14042666e-38, 0., 4.14071813e-38, 0.,
          4.14100960e-38, 0., 4.14130107e-38, 0., 4.14159254e-38, 0.,
          4.14188401e-38, 0., 4.14217548e-38, 0., 4.14246695e-38, 0.,
          4.14275842e-38, 0., 4.14304989e-38, 0., 4.14334136e-38, 0.,
          4.14363283e-38, 0., 4.14392430e-38, 0., 4.14421577e-38, 0.,
          4.14450724e-38, 0., 4.14479871e-38, 0., 4.14509018e-38, 0.,
          4.14538165e-38, 0., 4.14567312e-38, 0., 4.14596459e-38, 0.,
          4.14625606e-38, 0., 4.14654753e-38, 0., 4.14683900e-38, 0.,
          4.14713047e-38, 0., 4.14742194e-38, 0., 4.14771341e-38, 0.,
          4.14800488e-38, 0., 4.14829635e-38, 0., 4.14858782e-38, 0.,
          4.14887929e-38, 0., 4.14917076e-38, 0., 4.14946223e-38, 0.,
          4.14975370e-38, 0., 4.15004517e-38, 0., 4.15033664e-38, 0.,
          4.15062811e-38, 0., 4.15091958e-38, 0., 4.15121105e-38, 0.,
          4.15150252e-38, 0., 4.15179400e-38, 0., 4.15208547e-38, 0.,
          4.15237694e-38, 0., 4.15266841e-38, 0., 4.15295988e-38, 0.,
          4.15325135e-38, 0., 4.15354282e-38, 0., 4.15383429e-38, 0.,
          4.15412576e-38, 0., 4.15441723e-38, 0., 4.15470870e-38, 0.,
          4.15500017e-38, 0., 4.15529164e-38, 0., 4.15558311e-38, 0.,
          4.15587458e-38, 0., 4.15616605e-38, 0., 4.15645752e-38, 0.,
          4.15674899e-38, 0., 4.15704046e-38, 0., 4.15733193e-38, 0.,
          4.15762340e-38, 0., 4.15791487e-38, 0., 4.15820634e-38, 0.,
          4.15849781e-38, 0., 4.15878928e-38, 0., 4.15908075e-38, 0.,
          4.15937222e-38, 0., 4.15966369e-38, 0., 4.15995516e-38, 0.,
          4.16024663e-38, 0., 4.16053810e-38, 0., 4.16082957e-38, 0.,
          4.16112104e-38, 0., 4.16141251e-38, 0., 4.16170398e-38, 0.,
          4.16199545e-38, 0., 4.16228692e-38, 0., 4.16257839e-38, 0.,
          4.16286986e-38, 0., 4.16316133e-38, 0., 4.16345280e-38, 0.,
          4.16374427e-38, 0., 4.16403574e-38, 0., 4.16432721e-38, 0.,
          4.16461868e-38, 0., 4.16491015e-38, 0., 4.16520162e-38, 0.,
          4.16549309e-38, 0., 4.16578456e-38, 0., 4.16607603e-38, 0.,
          4.16636750e-38, 0., 4.16665897e-38, 0., 4.16695044e-38, 0.,
          4.16724191e-38, 0., 4.16753338e-38, 0. ]
      - [ 29., 30., -58., 66., 127., 66., -25., -63., 122., 127., -125.,
          -62., 6., -115., -63., -62., -97., -37., -85., -62., -27., 71.,
          -36., 65., -7., 110., 86., -62., 83., 49., -38., -63., -13.,
          18., -18., 65., 113., -11., 84., 66., -95., 105., -70., 66.,
          126., 107., 54., 67., 39., 124., 75., -62., -120., 47., -27.,
          -63., 30., -35., 64., 64., -86., 0., -126., -62., 66., 50.,
          -52., 64., -116., 109., 25., -62., 0., 0., 23., -63., -28.,
          127., 85., -62., 70., 23., -84., 65., 68., -114., -29., 65.,
          80., -60., 96., 65., -119., 60., 32., 66., 67., -90., 119.,
          64., 120., -89., -57., -64., 2., -7., -118., -63., 0., 113.,
          0., -65., 32., 100., -102., -65., -38., -128., 16., -63., 21.,
          29., -95., -63., -1., 103., -5., -64., 0., 86., 48., -67., 44.,
          -79., -124., 64., -10., 125., 120., 65., 64., 19., -97., 64.,
          76., 114., -102., -64., -52., 82., -111., 64., 28., 40., 7.,
          64., -3., 86., 110., -64., 96., -51., 95., -65., -64., 127.,
          -38., -65., -80., 122., -22., -64., -124., -74., -117., -64.,
          4., -120., -73., -64., -116., -28., 116., -65., 76., -33., 26.,
          -65., 32., -59., -23., 61., 64., 54., -7., 62., -100., -123.,
          -66., 63., 0., 0., 1.45875170e-42, 0., 0., -108., -120., 68.,
          -12., 85., 101., 66., -121., -86., 14., -62., -44., -52., -93.,
          66., -45., 119., -49., -61., 49., -57., -92., -63., -63., -77.,
          -107., 66., 52., 72., 54., -62., -92., 10., 46., -61., 82.,
          -109., 120., 65., 28., 115., 94., -62., 23., 50., 71., 65.,
          -81., -45., -48., -63. ]
      - [ 88., 7., -48., 65., 51., -29., 12., -62., 117., -12., 0., 66.,
          -8., -57., -20., -63., -69., 16., -118., 64., 121., 19., 123.,
          65., 113., -56., -9., 66., -14., 69., 63., 65., 88., -2., -40.,
          -64., -55., 68., -102., -63., 20., -127., -34., -62., -118.,
          116., 0., 66., 91., -96., -21., 65., 110., -77., -122., 65.,
          78., -121., -72., 66., 8., -29., -76., 65., -32., -14., 31.,
          65., -36., 69., -99., -64., 94., 88., -71., -63., -3., -83.,
          119., -63., 15., 125., 1., -64., -70., -72., -19., 63., 36.,
          18., 50., 65., -85., -17., -67., 65., -53., 15., -34., 64.,
          -6., -91., 30., -65., 0., 0., 72., -64., 96., 2., 22., -63.,
          -128., 111., -92., 63., -100., -27., -70., 64., -14., -11.,
          96., 64., 89., -23., -34., 64., 120., 103., -6., 62., 23.,
          126., 66., -64., 16., -64., 88., 63., 80., -128., -50., -66.,
          89., -95., 36., 63., 78., -67., -101., 62., 16., 100., 1.,
          -64., -66., -123., -100., -64., 112., 84., -39., -66., 36.,
          -67., -100., 63., 0., 107., 100., 63., 106., 125., -119., 64.,
          -32., -80., -69., -66., -18., -36., 13., -64., -96., -48., 94.,
          -64., -94., -47., -51., -64., 93., -91., -30., -65., -128.,
          -99., 0., 61., 115., -31., -99., 64., -4., 22., 75., 64., 20.,
          -110., 77., 62., 80., 18., -128., -66., 82., -5., -39., -64.,
          -48., 21., 2., -64., 67., -92., 17., -64., -52., -110., 4.,
          -65., 0., 0., 1.45875170e-42, 0., 0., -54., -116., 68., 44.,
          71., -118., -62., -126., -73., 61., -62., 96., 45., 111., -64.,
          16., -127., -119., -61. ]
      - [ -24., 20., -120., -65., 24., 98., 49., -64., 16., 83., 70.,
          64., -48., 90., 13., -64., -80., -125., -111., 63., 107., -1.,
          -43., 64., 92., -11., 91., -64., 112., 72., -61., -64., 48.,
          -14., -42., -65., 96., -24., 123., -64., -80., -58., -128.,
          64., 0., 1., 126., -64., 112., 93., 35., 64., -100., 8., 93.,
          64., 24., 10., -67., -65., -88., -91., 57., -64., -56., -108.,
          40., -65., 2., 54., 2., -64., -86., 94., -45., 63., 0., 0.,
          1.45875170e-42, 0., -1., -24., 17., 69., 91., 43., 104., -61.,
          0., 122., -110., -67., -40., -33., -125., -65., -24., -109.,
          0., 68., 27., 3., -123., 67., 5., 36., -120., -62., 19., -36.,
          98., 66., -110., 21., 96., 67., 108., 15., -17., 66., -60.,
          52., -65., 66., -114., 57., -35., 65., -33., 83., -31., -61.,
          -46., -25., -4., -62., 100., -126., -44., 66., 123., -91.,
          -65., 65., 11., -21., 12., -62., -84., -73., -105., 64., -60.,
          3., -89., -62., 62., -9., 63., 62., 101., -38., 14., 67., 17.,
          -98., 51., -62., -48., -96., 18., -62., 64., 32., -2., 65.,
          88., -111., -39., -64., 84., -81., -83., 65., 101., 3., 107.,
          66., 112., -79., -116., -63., -2., -17., -126., -62., -80.,
          43., 79., 65., 9., 90., 25., 65., 100., 23., 12., 65., 0., 0.,
          -50., -64., -128., 101., 81., -63., 72., -71., 9., -62., 117.,
          42., 123., 65., 62., -85., 9., 65., -89., -25., -124., -63.,
          126., 23., -110., 64., -12., -47., -92., -65., -86., -125.,
          -109., -64., -32., -73., 31., -65., 40., -76., -97., 64., 76.,
          88., -98., -65. ]
      - [ 120., 48., -28., 63., 96., 101., -86., 64., 68., -101., 47.,
          63., -128., 8., -71., 63., 123., 53., 4., -63., 0., 0.,
          1.45875170e-42, 0., 0., -128., 14., 69., -94., 72., -77., -62.,
          17., 20., -69., 66., -93., -12., 42., 64., -125., 19., 71.,
          67., 73., 7., -37., 65., 49., 84., 7., -63., -19., -13., 17.,
          -63., -5., -122., -95., 67., 56., -70., -90., 65., -111., -20.,
          78., -62., 14., 19., 46., -63., 8., 45., -44., -63., -5., 10.,
          24., -62., 57., -67., 123., -64., 7., 50., 98., -63., 110.,
          115., 73., 67., 74., -86., 57., 66., 2., 7., 5., -62., -74.,
          38., 14., 65., -57., 70., 20., -61., 123., -2., -87., 65., 24.,
          -122., -77., 65., 112., 5., -26., 65., -98., 53., 60., 66.,
          -28., -66., 42., -63., 65., -122., 41., 64., -22., 102., 49.,
          63., 7., 45., 42., 66., -38., 97., -119., 65., -30., -69., 64.,
          65., -120., -107., 35., -63., 0., -128., 0., -62., 84., -95.,
          50., -63., 0., -5., 16., -64., 102., -108., 7., 65., 64.,
          -121., 40., 64., 99., -85., -21., -64., 40., 31., -2., -65.,
          25., 18., 43., -64., 32., -52., 97., -63., 112., -71., 20.,
          -65., 96., 104., -107., 64., 32., -103., -31., -67., 16., -78.,
          123., 64., 0., 50., -19., -66., 4., 18., 93., -64., 56., -63.,
          -11., -65., 72., 105., 81., -63., 112., -120., -122., 63., 0.,
          -15., 97., 63., 0., -33., 105., 63., 16., 97., 16., 63., -14.,
          -1., 59., -64., -98., -38., 19., -64., 91., 38., 52., 64., 32.,
          44., -102., -64., 104., 59., 4., 63. ]
      - [ -25., -27., -24., -62., 110., -24., 116., 64., 50., -71., 64.,
          66., 99., -25., -122., -62., 43., -128., 22., -61., -102.,
          -11., 23., 67., 65., 94., 37., -63., 110., -58., 6., -62.,
          -122., -36., -42., 65., 71., -78., 34., 66., -52., 127., -65.,
          64., 64., 87., -53., 65., 39., -121., -86., -63., -127., 106.,
          -60., 64., -68., 27., 77., 65., 18., 74., 23., 62., 107., 50.,
          -20., -64., 18., -20., 62., 64., -50., -29., -63., -65., 69.,
          117., 48., -63., -78., 98., -48., 64., -78., -124., -65., 64.,
          -30., 30., -65., 64., 82., 115., 53., -63., 123., -46., 3.,
          65., 70., -80., -112., 64., 0., 0., -94., 64., 0., -4., 127.,
          63., 64., -88., -109., -65., -64., -47., -67., -65., 84., 85.,
          -106., 64., -21., -8., -121., -64., -78., 15., -121., 64.,
          -127., 17., 5., -64., 0., -123., 23., 63., 37., -116., 2.,
          -64., -48., -60., 91., 64., -44., -34., 112., -65., -96., 100.,
          17., 63., 45., 33., -57., -67., 104., -71., -126., -66., -112.,
          -102., -16., 61., -14., -65., 16., 63., 96., -27., -23., 62.,
          42., -3., 74., -64., 7., -20., 10., 64., 81., 74., 3., -64.,
          -120., 64., -110., 63., -128., 86., -52., -65., 32., -43.,
          -54., 63., 16., -54., 115., -65., -8., 104., -97., 63., -32.,
          -68., 6., -65., 32., 31., 68., 63., 0., 108., 121., -67., -56.,
          106., 35., 64., 40., -118., -11., -65., -60., -4., 118., -66.,
          0., 0., 1.45875170e-42, 0., 0., -86., 57., 69., -83., 50.,
          -23., -64., 22., -45., -62., 65., -95., 108., -70., 66., 24.,
          -125., -6., -61. ]
      - [ 247., 246., 246., 246., 247., 247., 245., 243., 244., 244.,
          245., 245., 246., 245., 246., 247., 247., 247., 247., 247.,
          248., 247., 244., 243., 204., 201., 201., 201., 202., 202.,
          202., 204., 208., 220., 234., 240., 238., 232., 225., 227.,
          112., 111., 112., 106., 103., 108., 113., 117., 134., 166.,
          201., 213., 193., 161., 147., 165., 100., 119., 124., 100.,
          82., 89., 95., 88., 93., 123., 159., 169., 145., 113., 97.,
          112., 157., 197., 201., 161., 127., 129., 127., 103., 92.,
          116., 150., 156., 134., 113., 106., 113., 179., 231., 225.,
          162., 139., 160., 169., 155., 152., 178., 191., 170., 137.,
          118., 130., 161., 127., 161., 160., 126., 129., 172., 205.,
          208., 210., 224., 224., 195., 151., 131., 155., 197., 103.,
          89., 85., 98., 138., 180., 206., 215., 217., 222., 212., 180.,
          141., 120., 136., 177., 146., 121., 116., 136., 166., 185.,
          192., 198., 204., 199., 173., 136., 107., 94., 101., 124.,
          181., 176., 175., 175., 177., 182., 181., 181., 187., 179.,
          146., 104., 79., 80., 90., 96., 189., 188., 186., 186., 185.,
          184., 183., 183., 184., 168., 133., 105., 98., 102., 104., 99.,
          189., 189., 190., 191., 190., 189., 188., 186., 183., 167.,
          130., 101., 97., 95., 88., 89., 189., 189., 189., 190., 190.,
          189., 187., 185., 183., 172., 144., 105., 79., 74., 84., 106.,
          0., 0., 1.48117248e-42, 0., -1.45046879e-03, 4.56893364e-41,
          4.24232460e-38, 0., 2824., 1.06556381e+02, -1.39170593e+02,
          6.47827148e+01, 4.26456032e+01, -4.93482628e+01,
          4.39908142e+01, -4.87004318e+01, -2.11250000e+01,
          -1.51856174e+01, 7.59427738e+00, -4.08334732e+00,
          3.98345566e+00, -1.10364306e+00, 2.14087391e+00,
          -3.77907693e-01, 4.59451996e+02, -2.17293488e+02,
          1.45990204e+02, 3.39222603e+01, -8.65249863e+01,
          3.48600121e+01, -1.60758324e+01, -1.36710577e+01,
          4.65439892e+00, 4.00900507e+00, -3.89550638e+00,
          9.70308542e-01, 2.10873842e-01, -1.52808845e-01,
          3.59421894e-02, 1.27349660e-01 ]
      - [ 72., 107., 27., -63., 0., 0., 1.45875170e-42, 0., -1., -59.,
          59., 69., 1., -51., 24., 68., -78., 80., -28., -61., -70., 39.,
          45., 67., -62., -37., -12., 65., -125., 10., -88., 65., -1.,
          -84., 42., 66., 121., -77., -118., 66., -105., 60., 69., -61.,
          124., 91., 43., -61., -30., -85., -23., 66., -67., 98., -115.,
          -62., -108., -119., -19., -62., -54., -76., -24., 66., 68.,
          60., 78., 65., -42., -87., -32., -67., -125., 41., -12., -62.,
          -60., -28., -91., -62., 120., 18., -109., 66., -47., 27., -87.,
          -63., -126., 105., 42., -62., 74., -15., -25., 65., -74., -90.,
          -70., 64., 8., -44., -62., -64., 76., -95., -128., -62., 96.,
          108., -59., -63., -92., -61., 27., 66., 97., -108., 68., -64.,
          -115., 104., -113., -63., -94., -88., 68., -65., 92., -56.,
          -100., -65., 121., 101., -128., -65., 0., 0., -59., -63.,
          -128., 10., 13., -64., -96., 58., -80., 65., -96., -98., 58.,
          64., 96., -45., -88., 62., 31., 125., -88., -65., 4., 63.,
          -23., -65., 91., -103., -88., 63., -56., 101., -74., -64.,
          -20., 80., 113., 64., 100., -76., -93., 64., 25., 18., -15.,
          -65., 64., 51., -123., 62., 64., -49., -16., -66., 106., 84.,
          19., 63., -112., -118., -119., -66., 0., 20., -18., 63., 0.,
          123., 120., -64., -104., 39., 36., -64., 88., 1., 20., 63.,
          -96., 53., 48., -64., -24., 114., 44., 64., 96., 32., 35., 63.,
          49., -4., -27., -66., -64., -125., -57., 63., -56., -86., 83.,
          -64., 88., -109., 59., -64., -40., -5., -26., -65., 24., -64.,
          -78., 62., 78., -26., 31., 64. ]
      - [ 0., -79., 62., -64., 8., 83., -117., -65., -128., -93., 59.,
          63., 56., -114., 87., 63., 84., -122., 48., -64., 0., 0.,
          1.45875170e-42, 0., 0., 40., -62., 68., -7., -69., -41., -61.,
          -50., 55., 88., -61., -119., -90., 123., 67., 106., 79., -64.,
          66., 72., -89., -119., -61., 32., 11., -15., -62., 101., 111.,
          22., 67., 72., -94., -121., -62., -40., 95., -81., 66., -88.,
          37., -75., 65., -49., -118., -71., -63., 37., -17., -50., 66.,
          -122., 87., -46., -64., 34., -105., -70., -63., -48., 102.,
          -72., 65., 126., -68., 64., -62., 50., 60., 72., -62., -105.,
          -9., -5., -63., -118., 103., -49., 65., -16., -56., 29., 66.,
          80., 41., -97., 65., -71., 66., -88., 64., 106., 70., -77.,
          63., 37., 72., 4., -63., -78., -32., -113., 63., -53., 89.,
          -32., -66., 114., -107., 103., 64., -95., -47., -57., 64.,
          102., 81., 26., -63., -60., -75., 27., -63., 42., 39., 86.,
          64., 0., 0., -16., -65., 64., -71., 82., 64., 0., 36., -19.,
          62., -64., 72., -93., 63., -97., 14., -101., 64., 109., 39.,
          60., -64., -85., -91., 23., -64., 92., 12., 85., 64., -32.,
          16., 92., -66., -110., 77., -14., 62., -108., 87., 51., 63.,
          -72., 27., 4., 62., 92., 110., 49., -64., -72., -89., -94.,
          63., -68., -70., 63., 63., 96., -30., -26., -65., 32., 89.,
          28., 63., -76., 32., 1., -64., 32., -7., -126., -66., 96.,
          -26., -5., -66., 80., -15., -32., -65., -6., 35., 2., 64.,
          -96., -97., 46., 64., 64., -22., -33., -67., -96., -117., 62.,
          63., 32., -60., 119., 63. ]
      - [ 64., -96., 60., 63., -56., 5., 112., -63., 80., 103., -72.,
          -67., 16., 78., 114., -64., 44., 88., 14., -63., 4., -91.,
          111., 65., -90., -72., 43., -64., -128., 110., -94., -65., -5.,
          55., -70., 62., 0., -94., 2., -65., 112., -64., 39., 64.,
          -112., 84., -55., -65., -9., 0., -112., -64., -48., -92.,
          -114., 64., 0., -108., -97., -65., 72., 12., 9., 63., -56.,
          29., -61., -66., 46., 25., -88., -63., -80., -25., -42., -65.,
          -60., 103., 1., 64., 95., 18., 53., 64., 46., 93., -96., 64.,
          54., -45., 49., 64., 0., 36., 10., -66., 0., 0., -48., -68.,
          20., -70., 47., -63., -32., -20., -121., 63., 84., 36., 106.,
          64., 112., -81., -84., 64., 0., 0., 1.45875170e-42, 0., 0.,
          -26., -29., 68., 92., -65., 88., 68., 3., 76., -125., -61.,
          12., -13., -86., -61., 126., -116., -54., 66., -34., 122.,
          -55., 65., -18., 83., 11., -63., -75., -27., -97., -63., -108.,
          -15., -41., 67., 39., -116., -91., 67., -52., -36., 114., 66.,
          -60., -112., 80., -62., 1., -114., -92., -63., 16., -35., -30.,
          65., 39., 40., -112., -64., 24., -15., -51., 65., -69., -10.,
          -30., -62., 56., 85., 54., -61., -36., 7., 63., 65., -109.,
          88., 105., -63., 14., 119., -120., -64., -98., -99., -111.,
          65., 112., 23., -50., -63., -60., 48., 91., 65., 116., 49.,
          -19., -64., -26., 21., 3., -62., 35., -22., 27., 66., -82.,
          127., -76., -63., 42., -62., 80., -64., 37., 7., 67., -63.,
          -128., -57., -100., -66., -128., 97., -3., -66., 0., -64., 28.,
          66., -16., -91., -32., 65. ]
      - [ -41., 25., 33., -64., 12., -71., 52., 64., -116., -105., 105.,
          64., -113., 56., 107., -63., -24., 53., 26., 64., 88., -103.,
          110., -65., 73., -47., 105., 64., 98., -91., -114., -64., -64.,
          -2., 43., -67., 2., -122., -3., 63., -118., 32., -99., -65.,
          0., 0., 24., 65., -112., -40., 29., 63., 107., 38., 5., 64.,
          85., -34., 0., -64., -77., 34., -107., -64., -2., 106., 82.,
          -64., 97., -95., 64., 64., -52., -31., 23., -66., -34., -76.,
          -109., -64., 81., -92., -41., -64., 7., 94., -115., 64., -14.,
          -119., 57., -65., 0., 54., -68., 62., -80., 2., -100., 61.,
          120., 66., 82., 62., 16., -71., 41., -65., 96., 45., 67., 63.,
          -44., -16., -103., 64., -13., 107., 18., -64., 85., -7., 54.,
          63., -128., 56., -10., 64., -40., -124., 7., 64., -20., -30.,
          -67., -65., -20., 66., -11., -66., 0., -32., -5., 61., 96.,
          123., 33., -66., -45., -119., 20., -65., 32., 21., 11., 63.,
          -51., -113., 5., -63., 32., -21., 47., 60., 11., 60., 63.,
          -66., 34., 90., 72., 63., 0., 0., 1.45875170e-42, 0., 0., 49.,
          52., 69., 71., -88., 38., 68., 110., 94., 90., -61., -20.,
          -20., -4., -62., -63., -68., 71., -60., -126., 89., -108., 66.,
          -120., -123., 13., 67., -21., 120., -106., -61., 93., 112.,
          70., -62., -90., 1., -64., -61., 23., 16., 30., 67., -30.,
          -102., -36., -63., 121., -63., 64., -62., -114., -10., -77.,
          -62., 104., -110., 125., -62., 117., 53., -85., 66., -80., 21.,
          -57., -62., -61., 60., -64., 66., 45., -39., -35., -62., 14.,
          93., -80., 66. ]
      - [ 0., 0., 1.45875170e-42, 0., -1., 13., -98., 68., 97., -31.,
          -52., -62., -75., 27., 127., 65., 24., 38., 125., -63., 57.,
          17., -15., -61., 42., -29., -36., -63., 103., 124., -51., -63.,
          116., 65., 113., -64., -46., -52., 80., -61., 3., 46., -84.,
          66., -117., 32., -105., 66., 120., 78., -103., 66., 6., 65.,
          -112., -62., 127., -69., 83., 66., -59., 62., 17., -61., -111.,
          122., 86., -62., -25., -12., 98., -62., 116., -90., 48., 66.,
          -95., -18., 99., 66., -46., -98., 41., -62., 52., -112., 76.,
          67., -107., -47., -122., -62., -14., -16., -62., 66., -80.,
          12., 96., -63., -93., 80., -60., 65., 50., 12., 106., -62.,
          96., 124., -71., -62., 124., -71., 114., 66., -90., 9., -37.,
          65., -58., 6., 32., 65., -16., -44., -23., 65., 27., 15., -34.,
          65., 0., 96., -39., -62., 6., 49., -23., 65., 35., -42., -121.,
          -63., 64., 27., 74., -62., 88., 35., 108., 65., 74., -59.,
          -125., 65., 26., 18., 87., 65., -48., 120., 67., 65., -64.,
          -64., -88., 62., -84., -2., -105., -64., 24., 19., 56., -63.,
          64., 121., -96., -65., -80., 41., -34., 64., -128., -40., 56.,
          -65., -60., -83., 35., 65., -36., 4., -115., 63., 84., 12.,
          -56., 64., -56., -115., 91., -64., -88., -20., 107., -64., 40.,
          -57., -54., -65., -128., -14., 110., -66., -84., -117., 99.,
          -64., 0., -73., 70., 63., 56., -116., -102., 63., 0., 0., 19.,
          -70., -16., -125., -76., -65., 68., -8., 5., 64., 0., -85.,
          -22., 61., 0., -127., -97., -65., 80., 111., 63., -65., -126.,
          104., 72., -65. ]
      - [ 24., -107., -54., -65., 48., 49., 18., 66., -64., 85., -39.,
          62., 87., -44., 96., 64., -100., 122., 4., -63., 32., 37.,
          -50., 65., 87., 3., 28., -63., -14., 7., -72., -64., 76., 73.,
          112., 64., 96., 22., -89., 64., 82., 48., 65., 65., 22., 78.,
          -127., -64., 114., -41., -119., -65., 0., 0., 1.45875170e-42,
          0., 0., 64., 8., 69., 126., -3., 114., -62., 81., 114., -79.,
          67., 72., -63., -84., -62., -4., 32., 2., 66., -127., 111.,
          42., -62., -87., -88., 69., -62., -95., 98., 97., 65., 2.,
          -102., -100., 66., 100., 46., -50., 66., 113., -59., 29., -62.,
          -15., 104., 15., -62., -40., 85., 41., 66., -80., 60., -73.,
          -62., -74., 101., 25., -62., -21., 17., -90., 66., 48., -12.,
          -78., 66., 77., 37., 1., 66., 36., 31., -28., -62., 88., 81.,
          -18., 65., -55., -110., -81., 65., 67., -75., 95., 66., -18.,
          124., -115., 65., -84., 79., 75., -63., -111., 98., 97., 67.,
          119., 25., -110., -62., 66., 5., -31., 65., -50., -84., 44.,
          -63., 64., 79., -114., 65., 50., -23., 14., 66., -22., -74.,
          -96., -63., 76., -64., -117., -63., 0., -128., 122., 66., -76.,
          -18., 80., 65., 8., -58., -79., -63., 116., -75., 50., 65.,
          -112., 98., 42., 65., 110., -11., -124., -64., 39., -71., -56.,
          64., -52., 15., -52., -65., 84., -101., -19., 65., 112., -2.,
          9., 65., 24., 6., 96., -63., -29., 85., 105., 65., -99., -112.,
          -114., 65., 0., -95., 70., 64., -112., -38., -16., -65., -37.,
          76., 43., -64., 87., 9., -20., 65., 62., 23., -79., -64. ]
      - [ 16., -74., 0., 63., -32., 72., -92., -66., 0., 0.,
          1.45875170e-42, 0., -1., 110., 10., 69., 121., -18., 60., -61.,
          42., 70., -88., -62., -109., -123., -21., -64., 88., -70., 90.,
          -61., -66., -92., -47., -61., -52., 34., 4., 66., -3., -116.,
          -57., 67., 68., -53., -33., -61., 30., 116., 93., -61., -50.,
          102., 87., 65., -15., 87., 34., 67., -100., 116., -21., -62.,
          -98., -26., 118., 67., -59., -77., -108., 66., -21., 120., 70.,
          -61., -110., -43., 104., -61., -92., 110., -15., 66., 102.,
          -90., 57., -62., -22., 16., -28., -62., -29., -25., -72., 66.,
          96., 31., -110., 64., 54., -54., -124., 66., -88., 45., 108.,
          -61., -66., -38., 34., -61., 120., -126., -98., -62., -50.,
          48., -36., -62., 6., -28., 72., 66., -56., -60., -66., -62.,
          -96., 35., -102., 66., -90., 44., 98., -62., 60., -65., -46.,
          63., 0., -112., 59., -61., 104., 16., -117., 66., -30., -94.,
          -106., 66., 12., 18., 44., -62., 17., -104., -98., 66., -45.,
          78., -20., 65., 26., 124., -46., 65., 78., 98., -55., 64., 42.,
          -79., 80., -62., -81., -121., -99., 66., -10., 105., -58., 65.,
          -78., -77., 19., 65., -56., -4., -60., 65., -120., -31., 33.,
          66., -16., -73., -99., -63., 104., 5., 124., 65., -22., 22.,
          -80., -63., -115., -7., -109., 65., -92., 69., 108., 64.,
          -128., -99., -36., 63., 48., -38., 94., 64., -96., -22., 72.,
          64., 34., -82., 95., -63., 64., -29., -47., 64., -110., 51.,
          -55., -63., -48., 83., 81., 65., -83., 97., -118., 63., -104.,
          89., 109., -64., -112., 53., -128., 63. ]
      - [ -48., 100., 48., 65., 0., 85., 95., -64., 0., -28., -112., 62.,
          96., -64., -85., 62., 108., -104., 3., 65., 112., -6., -128.,
          -65., 40., 84., -99., -65., -80., 48., -37., 62., 0., 0.,
          1.45875170e-42, 0., 0., 36., 103., 68., -115., 118., -49., 66.,
          94., -25., 56., 67., -108., -112., -8., -63., -55., -36., 74.,
          -61., -51., 77., -36., 66., -74., -47., -8., -62., -67., 12.,
          91., 66., -75., 45., -98., -61., 116., 9., 79., -61., 87.,
          -40., -49., -63., 3., 33., 121., -63., 61., 74., 89., -62.,
          126., -121., 124., -62., 32., 101., -43., 65., 35., 97., 7.,
          -62., 122., -10., -31., 66., -30., 32., 16., 66., 7., 24., 21.,
          -62., -52., -128., -36., -63., -51., 88., -112., 66., -123.,
          -22., 40., 66., -49., -113., 106., 65., 55., -44., 108., 66.,
          52., 79., -84., 65., -61., 62., 28., 66., 116., 2., -56., 65.,
          -106., 84., 29., 64., -57., -107., 103., -63., -43., -123.,
          21., 65., 77., -42., -41., 64., -126., -32., -69., -63., 0.,
          64., 45., -62., -51., -69., 21., -62., -64., -119., 24., -63.,
          -128., 54., -58., 64., -75., 41., 55., -63., 68., 90., -123.,
          -63., 30., 64., 11., -63., -76., 69., 7., 64., 40., -90., 80.,
          65., -124., 116., -22., 64., -92., -128., 71., -64., 17., -66.,
          -78., -64., -16., 44., 35., 64., -112., -7., -20., 63., -12.,
          34., -10., 63., 96., 114., 7., 64., -128., -53., -42., 64.,
          116., 53., -126., 64., -116., 96., 106., 64., -84., -18., 122.,
          64., -128., -19., 126., 63., -128., 29., 16., 63., -96., 57.,
          -41., -65. ]
      - [ -96., -48., -100., 63., -96., 86., 40., 64., 71., -49., 110.,
          -64., -65., 35., -128., 64., 70., 11., -42., 63., -89., -30.,
          47., 63., -92., 104., -60., 64., -20., 79., -101., -65., -88.,
          106., 102., 63., 97., 103., 43., -64., -128., -44., 117., 63.,
          72., -60., -74., -66., 96., 54., 68., 62., 64., 65., 53., 62.,
          -48., 27., 124., -64., -64., -25., 88., -66., 36., -49., 27.,
          -64., -16., -121., 1., 64., -22., 56., 18., 64., -60., 24.,
          -86., -65., 80., 2., 127., -64., -16., 20., 26., -65., -24.,
          -16., 85., 64., -128., -65., 82., 63., -40., -23., 45., -64.,
          54., 116., 101., -64., -24., 37., 56., 64., 112., 86., 2.,
          -64., -72., 109., -100., 63., -52., 97., -31., -65., 0., 0.,
          1.45875170e-42, 0., 0., -24., -2., 68., -13., -105., 46., -62.,
          94., 106., 108., 67., 102., -34., 27., -61., -118., 69., 76.,
          -60., 57., -69., 13., 66., 70., 4., -71., -62., 75., 116., 68.,
          -63., -126., -125., 11., -60., 126., 61., 47., 66., -69., -99.,
          98., -62., 100., 75., 26., 67., -95., -29., -62., -61., -46.,
          -125., 18., -63., 75., 20., -33., 65., -28., 65., -91., 66.,
          -23., 68., 28., 67., -13., -88., 6., -62., -108., -112., 38.,
          -61., 116., -49., -53., -62., 56., 14., -57., 66., 21., 87.,
          -74., -63., -71., 75., -33., 66., -125., 47., -63., -62., 111.,
          97., -15., 66., 57., 19., -77., 66., 60., -5., -115., 66., -5.,
          -6., -29., 66., 68., 1., 112., 67., 46., 95., -80., -63., -70.,
          57., -128., -62., -70., -38., -60., -63., 0., 96., 60., -61. ]
      - [ -64., -96., 42., 63., -32., -84., -74., 64., -60., 107., -124.,
          -65., 64., 95., -73., -66., 48., -38., 55., -64., -64., -50.,
          6., -64., -68., -84., -105., -64., -32., -87., 49., 64., -6.,
          -84., -79., 64., 84., -36., -126., -64., -100., 100., 10., 63.,
          -64., -62., 84., -65., -112., -121., -95., -64., -116., 117.,
          -54., -64., -128., -37., 94., -66., -128., -86., 7., 61., 108.,
          -67., 106., 64., -24., 24., 1., -64., 60., 102., 33., 63., 0.,
          -73., 70., 61., 65., -71., 40., -64., 0., 0., 1.45875170e-42,
          0., 0., -77., 20., 69., 99., 103., -71., -63., -43., -100.,
          52., -61., -126., -108., -92., 66., -86., -30., 75., 67.,
          -117., -123., -51., 67., 17., 115., -85., -62., 77., 104.,
          -45., 64., -27., -123., -37., 66., -13., -14., 74., 66., -88.,
          -106., -61., 63., -40., -16., 10., 66., -66., -4., -95., -61.,
          105., 3., 120., -61., 27., -26., -117., 64., -85., 35., -104.,
          -65., -19., -105., -59., -63., -35., 48., 94., 66., -42., 40.,
          116., 65., 7., -40., 83., -62., -90., 27., -6., 66., -46., 42.,
          65., 66., 25., 117., -106., -62., 7., -29., 92., -63., 34.,
          -86., 58., -63., -32., -79., 31., -62., -8., 58., -88., 65.,
          -73., -92., 36., 66., -34., -109., 83., -62., -97., 72., -54.,
          -63., 120., 71., -62., 65., -24., 38., 106., -63., 0., 0.,
          -58., -64., -78., 47., -38., 65., 20., -6., -121., -63., -8.,
          -3., -61., -63., 66., 49., 81., 65., 26., 96., -31., -64., 81.,
          -93., 44., -63., 23., -65., -16., 64., -47., -117., 23., -64.,
          -96., -45., -35., -64. ]
      - [ -80., 99., -70., 65., -6., 115., -101., 66., -10., -28., -80.,
          65., -54., -24., -74., 64., -113., -27., 109., -62., 0., 64.,
          -89., -62., 76., 40., 15., -62., -53., 53., 4., -62., -94.,
          92., -68., 65., 16., 9., -110., 64., -84., 93., -106., 64.,
          44., -42., -99., 65., 82., -4., 2., 65., 64., -13., 0., -65.,
          0., 84., -114., 63., -118., 90., 42., -63., 106., 123., -48.,
          64., 112., 13., -57., 64., 76., 9., -14., 63., 96., 54., -98.,
          -66., -117., -39., -78., -64., -124., 15., 102., -64., 96.,
          -77., 115., 64., 80., 125., 3., -65., -96., 52., 77., 63., 16.,
          69., 5., -64., 0., -23., 29., 64., -80., 91., 8., 64., 0.,
          121., -72., -66., 32., -95., 56., -64., -64., 73., -24., 61.,
          -52., 107., -35., -65., -32., 29., -95., 62., 80., -14., 4.,
          -64., 64., -36., 126., 63., -80., -16., -115., 63., 108., 31.,
          -117., 63., 0., 0., 1.45875170e-42, 0., -1., 49., -4., 68.,
          88., -20., -124., 66., -36., 103., -43., 66., -122., -56.,
          -122., -64., -107., 93., 16., 66., -59., -76., -107., 65.,
          -95., 30., 54., 66., -43., -36., 105., 66., 39., -96., 93.,
          66., 127., -32., 63., -62., -109., -45., -61., -62., -90., 13.,
          53., -62., 61., 8., 27., 67., -112., 126., 81., 66., 124., 38.,
          -42., -62., 114., 113., -120., -65., 43., 56., 25., 67., -24.,
          -100., 10., -61., -110., -56., 61., -62., 73., -111., -90.,
          65., 43., -36., 1., -61., -65., 4., -114., 65., 102., 87.,
          -29., 66., -60., 101., 20., -62., 99., 109., 64., -62., -91.,
          116., -126., 65. ]
      - [ 0., 0., 1.45875170e-42, 0., 0., 69., 63., 69., 28., 50., -41.,
          -62., 77., 36., -6., -62., 75., 70., 120., 67., 45., 109.,
          -35., 67., 119., 17., 60., 67., -83., -21., 51., -61., -26.,
          78., -65., -63., -49., -2., -127., 66., 94., 91., -123., -62.,
          105., -53., 56., 67., 54., 31., 11., -61., 113., 94., 94., 67.,
          61., 75., -60., -62., -106., 42., 42., 67., 119., 102., -82.,
          -63., -35., -15., 24., 65., -121., -38., 7., 67., 70., 95.,
          111., -62., -62., -29., 109., -62., -31., 65., 123., -61., 17.,
          25., -28., -62., -74., 70., 5., 65., 57., 70., 31., 66., 30.,
          57., -56., 66., -3., 21., -125., 64., -104., -12., -114., -63.,
          67., 20., -47., 65., 42., -81., -110., -62., -118., -10., -60.,
          -63., 35., -115., -82., 64., 116., 61., -117., 65., 0., -128.,
          -118., 65., 48., -99., 59., 65., -86., 17., -23., -63., -112.,
          -124., 8., -63., -108., -101., 4., 66., 46., 7., -120., 66.,
          -112., 26., 77., 65., -16., 52., -33., -65., 10., -10., -127.,
          -63., 2., 16., 126., 65., -4., 120., 28., 64., 120., -104.,
          100., -64., 0., 51., -87., -65., 11., 79., -94., -63., 70.,
          -117., 47., -63., 20., 124., 36., 65., -56., 45., -56., 64.,
          -94., 56., -74., -63., 114., -66., 53., 65., -56., 105., 87.,
          -64., -128., -16., -69., 62., -116., -119., -109., -64., 80.,
          8., 3., -63., -32., -81., 0., 62., -26., -89., -128., -64.,
          -2., 79., -34., 64., -16., -72., 110., -64., -100., -66.,
          -121., 64., -96., 8., -100., -65., 60., -114., 66., 65., -80.,
          110., -29., -65. ]
      - [ 32., 121., 124., -64., 18., -120., -18., 64., -88., -122., 56.,
          63., -125., 97., 123., 65., 0., -24., 56., 62., 0., -115., 97.,
          -64., 0., -12., 34., 63., 52., 56., 59., -63., -88., -74.,
          -104., -65., -128., 21., -119., 64., -12., 105., 103., -63.,
          -100., -94., -77., 65., -40., 38., 45., -64., 40., -15., 18.,
          -64., 80., 46., -70., 64., 85., -54., 49., -63., 55., 13.,
          -76., 64., -112., -84., -127., -65., -80., 93., -82., -65.,
          -28., -18., -56., 64., -128., -21., 45., -66., 52., 16., 74.,
          64., -54., 12., 50., 64., 114., 60., 114., -64., -7., -59.,
          62., 64., 107., -49., 21., -64., 0., 0., 1.45875170e-42, 0.,
          -1., 9., -1., 68., -98., -53., -102., 65., -57., 21., 44.,
          -62., 17., 52., 13., -63., -117., 46., -108., -61., -47., 23.,
          -3., 63., 30., 37., 110., -64., -85., 33., 110., -63., -124.,
          -50., 51., 66., -80., 44., 10., 66., -53., -104., 57., 66.,
          41., 44., 79., 66., 65., 31., -79., 67., -83., -39., 78., -62.,
          5., 52., 53., 66., 26., -22., 111., 66., 49., -24., 58., -61.,
          23., -21., -8., 63., -54., -28., 54., -63., -24., 15., 49.,
          -63., 27., -52., 58., 67., -5., 104., -6., 65., -126., -19.,
          16., 65., -48., -70., -80., -63., -43., -60., -126., -63., 76.,
          61., 24., -65., 38., 38., 56., 65., -81., -101., 114., 65.,
          80., 94., 93., 65., 22., -71., 18., 64., -60., -62., 17., 65.,
          -16., 4., -104., 65., 0., -128., -53., 65., -24., -13., -36.,
          -65., 40., 39., 50., -63., -38., 109., -72., 63., -4., -23.,
          47., 65. ]
      - [ 0., -119., 78., -64., -80., -83., -91., 65., 8., -87., -32.,
          -64., 64., -63., 49., 64., 90., -3., -36., -64., 110., -55.,
          44., -63., 39., -27., -49., 64., 112., -70., -42., -64., 15.,
          -33., 57., 65., -96., -108., 20., 64., 0., 89., -5., -65., -8.,
          -81., 73., -64., 122., 92., -118., 64., -124., -28., 64., 64.,
          -64., -48., 127., -64., -11., -63., 36., -63., -46., 24., -74.,
          64., 64., -15., 16., 63., -96., 53., 10., -64., -120., 21.,
          -19., -64., 96., 75., 69., 63., -104., 76., -23., 63., 121.,
          121., -116., -64., -128., -59., 124., -64., -36., -2., -80.,
          63., -32., -79., 37., 62., 14., -21., -114., -65., 0., 0.,
          1.45875170e-42, 0., -1., 89., 42., 69., -2., 110., 36., -60.,
          -79., -69., 111., 67., 31., -92., -82., 67., 57., -128., -42.,
          -62., -126., 1., -97., -62., -77., -14., -125., 66., 119., 88.,
          90., 65., 6., -10., -50., 66., -16., -124., -99., 65., -68.,
          0., -75., -61., 13., 18., 119., -61., 22., -106., -29., -62.,
          -110., -96., -71., -62., -67., -15., 17., -61., -16., -13.,
          47., -63., 6., -94., 27., 67., 58., 52., -104., 67., 114., -2.,
          -48., 66., 60., 97., -122., -62., -72., 118., -15., 66., 74.,
          -6., 49., -62., -28., 56., 5., -62., 80., 113., -96., -63.,
          108., 8., 19., -62., 105., -89., 5., 67., 68., -18., -108.,
          66., 12., 94., 28., 66., 65., -27., 40., 67., 53., -44., -16.,
          66., -69., 42., 44., 66., -90., 29., 86., 65., 0., 64., -26.,
          -62., -112., -120., 106., -62., -128., 38., 113., 65., 48.,
          -26., -59., 65. ]
      - [ 73., 119., -28., -64., 102., 15., 89., -65., 50., 4., 95., 64.,
          60., -32., 12., 65., 72., -107., -58., 63., 44., 7., -113.,
          -64., 0., 104., 30., 60., 20., 24., -57., 63., -20., 125.,
          -92., 63., 68., -109., 122., -66., 112., 121., 115., -66.,
          -24., 100., -17., -64., -128., -108., 84., -65., -76., -41.,
          44., 64., -64., -18., -78., -67., -43., -112., -11., 64., -80.,
          -51., -96., 63., 80., 34., 58., 63., 72., 11., -90., -65., 96.,
          -112., -104., -64., -128., -43., -55., -65., 27., -87., -79.,
          -65., 88., 62., 69., 63., 64., -116., -103., 64., -80., -33.,
          2., 64., 0., -16., 117., 62., -96., 50., -11., 62., 0., 0.,
          1.45875170e-42, 0., 0., -94., -34., 68., 86., 65., 33., -61.,
          38., 11., -68., 66., 126., -64., 48., 65., -91., 73., -14.,
          -61., 35., -120., 114., -61., 123., 36., 12., -61., 4., 80.,
          -78., 63., 75., -123., -60., 67., 32., -122., -8., 66., -56.,
          32., -120., -62., 75., -103., -18., 64., 80., 59., 110., -61.,
          29., -117., 46., 66., -17., 79., 75., 66., 38., -9., 58., -62.,
          64., 119., -111., 66., -40., -107., -33., 65., 101., -40., 67.,
          -62., 68., 56., -46., -63., 19., -81., 55., 65., -49., 127.,
          77., -63., 75., 12., -80., 66., -47., -40., 49., -63., 88.,
          -73., 102., -63., -86., -96., 80., -62., 95., 121., 9., -62.,
          -62., 9., 53., 66., -14., 55., -86., -63., 113., 38., -121.,
          66., 65., -122., 47., -63., -99., -83., -119., -63., 32.,
          -128., -5., 65., 28., 27., 26., -62., -104., 82., 25., 66.,
          -48., 71., -84., 62. ]
      - [ 15., -37., -35., 65., -16., 15., -101., 66., -2., -56., -46.,
          65., 111., 50., 59., 67., -25., -68., -30., 66., 59., -115.,
          -96., 63., 50., 96., 18., -61., -19., -89., 32., -61., 97.,
          52., -57., -62., 6., 66., -67., 66., -80., -120., -60., 66.,
          78., 15., 51., 67., 75., 120., 17., -61., -82., -16., 50., 66.,
          63., -112., -109., 66., -124., -44., 4., -61., -6., -107.,
          -74., 66., 51., -72., 69., -63., -103., 85., -104., 65., 0.,
          -128., 82., -62., 36., 60., 29., 65., 92., -2., -49., -63.,
          -50., -45., -6., -63., 92., 48., -73., 65., 8., 46., 39., 65.,
          -76., 93., 5., 66., -72., -111., -96., -62., -48., 5., 1., 65.,
          -120., 113., -54., 65., -76., -111., 4., -63., -4., 15., -90.,
          -63., 40., -6., -114., 65., 62., -50., 106., -63., -24., 75.,
          45., -63., -104., 60., -45., 65., 96., -29., 51., -63., 4.,
          98., 15., -63., 8., 114., -64., -64., -60., 37., 115., 65.,
          -64., -68., 58., -65., 54., 34., 113., -64., 126., -95., 40.,
          -63., -64., 33., 38., 65., 24., -96., 115., -63., -58., -62.,
          -124., 65., 22., -57., -84., 63., 104., -54., 63., 64., 64.,
          -72., 46., -64., 23., 118., -87., -65., -32., -114., 58., -65.,
          -96., -19., 68., -63., 0., 0., 1.45875170e-42, 0., 0., -78.,
          -9., 68., 6., 124., 7., 66., -80., 89., 80., -60., -69., 44.,
          43., 66., -104., -80., -46., 65., 12., -107., -18., -62., -76.,
          -115., -65., 66., -56., 66., 35., 67., 127., -40., -89., 67.,
          27., -97., -78., -63., 60., -11., 39., -62., -17., -122., 106.,
          66. ]
      - [ 59., -81., 0., 66., -85., -65., -123., -64., 98., -50., 28.,
          -62., 99., 77., -37., -64., -46., -59., -91., -63., -122., 40.,
          -111., -63., -9., -52., 59., -63., 4., 44., -34., 63., 67.,
          -42., 106., 67., -53., -36., -78., -62., 2., -14., 94., 66.,
          18., -56., 22., 66., -18., -120., -47., 64., -90., 53., -49.,
          -63., -72., -90., 103., -64., -65., -94., -107., -63., 0., 64.,
          39., 66., 112., -102., 69., -63., 96., -123., -67., -64., 0.,
          101., -91., -63., -23., 49., -66., 64., -117., -114., 74., 65.,
          106., -18., 56., 64., -90., 13., 74., -63., -32., -91., -23.,
          65., -100., 15., 45., -63., -90., 121., 44., -63., -96., 29.,
          60., -64., -128., -91., 0., 65., 84., -128., 106., -63., -92.,
          -90., 121., 64., -111., 54., -104., 63., 82., 49., -83., 65.,
          8., -86., 97., -63., 126., 48., -92., -64., -92., 11., -97.,
          63., 17., 99., 15., 64., -6., -82., 6., -63., 96., -126., -77.,
          -66., 18., -19., 39., 64., 4., 45., -100., -64., 64., 49.,
          -75., 62., 12., -77., 24., -64., -108., -53., -123., 63., 64.,
          80., 71., -63., -12., 78., -95., 63., -128., -73., 0., -64.,
          55., -60., -24., -65., 0., 0., 1.45875170e-42, 0., 0., -30.,
          -113., 68., 116., 40., -78., 66., 104., -93., 43., -63., -50.,
          97., 32., -63., -114., -12., 48., 67., 11., 30., -10., 65.,
          -15., -10., -64., -63., -113., 127., -47., -63., -97., 35., 6.,
          -60., -95., -93., 7., -61., -21., -71., -101., -63., 114., 23.,
          13., -62., 12., -6., 44., -64., -77., -118., -50., -63., 102.,
          -28., 92., 66. ]
      - [ -48., 88., -64., 62., -75., -100., 66., 64., 0., 108., -80.,
          -65., 24., -64., -42., -65., 0., 15., -9., -65., -90., -39.,
          8., -65., -96., -3., -95., 64., 120., -73., 127., 64., -84.,
          108., 118., -65., 66., -22., -46., -65., -112., 113., -76.,
          64., -76., -105., -96., 64., 64., 43., 112., -65., 84., 39.,
          -61., -66., -24., 59., -89., 64., -72., -74., 81., 64., -128.,
          -38., 95., 62., -128., -47., 0., 61., 0., 0., 1.45875170e-42,
          0., 0., -86., -81., 68., -44., -83., 81., 66., 10., -28., 68.,
          -61., 36., 113., -106., 66., 43., 86., 66., -61., -117., 16.,
          -104., 66., -64., -108., -101., -62., -28., -114., 79., 66.,
          38., -92., 75., -63., 79., -74., 25., 66., 39., 20., 43., 66.,
          -22., 80., 75., -62., 21., -80., 76., -61., 12., 0., 115.,
          -62., 47., -79., -78., -62., 99., 47., -51., -62., 123., -63.,
          25., -61., 73., 37., -19., 65., -81., -113., -101., 66., 12.,
          82., -7., -63., -108., 47., -4., 66., 113., 74., -92., -65.,
          106., -114., -91., 66., -18., 53., -13., 65., -122., 8., 93.,
          -61., 117., -109., 44., -62., -44., 16., -100., 66., 32., 116.,
          23., 66., -54., -27., -120., -63., -108., 86., 110., -62.,
          -46., -12., 57., 66., -25., 45., 33., 65., 0., -112., 27.,
          -61., 23., 118., 26., -62., 0., 86., 7., 63., 0., 50., 20.,
          -63., -102., 46., -122., 65., 100., 57., -62., -64., 102., 91.,
          -126., 65., -55., 55., 51., -64., -16., -99., -101., -64.,
          -64., 94., -35., 62., -40., -33., 90., -63., 80., -109., -14.,
          -65., -4., 81., -127., 65. ]
      - [ 48., -78., -117., 66., 93., 120., -83., 64., 102., 61., 69.,
          66., -121., -63., -78., -62., 127., 29., -3., -65., -67., -24.,
          -123., 66., -47., -19., 83., -63., 82., -88., 37., 66., -117.,
          -105., -30., 65., -78., -7., -50., 63., 52., -70., -68., 64.,
          0., -128., -115., -62., 0., 95., -112., -63., 116., -103.,
          -16., 65., 4., 90., -98., -64., -108., -102., -101., 65., 8.,
          -87., -75., 64., 89., 14., -75., -64., -115., -88., 18., 65.,
          -40., 22., 62., -63., -32., -109., -38., 60., 40., 31., -4.,
          64., 12., 55., -90., -64., 0., 88., 3., 63., 32., -96., 89.,
          64., -18., 43., 26., -64., 0., -6., -77., -67., 96., -16., 25.,
          -65., -71., -100., 24., -63., 113., -7., -89., -64., -24.,
          107., 15., 64., 68., 63., -17., -64., 32., 36., -7., 63., 42.,
          109., 36., 64., -64., -106., 58., -66., -128., -44., 71., -66.,
          -26., -102., -80., -64., -104., -75., 106., -64., 46., 56.,
          -62., 63., -100., -86., -128., -64., 64., 101., -52., 62., 26.,
          114., -26., 63., 88., -128., 15., 63., 0., 0., 1.45875170e-42,
          0., 0., 94., -42., 68., -102., -61., 14., 67., 119., 14., -41.,
          66., 73., -93., 3., 67., 60., 33., -80., -62., 93., 39., -111.,
          66., 68., 13., -118., 65., 7., -79., -128., 66., 13., -59.,
          -55., 66., -12., 82., -47., -63., -60., 101., -119., 65., -57.,
          -128., -67., -62., -12., -127., 22., -61., 61., -97., -50.,
          66., 90., -15., 86., 65., 4., -77., 68., -62., -98., 127.,
          127., 67., 86., 95., -82., 66., -120., 68., -53., -62., 25.,
          18., 52., -62. ]
      - [ 118., -10., 89., -64., -112., 90., -118., 64., -96., -44., 81.,
          62., 16., 102., -54., -66., 64., 62., 86., 63., -74., -40.,
          -106., -63., -84., -23., 39., 65., -38., -109., 32., 65., 60.,
          32., 4., 64., -80., -94., 42., 65., -104., -113., 114., -64.,
          112., -35., -80., 63., 96., -101., -77., -65., -90., 42., -4.,
          -64., 48., -65., 109., 64., 120., 20., -68., 63., -76., 103.,
          -98., -65., 0., 0., 1.45875170e-42, 0., -1., -72., 38., 69.,
          117., 28., -89., -64., 37., 43., 94., -62., -22., 105., -128.,
          66., -124., -8., -47., 66., -110., 59., 59., 65., 117., 69.,
          -94., 65., -85., -12., -64., -63., -117., 63., 73., 68., 83.,
          -89., 29., 65., -61., -17., -88., 66., 5., -24., -110., -62.,
          7., -90., 12., 66., 116., 122., -25., -63., -6., -5., 45.,
          -62., -123., 116., 9., 66., -105., 122., -100., -61., 77.,
          -102., -117., -63., -80., -113., 101., -62., -90., 25., -38.,
          65., 92., -35., -35., -63., 106., 62., 107., 65., -74., 40.,
          -66., 65., -46., 81., -121., -63., 105., -24., -49., -63., 44.,
          19., -13., 64., 46., -56., -115., 65., -31., -59., -122., -64.,
          -114., -119., -95., -63., -120., 6., 8., -63., 117., -112.,
          52., -64., -22., -48., 70., 64., 0., -64., 51., 66., 72., -19.,
          34., -65., -112., -37., -88., -65., -64., -117., -119., 63.,
          30., -10., 53., -63., 75., -35., -5., 64., -8., -109., -118.,
          -64., 7., -25., -99., 64., -98., -24., -57., -63., 74., 23.,
          15., 64., 114., 94., 42., 64., 108., 116., -30., -64., -119.,
          42., -87., -64., 16., -24., -67., -65. ]
      - [ -20., 112., -77., 65., 16., -64., -113., -65., 0., 64., 9.,
          66., -104., -79., 26., -63., 100., 50., 2., -62., 64., 59.,
          -54., 65., -7., -70., 64., -63., -36., -56., -122., 64., -31.,
          -28., -117., 65., 110., 117., 95., -63., -53., 100., -81., 65.,
          -90., -102., 53., -63., -86., -1., -100., -63., -16., -124.,
          -128., 65., 0., 85., -118., -63., -68., -56., -108., 64., -89.,
          -66., -109., 64., -34., 57., -1., -65., -48., 97., -103., 64.,
          -92., -103., 39., -64., 68., -57., 40., -63., 32., 78., 28.,
          65., 80., 104., 5., -64., -118., 27., -75., -64., -128., 29.,
          -103., -65., -96., -1., 8., -65., -128., 111., 95., -65., 39.,
          -17., -27., -64., 30., -26., -120., -64., 81., -57., 114., 64.,
          -14., 40., -55., -64., -112., 34., -73., -66., 16., -114.,
          -88., -64., -48., 58., -68., 63., 0., 0., 1.45875170e-42, 0.,
          0., -48., -126., 68., 101., -83., 111., 66., 63., -89., -52.,
          -62., -46., -109., 61., 67., -112., 3., 59., 67., 28., 36.,
          -85., -62., -120., -48., -119., -63., -30., 102., 57., 66.,
          63., 63., 23., -60., 96., 107., -107., -62., 90., -95., 125.,
          66., 84., -96., 25., -61., 37., 72., 10., 66., 38., -63., 15.,
          67., -113., 35., 40., 66., 89., -13., -107., -62., 51., -21.,
          -13., -62., -99., -14., 41., 66., 93., -71., -91., 66., -111.,
          -126., 25., -63., -54., -79., -108., -61., -34., -75., -87.,
          -63., -34., -98., -6., 63., -7., -48., 14., 66., 18., -65.,
          115., -62., 60., -36., -62., -63., 92., 27., -89., -62., -96.,
          -91., 89., 66., 0., -50., -126., -62. ]
      - [ 22., 25., -96., -65., -72., -102., -107., 64., 126., -107.,
          -100., 64., -40., -43., -54., -65., 4., -100., 90., 63., 96.,
          -9., -76., 62., 44., 68., 4., 63., 0., -102., -42., 61., 64.,
          94., 103., -66., 0., -92., 7., -66., -46., -27., -114., -64.,
          0., 44., 41., 62., 0., -24., -8., 62., 80., 43., -71., -65.,
          64., 102., 38., 62., -96., 113., -20., -65., -112., 97., 30.,
          64., -20., -120., 32., -64., 112., -82., 43., 64., 88., -116.,
          72., -64., -112., -104., -36., 63., -48., -44., -92., -65.,
          -96., 3., -115., -66., 73., 10., -46., -65., 44., -18., -68.,
          -66., -82., 96., 68., 63., 0., 0., 1.45875170e-42, 0., 0.,
          -111., 17., 69., -43., -73., -95., 67., 126., -64., -124., 67.,
          116., -67., 87., 67., -71., 54., 26., -60., -25., 12., 90.,
          67., -40., -105., 85., 67., -32., -124., -127., 66., 83., -94.,
          -31., -61., 94., 97., 41., 67., 89., 82., -85., -63., 22., 26.,
          -66., 65., -104., -49., 104., -61., -14., 96., 81., 67., -93.,
          -53., 20., -62., 117., -48., 119., -62., 97., 114., -1., -64.,
          75., 86., 62., -61., -84., 90., 15., 67., -61., -37., -65.,
          -63., 110., 1., 73., 67., 53., 114., -40., 65., -111., 12.,
          -66., -62., -22., 117., 46., -61., 6., 2., -57., 66., -61.,
          -102., 60., -62., -2., 68., 47., -61., 52., -44., -101., 66.,
          -128., 67., -3., 66., 58., -24., -50., -62., 61., -83., 112.,
          66., -91., 95., 93., 65., 0., -16., 22., -61., -110., -42.,
          -99., 66., -36., 103., 17., 66., -128., -78., 93., -63., -68.,
          -125., -25., 65. ]
      - [ 48., 110., -116., 64., -112., 1., 61., 64., 32., -126., 78.,
          63., -81., 59., -74., 62., -24., 85., 60., -64., -32., 78.,
          -112., -65., 84., 59., 108., 63., 0., 36., 19., 60., 36.,
          -110., 26., 64., -39., 13., -115., -64., -32., 90., 49., 64.,
          -68., 91., 11., -64., 0., 0., 1.45875170e-42, 0., 0., -98.,
          -97., 68., -86., -106., 46., 67., -19., 19., -69., -62., -118.,
          -126., -118., -61., -70., 50., -94., -62., 99., -117., -40.,
          67., -57., 2., 113., -62., -57., 37., 5., 67., 119., -40., 26.,
          -61., -49., 115., 51., 67., -113., -73., 21., 67., -92., -107.,
          108., -64., -6., 50., 116., 65., 117., -1., -96., -62., -28.,
          127., -4., 66., -112., -17., -20., -63., -125., 126., 44.,
          -62., -105., -47., 30., -61., -25., 76., 61., -62., 44., -117.,
          -125., 65., 64., -126., -109., 65., 96., -68., -19., 65., 36.,
          102., 13., 66., -52., 121., -43., 64., 44., 109., 46., 66.,
          107., 79., 14., 67., 65., -109., 83., -62., 118., 120., -25.,
          -64., -24., -35., -126., -64., 77., 43., -109., -62., 101.,
          114., -81., -62., 66., -18., -76., -62., 0., -64., 39., -62.,
          -28., -31., -106., -62., 8., 17., -34., -63., -128., 15., -5.,
          -64., 9., -117., -100., 66., 120., 24., -29., 65., 92., -25.,
          96., -63., -18., -34., 32., -62., 64., -68., 63., -62., 78.,
          -8., -27., -63., -23., -10., 1., -62., 98., 112., 11., 66.,
          116., -61., 6., 65., -96., 36., 39., 66., 60., -4., 3., 66.,
          7., 22., 7., -63., -112., -121., -57., 63., -128., -63., -50.,
          -65., -66., 81., -93., 64. ]
      - [ -102., -118., 89., -63., -52., 110., 29., 65., 112., -59.,
          -90., 65., 82., -117., -70., 63., -16., -53., -3., 61., 5.,
          15., 127., 65., -4., -20., 127., 65., 14., 108., 99., -64.,
          11., 113., 16., -64., 52., -8., -19., 64., 26., -128., 115.,
          -65., -60., 108., 91., -63., 0., 0., 94., -63., 80., 49.,
          -124., -65., 64., 79., -99., -65., 104., -118., 29., -65., 48.,
          76., -114., -64., 0., 84., -94., 62., 54., 76., -114., 64.,
          -24., -23., -120., -65., 111., 41., -43., -65., 8., -34., 73.,
          -65., -28., 47., -98., 64., -96., 5., -105., -64., 24., 80.,
          -81., 63., -10., -6., 51., 64., -4., -74., 17., 64., 66.,
          -107., 98., -64., 38., -64., -119., -65., -64., 82., -3., 63.,
          60., 6., -5., 63., -96., 97., -78., -65., 112., 112., -88.,
          -65., 96., -12., 23., 63., -53., 12., 51., 64., 72., -99., 95.,
          -65., 32., -110., -35., -65., 0., 12., 115., -67., -48., 36.,
          -108., 63., 94., -115., 66., 63., 96., 54., -98., -65., 0.,
          -39., -16., -66., 60., 55., -93., 63., -114., -3., 114., 63.,
          0., 0., 1.45875170e-42, 0., 0., -70., 34., 69., 12., -29., 68.,
          67., 112., 74., 68., 67., 103., -7., -34., 65., -58., -53.,
          -14., -62., 93., -7., 122., 67., -73., 59., 71., 65., -83.,
          -56., 27., 66., -13., 84., -1., 67., -4., 25., -29., -62.,
          -116., 47., 104., -61., -23., 102., 100., -62., 127., 81., 40.,
          67., 8., -117., 26., -61., -9., -23., -69., 66., 8., -9., 117.,
          66., 12., 91., -40., 65., 84., 47., -42., -62., 68., 3., -84.,
          -62. ]
      - [ 8., -84., -27., -63., -44., -112., 27., -62., -32., 116., -20.,
          -63., 2., 45., -24., -62., 112., -11., 64., 66., 35., -115.,
          -13., -64., -78., -58., 101., 66., -94., -46., -127., 66., -8.,
          -98., 13., -62., 116., -25., 122., 66., -38., -55., 37., 66.,
          0., 0., -70., -62., 0., -5., -13., 62., -96., -29., 15., -65.,
          62., 18., 100., -63., 44., -34., -97., 64., 15., 115., 67.,
          65., 68., -118., -74., -64., 108., -13., -39., 64., 0., -128.,
          -111., 61., -56., 61., -8., -64., 117., 124., -57., -64., 16.,
          104., -42., -64., 0., -122., 0., 65., -5., 76., -72., -64.,
          -128., -45., -71., -66., 104., -59., -121., 64., 96., -15.,
          -49., 62., 112., -29., -68., -64., 64., 24., 20., 63., 24.,
