%YAML:1.0
my_svm: !!opencv-ml-svm
   svm_type: C_SVC
   kernel: { type:RBF, gamma:1.5000000000000001e-04 }
   C: 1.0000000000000001e-01
   term_criteria: { epsilon:1.1920928955078125e-07, iterations:1000 }
   var_all: 97
   var_count: 97
   class_count: 2
   class_labels: !!opencv-matrix
      rows: 1
      cols: 2
      dt: i
      data: [ 0, 1 ]
   sv_total: 2000
   support_vectors:
      - [ 8., 7., 5., 2., 4., 3., 3., 17., 22., 11., 4., 5., 10., 10.,
          3., 5., 3., 4., 13., 9., 4., 4., 10., 27., 0., 5.61920684e-43,
          0., 0., 3.45880300e-01, 0., 3.07547659e-01, 0., 0.,
          9.26730484e-02, 4.66512829e-01, 0., 0., 2.33051479e-01, 0.,
          5.67241490e-01, 3.57093453e-01, 0., 1.64752081e-01,
          9.86263037e-01, 0., 0., 7.18920529e-01, 7.02633858e-02,
          3.86648595e-01, 6.24192953e-01, 2.13904351e-01, 9.76859629e-02,
          4.55104589e-01, 0., 5.13001144e-01, 2.35770792e-01,
          1.49151161e-01, 8.36631656e-02, 1.18317589e-01, 3.90181005e-01,
          1.29021108e-01, 3.47207725e-01, 0., 2.88316131e-01,
          4.86319184e-01, 0., 9.99078155e-02, 1., 2.38367692e-01, 0.,
          5.93917727e-01, 0., 0., 6.20334685e-01, 2.53272831e-01,
          3.93902324e-03, 1.37033120e-01, 0., 1.55029804e-01,
          1.16949156e-01, 1.29172951e-01, 1.74590317e-03, 1.18604295e-01,
          9.20888782e-02, 1.03133939e-01, 1.14049181e-01, 1.16794296e-01,
          1.46320552e-01, 6.22762926e-02, 1.36243567e-01, 5.72458357e-02,
          1.85323641e-01, 28., 7., 4., 10., 6. ]
      - [ 0., 1.02155689e-37, 0., 1.02160174e-37, 0., 1.02164658e-37, 0.,
          1.02169142e-37, 0., 1.02173626e-37, 0., 1.02178110e-37, 0.,
          1.02182594e-37, 0., 1.02187078e-37, 0., 1.02191563e-37, 0.,
          1.02196047e-37, 0., 1.02200531e-37, 0., 1.02205015e-37, 0.,
          1.02209499e-37, 0., 1.02213983e-37, 0., 1.02218468e-37, 0.,
          1.02222952e-37, 0., 1.02227436e-37, 0., 1.02231920e-37, 0.,
          1.02236404e-37, 0., 1.02240888e-37, 0., 1.02245373e-37, 0.,
          1.02249857e-37, 0., 1.02254341e-37, 0., 1.02258825e-37, 0.,
          1.02263309e-37, 0., 1.02267793e-37, 0., 1.02272277e-37, 0.,
          1.02276762e-37, 0., 1.02281246e-37, 0., 1.02285730e-37, 0.,
          1.02290214e-37, 0., 1.02294698e-37, 0., 1.02299182e-37, 0.,
          1.02303667e-37, 0., 1.02308151e-37, 0., 1.02312635e-37, 0.,
          1.02317119e-37, 0., 1.02321603e-37, 0., 1.02326087e-37, 0.,
          1.02330571e-37, 0., 1.02335056e-37, 0., 1.02339540e-37, 0.,
          1.02344024e-37, 0., 1.02348508e-37, 0., 1.02352992e-37, 0.,
          1.02357476e-37, 0., 1.02361961e-37, 0., 1.02366445e-37, 0. ]
      - [ 2., 1., 0., 6., 5., 6., 0., 83., 0., 5.61920684e-43, 0.,
          1.21208765e-01, 3.23431283e-01, 1.27342686e-01, 3.99583310e-01,
          3.41538757e-01, 3.52110416e-02, 6.65972158e-02, 4.89322275e-01,
          6.69943839e-02, 0., 2.65577316e-01, 2.63037652e-01,
          2.66388863e-01, 7.22457230e-01, 1.25216156e-01, 2.50605214e-02,
          7.78307915e-01, 0., 6.65972158e-02, 8.00337136e-01,
          2.93030422e-02, 0., 4.17917788e-01, 7.34697729e-02,
          3.97650689e-01, 6.44240022e-01, 1.48915917e-01, 1.85573339e-01,
          2.31284693e-01, 0., 8.89073312e-02, 2.91383266e-01,
          5.41102402e-02, 9.41424444e-02, 1.28240854e-01, 1.33259460e-01,
          5.24118900e-01, 1., 3.26260865e-01, 4.37663198e-02,
          5.82282186e-01, 0., 0., 1.93518803e-01, 2.16193035e-01,
          1.94588751e-01, 0., 1.25302613e-01, 6.68044481e-03,
          1.07605144e-01, 1.03962235e-01, 9.34262201e-02, 9.20673162e-02,
          3.52110416e-02, 2.55289371e-03, 1.04385965e-01, 7.33201355e-02,
          7.21827969e-02, 1.01466998e-01, 1.19013906e-01, 1.59311086e-01,
          7.00504705e-02, 1.56618997e-01, 6.22431412e-02, 2.20584303e-01,
          0., 0., 7., 4., 0., 0., 1., 3., 4., 1., 16., 25., 5., 3., 15.,
          60., 0., 0., 0., 1., 0. ]
      - [ 1.66811794e-01, 4.08268385e-02, 2.32832178e-01, 3.57314169e-01,
          5.33987656e-02, 0., 3.72272283e-01, 2.91381598e-01,
          3.10245067e-01, 7.90320337e-02, 4.61835206e-01, 4.82595026e-01,
          6.36729077e-02, 5.69507778e-02, 1.45267442e-01, 1.57634273e-01,
          0., 1.41926572e-01, 1.27345815e-01, 2.56236762e-01,
          6.05590880e-01, 1.08255640e-01, 4.45371926e-01, 1., 0.,
          1.14381894e-01, 1.61527693e-01, 8.93452540e-02, 1.16336532e-01,
          0., 1.50107458e-01, 1.56219420e-03, 8.04658085e-02,
          1.01316817e-01, 9.37320739e-02, 8.11450109e-02, 7.68282339e-02,
          4.19582753e-03, 1.07925460e-01, 8.63276720e-02, 8.50538239e-02,
          7.39616305e-02, 9.52578485e-02, 1.84510559e-01, 7.59112835e-02,
          1.85615435e-01, 6.55889288e-02, 2.46857017e-01, 31., 16., 6.,
          10., 15., 6., 3., 12., 2., 5., 4., 5., 8., 8., 3., 10., 10.,
          3., 2., 7., 5., 4., 2., 8., 5., 4., 24., 21., 7., 6., 14., 22.,
          0., 5.61920684e-43, 0., 1.40348390e-01, 1.30159140e-01,
          8.88456702e-02, 3.40394862e-02, 1.92609295e-01, 1.90108761e-01,
          0., 9.45061147e-01, 0., 0., 0., 4.44228351e-02, 1.78672940e-01,
          7.87848890e-01 ]
      - [ 0., 1.03460579e-37, 0., 1.03465063e-37, 0., 1.03469547e-37, 0.,
          1.03474031e-37, 0., 1.03478515e-37, 0., 1.03482999e-37, 0.,
          1.03487483e-37, 0., 1.03491968e-37, 0., 1.03496452e-37, 0.,
          1.03500936e-37, 0., 1.03505420e-37, 0., 1.03509904e-37, 0.,
          1.03514388e-37, 0., 1.03518873e-37, 0., 1.03523357e-37, 0.,
          1.03527841e-37, 0., 1.03532325e-37, 0., 1.03536809e-37, 0.,
          1.03541293e-37, 0., 1.03545777e-37, 0., 1.03550262e-37, 0.,
          1.03554746e-37, 0., 1.03559230e-37, 0., 1.03563714e-37, 0.,
          1.03568198e-37, 0., 1.03572682e-37, 0., 1.03577167e-37, 0.,
          1.03581651e-37, 0., 1.03586135e-37, 0., 1.03590619e-37, 0.,
          1.03595103e-37, 0., 1.03599587e-37, 0., 1.03604071e-37, 0.,
          1.03608556e-37, 0., 1.03613040e-37, 0., 1.03617524e-37, 0.,
          1.03622008e-37, 0., 1.03626492e-37, 0., 1.03630976e-37, 0.,
          1.03635461e-37, 0., 1.03639945e-37, 0., 1.03644429e-37, 0.,
          1.03648913e-37, 0., 1.03653397e-37, 0., 1.03657881e-37, 0.,
          1.03662366e-37, 0., 1.03666850e-37, 0., 1.03671334e-37, 0. ]
      - [ 9.21826363e-01, 1.28307834e-01, 3.70071203e-01, 6.10786378e-01,
          1.42173827e-01, 0., 4.03418183e-01, 4.87644859e-02,
          1.41823694e-01, 0., 7.30942562e-02, 1.42134637e-01,
          6.10744894e-01, 4.49934304e-02, 1.24095730e-01, 4.99827504e-01,
          3.58517855e-01, 1.45198420e-01, 3.33361804e-01, 0.,
          2.32199550e-01, 6.04947388e-01, 0., 2.95167774e-01, 1., 0.,
          1.98910445e-01, 5.05268574e-01, 4.36511219e-01, 1.63683772e-01,
          1.12915978e-01, 9.37980935e-02, 7.15286508e-02, 1.17289543e-01,
          7.44140670e-02, 7.80187128e-03, 1.08889863e-01, 8.66506323e-02,
          6.93077371e-02, 9.60500613e-02, 1.10422172e-01, 1.66157514e-01,
          6.97982088e-02, 1.55813858e-01, 6.23512454e-02, 2.08613470e-01,
          56., 9., 12., 12., 9., 2., 1., 3., 11., 0., 2., 7., 5., 0., 2.,
          13., 36., 10., 12., 6., 10., 8., 4., 1., 10., 8., 3., 11., 4.,
          1., 5., 15., 0., 5.61920684e-43, 0., 0., 3.27567607e-01, 0.,
          3.12471479e-01, 1.49216428e-01, 0., 1.65032133e-01,
          2.63799369e-01, 2.94286728e-01, 1.05235465e-01, 3.11319530e-01,
          1.47071034e-02, 0., 0., 4.96480018e-02, 1.57638833e-01 ]
      - [ 0., 1.04765468e-37, 0., 1.04769952e-37, 0., 1.04774436e-37, 0.,
          1.04778920e-37, 0., 1.04783404e-37, 0., 1.04787888e-37, 0.,
          1.04792373e-37, 0., 1.04796857e-37, 0., 1.04801341e-37, 0.,
          1.04805825e-37, 0., 1.04810309e-37, 0., 1.04814793e-37, 0.,
          1.04819278e-37, 0., 1.04823762e-37, 0., 1.04828246e-37, 0.,
          1.04832730e-37, 0., 1.04837214e-37, 0., 1.04841698e-37, 0.,
          1.04846182e-37, 0., 1.04850667e-37, 0., 1.04855151e-37, 0.,
          1.04859635e-37, 0., 1.04864119e-37, 0., 1.04868603e-37, 0.,
          1.04873087e-37, 0., 1.04877572e-37, 0., 1.04882056e-37, 0.,
          1.04886540e-37, 0., 1.04891024e-37, 0., 1.04895508e-37, 0.,
          1.04899992e-37, 0., 1.04904476e-37, 0., 1.04908961e-37, 0.,
          1.04913445e-37, 0., 1.04917929e-37, 0., 1.04922413e-37, 0.,
          1.04926897e-37, 0., 1.04931381e-37, 0., 1.04935866e-37, 0.,
          1.04940350e-37, 0., 1.04944834e-37, 0., 1.04949318e-37, 0.,
          1.04953802e-37, 0., 1.04958286e-37, 0., 1.04962770e-37, 0.,
          1.04967255e-37, 0., 1.04971739e-37, 0., 1.04976223e-37, 0. ]
      - [ 0., 3.32135111e-01, 4.73234147e-01, 0., 1.40718877e-01,
          9.24646795e-01, 0., 6.05775952e-01, 1., 1.67681471e-01,
          1.04309894e-01, 0., 8.76299366e-02, 6.03292346e-01,
          1.88495159e-01, 1.35682538e-01, 4.57461476e-01, 1.17484823e-01,
          0., 1.55688345e-01, 5.54188907e-01, 0., 0., 7.50881016e-01,
          1.46784380e-01, 3.32135111e-01, 7.44414330e-01, 7.68430531e-02,
          2.36708120e-01, 4.51830596e-01, 1.52763337e-01, 3.51148874e-01,
          9.70094144e-01, 0., 0., 6.47123694e-01, 1.08556263e-01,
          3.39546893e-03, 1.14499040e-01, 1.06262796e-01, 1.18069433e-01,
          1.13043196e-01, 1.52763337e-01, 1.37804020e-02, 1.15721531e-01,
          1.15903862e-01, 1.04309894e-01, 1.18989319e-01, 1.14323527e-01,
          1.56357512e-01, 6.71630949e-02, 1.46308139e-01, 6.50717989e-02,
          1.96231321e-01, 2., 0., 1., 1., 3., 2., 8., 14., 1., 6., 1.,
          6., 1., 14., 6., 78., 0., 0., 0., 0., 0., 3., 0., 12., 0., 0.,
          0., 1., 0., 9., 0., 119., 0., 5.61920684e-43, 0.,
          6.02943338e-02, 3.49415720e-01, 7.65527859e-02, 1.02543712e-01,
          6.56930745e-01, 9.01193097e-02, 1.68761492e-01, 2.78292894e-01 ]
      - [ 0., 0., 7.02191293e-01, 0., 8.97118390e-01, 4.63923603e-01, 0.,
          7.94409513e-02, 3.26307416e-01, 1.15932897e-01, 5.47714114e-01,
          1.30249634e-01, 1.51866853e-01, 3.16979617e-01, 8.87357473e-01,
          0., 3.79297227e-01, 8.34475696e-01, 1.36725277e-01,
          3.31038296e-01, 1.54550210e-01, 1.80994660e-01, 4.34385270e-01,
          0., 1.45608291e-01, 4.12406325e-01, 5.99836826e-01, 0.,
          7.66288638e-01, 7.98309505e-01, 2.81932861e-01, 9.41770803e-03,
          0., 3.87070179e-02, 2.30684817e-01, 1.28270313e-01,
          4.29482341e-01, 3.18502069e-01, 8.91312301e-01, 9.40393433e-02,
          3.18951756e-01, 1., 2.41424754e-01, 3.35144758e-01,
          1.50977343e-01, 0., 2.05589637e-01, 4.76429492e-01,
          2.87307918e-01, 1.49698287e-01, 1.06230967e-01, 9.40393433e-02,
          1.12459809e-01, 1.06783062e-01, 1.10013813e-01, 1.07863098e-02,
          1.26367003e-01, 8.39086473e-02, 1.01312421e-01, 1.22491576e-01,
          1.26783177e-01, 1.95971176e-01, 8.34893957e-02, 1.91243291e-01,
          7.11978227e-02, 2.71384865e-01, 39., 9., 9., 8., 8., 4., 5.,
          7., 19., 1., 11., 3., 5., 7., 4., 5., 21., 7., 9., 5., 8., 8.,
          9., 4., 12., 7., 19., 9., 4., 6., 8. ]
      - [ 8.30176324e-02, 0., 4.38038379e-01, 1.25021964e-01,
          6.03985250e-01, 0., 6.78283930e-01, 5.26396215e-01, 0., 0.,
          5.32797538e-02, 9.65329483e-02, 2.69826949e-01, 1.38362721e-01,
          0., 2.24787012e-01, 1., 2.15697244e-01, 3.27875823e-01,
          8.34266305e-01, 7.61044100e-02, 1.32656351e-01, 1.67817026e-01,
          0., 0., 0., 2.03436077e-01, 2.01339135e-03, 8.24388489e-02,
          1.00522161e-01, 8.01788121e-02, 8.49508196e-02, 7.22258165e-02,
          4.44723852e-03, 8.42890143e-02, 9.65329483e-02, 4.75646406e-02,
          1.36638731e-01, 8.54843110e-02, 1.85186237e-01, 7.79374912e-02,
          1.84210137e-01, 6.70007467e-02, 2.80241817e-01, 28., 10., 14.,
          9., 15., 7., 2., 11., 10., 7., 5., 3., 10., 4., 2., 7., 19.,
          5., 9., 5., 5., 2., 3., 5., 13., 4., 22., 19., 6., 0., 14.,
          13., 0., 5.61920684e-43, 0., 0., 3.74257624e-01, 0.,
          4.13345695e-01, 2.77754396e-01, 0., 1.00635707e-01,
          5.92296541e-01, 6.93140030e-02, 4.51616570e-02, 9.56473649e-02,
          9.79855582e-02, 0., 9.21640337e-01, 0., 2.70920455e-01,
          9.41652656e-02, 2.68697459e-02 ]
      - [ 8.88362825e-02, 1.34359062e-01, 7.41254017e-02, 1.35478660e-01,
          1.06965899e-01, 1.81953356e-01, 7.70005286e-02, 1.74079001e-01,
          6.70623258e-02, 2.69901514e-01, 34., 5., 8., 17., 6., 4., 5.,
          7., 13., 4., 8., 7., 9., 3., 6., 8., 17., 5., 9., 2., 6., 3.,
          5., 7., 6., 4., 21., 19., 2., 5., 9., 24., 0., 5.61920684e-43,
          0., 3.52771163e-01, 3.91574740e-01, 9.37823504e-02,
          4.65126395e-01, 6.42732978e-01, 1.10320464e-01, 0.,
          1.78248152e-01, 1.28182471e-01, 9.37823504e-02, 1.67397633e-01,
          2.14075848e-01, 4.10506129e-01, 6.52750194e-01, 0.,
          5.56816399e-01, 5.05736828e-01, 1.15604818e-01, 1.38528809e-01,
          3.25210184e-01, 1.74077213e-01, 1.86942384e-01, 2.49136046e-01,
          0., 2.55956411e-01, 3.46892327e-01, 0., 1.18626334e-01,
          2.56826878e-01, 3.56551588e-01, 5.39519228e-02, 3.27478111e-01,
          0., 1.77939504e-01, 3.09727162e-01, 0., 3.83799672e-01, 1., 0.,
          1.18626334e-01, 8.59099627e-02, 0., 1.10507153e-01,
          8.82090628e-01, 0., 4.68121350e-01, 5.10070324e-01,
          2.15115845e-01, 1.02411192e-02, 9.56486911e-02, 9.37823504e-02,
          1.14472322e-01 ]
      - [ 7.76807293e-02, 6.63953051e-02, 7.93348700e-02, 9.11312699e-02,
          5.88575602e-02, 2.90154852e-03, 5.72373159e-02, 7.56117925e-02,
          6.59216195e-02, 6.50511235e-02, 7.64668807e-02, 1.94553986e-01,
          8.45415369e-02, 2.08221287e-01, 7.49411583e-02, 2.68501610e-01,
          38., 11., 8., 20., 8., 1., 2., 2., 6., 4., 8., 1., 11., 8., 9.,
          7., 3., 1., 5., 5., 3., 6., 0., 7., 6., 3., 39., 25., 3., 6.,
          19., 13., 0., 5.61920684e-43, 0., 9.49911699e-02,
          1.06836878e-01, 0., 3.14192116e-01, 1.77151322e-01,
          2.10888594e-01, 1.07345477e-01, 5.99568129e-01, 0.,
          2.66453415e-01, 2.09580228e-01, 8.64530280e-02, 0.,
          4.56390172e-01, 2.57216990e-01, 7.08889008e-01, 8.99237692e-02,
          0., 1.05474681e-01, 5.59667408e-01, 0., 4.71288189e-02,
          8.08438301e-01, 3.41933966e-01, 0., 8.53984058e-02, 0.,
          1.72805667e-01, 0., 0., 1.64374962e-01, 5.69334507e-01,
          3.16147983e-01, 4.19671774e-01, 6.00657284e-01, 2.38309890e-01,
          1.11818925e-01, 1.13504626e-01, 1.71785653e-01, 1.73846960e-01,
          3.33445281e-01, 0., 1.21249579e-01, 7.75114477e-01,
          2.79172540e-01, 1.79847926e-01 ]
      - [ 29., 44., 0., 5.61920684e-43, 0., 6.36134893e-02,
          4.25834894e-01, 1.50628865e-01, 4.30364043e-01, 3.20353389e-01,
          0., 1.47059664e-01, 6.62071645e-01, 0., 0., 4.84625667e-01,
          3.28502268e-01, 1.25408888e-01, 9.15794671e-01, 1.79481879e-01,
          6.64218605e-01, 2.12969407e-01, 8.41630101e-02, 2.30581403e-01,
          7.27322638e-01, 1.37007460e-01, 2.75555879e-01, 5.36144733e-01,
          1.04312330e-01, 1.75666109e-01, 3.17699343e-01, 1.51727021e-01,
          8.41759801e-01, 7.03799129e-01, 0., 1.40974030e-01,
          3.34365547e-01, 7.54245669e-02, 5.64582646e-02, 2.16653347e-01,
          2.10117757e-01, 2.99129814e-01, 4.53386396e-01, 0.,
          7.29252547e-02, 8.20076823e-01, 0., 1.89597860e-01,
          4.57801819e-01, 0., 1.48591980e-01, 1., 1.08122140e-01,
          4.95386776e-03, 1.50908232e-01, 1.20459437e-01, 1.18192226e-01,
          1.21011689e-01, 8.41630101e-02, 8.23503453e-03, 1.14819035e-01,
          1.06216013e-01, 6.86580166e-02, 1.17759153e-01, 1.07293501e-01,
          1.82189003e-01, 8.10499936e-02, 1.89785570e-01, 7.33007193e-02,
          2.63185680e-01, 49., 5., 11., 9., 7., 5., 2., 10., 15., 1., 0.,
          5., 2., 1., 2., 20., 28., 10., 9., 8., 8., 1., 2., 5., 14., 3.,
          7. ]
      - [ 0., 1.07810209e-37, 0., 1.07814693e-37, 0., 1.07819177e-37, 0.,
          1.07823661e-37, 0., 1.07828146e-37, 0., 1.07832630e-37, 0.,
          1.07837114e-37, 0., 1.07841598e-37, 0., 1.07846082e-37, 0.,
          1.07850566e-37, 0., 1.07855051e-37, 0., 1.07859535e-37, 0.,
          1.07864019e-37, 0., 1.07868503e-37, 0., 1.07872987e-37, 0.,
          1.07877471e-37, 0., 1.07881955e-37, 0., 1.07886440e-37, 0.,
          1.07890924e-37, 0., 1.07895408e-37, 0., 1.07899892e-37, 0.,
          1.07904376e-37, 0., 1.07908860e-37, 0., 1.07913345e-37, 0.,
          1.07917829e-37, 0., 1.07922313e-37, 0., 1.07926797e-37, 0.,
          1.07931281e-37, 0., 1.07935765e-37, 0., 1.07940249e-37, 0.,
          1.07944734e-37, 0., 1.07949218e-37, 0., 1.07953702e-37, 0.,
          1.07958186e-37, 0., 1.07962670e-37, 0., 1.07967154e-37, 0.,
          1.07971639e-37, 0., 1.07976123e-37, 0., 1.07980607e-37, 0.,
          1.07985091e-37, 0., 1.07989575e-37, 0., 1.07994059e-37, 0.,
          1.07998543e-37, 0., 1.08003028e-37, 0., 1.08007512e-37, 0.,
          1.08011996e-37, 0., 1.08016480e-37, 0., 1.08020964e-37, 0. ]
      - [ 1.29091918e-01, 3.46782535e-01, 8.92663002e-02, 1.75838828e-01,
          7.53198147e-01, 0., 1.84893370e-01, 7.24747002e-01,
          1.99812278e-01, 1.92118645e-01, 1.00853063e-01, 3.57378647e-02,
          3.72354418e-01, 1.29091918e-01, 0., 1.25399709e-01,
          7.77254775e-02, 6.73256442e-02, 9.16932747e-02, 7.60646686e-02,
          6.29052818e-02, 3.09868786e-03, 5.10104895e-02, 8.45399648e-02,
          5.24906702e-02, 1.12122655e-01, 7.41153806e-02, 2.10158348e-01,
          9.10408571e-02, 2.19772145e-01, 7.89058134e-02, 2.87313461e-01,
          35., 11., 5., 11., 16., 9., 7., 6., 12., 8., 3., 4., 9., 2.,
          3., 3., 23., 6., 8., 5., 8., 4., 3., 6., 5., 6., 20., 13., 7.,
          3., 15., 12., 0., 5.61920684e-43, 0., 0., 7.98960775e-02,
          3.93355489e-02, 2.32360765e-01, 2.45763540e-01, 1.59792587e-01,
          8.74648392e-02, 7.41523385e-01, 1.34521136e-02, 1.17544979e-01,
          3.54889125e-01, 6.51924461e-02, 1.16619788e-01, 1.29224211e-01,
          0., 2.55933911e-01, 5.26186526e-01, 0., 2.62462050e-01,
          8.24580729e-01, 0., 1.16619788e-01, 7.30130851e-01,
          1.87805429e-01, 2.25039750e-01, 5.59413508e-02, 0.,
          6.00740731e-01, 2.06303999e-01, 1.11686617e-01 ]
      - [ 0., 1.09115098e-37, 0., 1.09119582e-37, 0., 1.09124066e-37, 0.,
          1.09128551e-37, 0., 1.09133035e-37, 0., 1.09137519e-37, 0.,
          1.09142003e-37, 0., 1.09146487e-37, 0., 1.09150971e-37, 0.,
          1.09155455e-37, 0., 1.09159940e-37, 0., 1.09164424e-37, 0.,
          1.09168908e-37, 0., 1.09173392e-37, 0., 1.09177876e-37, 0.,
          1.09182360e-37, 0., 1.09186845e-37, 0., 1.09191329e-37, 0.,
          1.09195813e-37, 0., 1.09200297e-37, 0., 1.09204781e-37, 0.,
          1.09209265e-37, 0., 1.09213750e-37, 0., 1.09218234e-37, 0.,
          1.09222718e-37, 0., 1.09227202e-37, 0., 1.09231686e-37, 0.,
          1.09236170e-37, 0., 1.09240654e-37, 0., 1.09245139e-37, 0.,
          1.09249623e-37, 0., 1.09254107e-37, 0., 1.09258591e-37, 0.,
          1.09263075e-37, 0., 1.09267559e-37, 0., 1.09272044e-37, 0.,
          1.09276528e-37, 0., 1.09281012e-37, 0., 1.09285496e-37, 0.,
          1.09289980e-37, 0., 1.09294464e-37, 0., 1.09298948e-37, 0.,
          1.09303433e-37, 0., 1.09307917e-37, 0., 1.09312401e-37, 0.,
          1.09316885e-37, 0., 1.09321369e-37, 0., 1.09325853e-37, 0. ]
      - [ 0., 1.09985024e-37, 0., 1.09989508e-37, 0., 1.09993992e-37, 0.,
          1.09998477e-37, 0., 1.10002961e-37, 0., 1.10007445e-37, 0.,
          1.10011929e-37, 0., 1.10016413e-37, 0., 1.10020897e-37, 0.,
          1.10025382e-37, 0., 1.10029866e-37, 0., 1.10034350e-37, 0.,
          1.10038834e-37, 0., 1.10043318e-37, 0., 1.10047802e-37, 0.,
          1.10052287e-37, 0., 1.10056771e-37, 0., 1.10061255e-37, 0.,
          1.10065739e-37, 0., 1.10070223e-37, 0., 1.10074707e-37, 0.,
          1.10079191e-37, 0., 1.10083676e-37, 0., 1.10088160e-37, 0.,
          1.10092644e-37, 0., 1.10097128e-37, 0., 1.10101612e-37, 0.,
          1.10106096e-37, 0., 1.10110581e-37, 0., 1.10115065e-37, 0.,
          1.10119549e-37, 0., 1.10124033e-37, 0., 1.10128517e-37, 0.,
          1.10133001e-37, 0., 1.10137485e-37, 0., 1.10141970e-37, 0.,
          1.10146454e-37, 0., 1.10150938e-37, 0., 1.10155422e-37, 0.,
          1.10159906e-37, 0., 1.10164390e-37, 0., 1.10168875e-37, 0.,
          1.10173359e-37, 0., 1.10177843e-37, 0., 1.10182327e-37, 0.,
          1.10186811e-37, 0., 1.10191295e-37, 0., 1.10195779e-37, 0. ]
      - [ 3.25493872e-01, 2.55356487e-02, 0., 1.73939198e-01,
          4.68767554e-01, 8.21046159e-02, 1.70014247e-01, 3.54635894e-01,
          8.92401114e-02, 3.70218933e-01, 4.04421240e-01, 0.,
          2.09248304e-01, 1.02037258e-01, 1.05581403e-01, 0.,
          3.92466635e-01, 2.17917204e-01, 1.66744739e-01, 5.83425045e-01,
          0., 1.16694055e-01, 8.11118484e-02, 9.00088698e-02,
          6.03594184e-02, 5.83093613e-02, 4.11940143e-02, 3.98784643e-03,
          7.80719668e-02, 6.13139570e-02, 4.25035618e-02, 7.78493360e-02,
          9.70915332e-02, 1.55989572e-01, 6.46027103e-02, 1.42525002e-01,
          5.93634434e-02, 2.06079766e-01, 49., 4., 10., 27., 7., 1., 0.,
          3., 11., 0., 4., 4., 16., 2., 0., 6., 33., 2., 12., 3., 6., 0.,
          2., 2., 10., 4., 7., 30., 3., 2., 19., 9., 0., 5.61920684e-43,
          0., 0., 3.09535772e-01, 0., 6.81677282e-01, 7.81992003e-02,
          1.32878795e-01, 8.22380558e-02, 2.42913380e-01, 7.03754723e-02,
          8.22380558e-02, 3.43233705e-01, 7.08742216e-02, 5.05514205e-01,
          4.40842986e-01, 0., 1.08794093e-01, 3.36995929e-01,
          1.03214338e-01, 9.93709862e-02, 6.79865599e-01, 3.53204366e-03,
          1.34053975e-01, 5.48614919e-01, 1.55213386e-01 ]
      - [ 9., 3., 6., 3., 5., 1., 2., 13., 26., 10., 10., 9., 9., 5., 6.,
          3., 11., 5., 4., 14., 7., 4., 6., 15., 0., 5.61920684e-43, 0.,
          0., 3.15209121e-01, 8.41191486e-02, 1.16214409e-01,
          6.55561745e-01, 7.84186646e-02, 1.64334431e-01, 7.48694167e-02,
          0., 1.16214409e-01, 1.65757462e-01, 3.03782105e-01,
          2.53554970e-01, 6.37025595e-01, 1.02756098e-01, 5.81072047e-02,
          7.44400680e-01, 0., 2.47860029e-01, 3.71529162e-01,
          6.03616536e-02, 0., 5.52144527e-01, 2.32719462e-02,
          3.62360477e-01, 2.33687997e-01, 9.46378559e-02, 4.09276515e-01,
          6.60069883e-01, 0., 0., 2.70001560e-01, 0., 1.96677685e-01,
          1.40432253e-01, 2.13641718e-01, 4.13609058e-01, 1.,
          1.04011923e-01, 5.29877007e-01, 5.99699616e-01, 7.39889294e-02,
          2.12637752e-01, 3.78288805e-01, 1.41614616e-01, 0.,
          2.16133386e-01, 0., 7.00356765e-03, 9.50401127e-02,
          9.63812545e-02, 9.27895904e-02, 8.31166208e-02, 7.62037933e-02,
          8.11470393e-03, 8.42068344e-02, 6.73254207e-02, 6.25784174e-02,
          1.07446767e-01, 9.01159644e-02, 1.90927699e-01, 8.32628235e-02,
          1.91334426e-01, 7.33357295e-02, 2.47807115e-01, 24., 9., 4.,
          4., 7. ]
      - [ 8.97617713e-02, 9.89287347e-02, 0., 6.67366618e-03,
          9.43348482e-02, 7.14728162e-02, 6.22712597e-02, 9.75816995e-02,
          8.63152072e-02, 1.47047386e-01, 6.36926889e-02, 1.38959423e-01,
          6.05228990e-02, 2.01335102e-01, 24., 6., 6., 24., 7., 1., 1.,
          2., 7., 5., 2., 2., 23., 0., 3., 31., 1., 2., 0., 3., 3., 4.,
          3., 1., 2., 2., 25., 29., 2., 3., 29., 35., 0., 5.61920684e-43,
          0., 0., 3.11942250e-01, 8.79601315e-02, 3.46172065e-01,
          5.52261710e-01, 5.31017110e-02, 8.81837830e-02, 1.36811435e-01,
          8.21226388e-02, 0., 1.12993876e-02, 0., 1.32275671e-01, 1., 0.,
          2.20459461e-01, 4.84865576e-01, 4.44350243e-02, 1.41988039e-01,
          2.04487480e-02, 2.12799251e-01, 0., 0., 7.88673535e-02,
          8.41855854e-02, 7.16201007e-01, 0., 2.42505401e-01,
          3.84900659e-01, 1.38259053e-01, 4.38102968e-02, 0.,
          8.15421790e-02, 1.87390536e-01, 0., 2.27244407e-01,
          1.02442451e-01, 6.47974312e-01, 4.61175479e-02, 3.00978214e-01,
          5.22971630e-01, 0., 7.61991963e-02, 0., 0., 2.09436491e-01, 0.,
          3.41292202e-01 ]
      - [ 0., 1.08245172e-37, 0., 1.08249656e-37, 0., 1.08254140e-37, 0.,
          1.08258624e-37, 0., 1.08263109e-37, 0., 1.08267593e-37, 0.,
          1.08272077e-37, 0., 1.08276561e-37, 0., 1.08281045e-37, 0.,
          1.08285529e-37, 0., 1.08290014e-37, 0., 1.08294498e-37, 0.,
          1.08298982e-37, 0., 1.08303466e-37, 0., 1.08307950e-37, 0.,
          1.08312434e-37, 0., 1.08316918e-37, 0., 1.08321403e-37, 0.,
          1.08325887e-37, 0., 1.08330371e-37, 0., 1.08334855e-37, 0.,
          1.08339339e-37, 0., 1.08343823e-37, 0., 1.08348308e-37, 0.,
          1.08352792e-37, 0., 1.08357276e-37, 0., 1.08361760e-37, 0.,
          1.08366244e-37, 0., 1.08370728e-37, 0., 1.08375213e-37, 0.,
          1.08379697e-37, 0., 1.08384181e-37, 0., 1.08388665e-37, 0.,
          1.08393149e-37, 0., 1.08397633e-37, 0., 1.08402117e-37, 0.,
          1.08406602e-37, 0., 1.08411086e-37, 0., 1.08415570e-37, 0.,
          1.08420054e-37, 0., 1.08424538e-37, 0., 1.08429022e-37, 0.,
          1.08433507e-37, 0., 1.08437991e-37, 0., 1.08442475e-37, 0.,
          1.08446959e-37, 0., 1.08451443e-37, 0., 1.08455927e-37, 0. ]
      - [ 0., 5.61920684e-43, 0., 0., 7.53412843e-01, 0., 6.58299208e-01,
          4.60751772e-01, 0., 1.88395977e-01, 1.90432951e-01,
          1.70134574e-01, 1.69636741e-01, 1.08423650e-01, 3.97049516e-01,
          3.77485365e-01, 1., 2.37237632e-01, 6.39459908e-01,
          2.70193934e-01, 0., 2.61378825e-01, 3.67267519e-01, 0.,
          1.18509583e-01, 8.73775408e-02, 2.53116995e-01, 5.33634365e-01,
          5.31498015e-01, 0., 2.78507233e-01, 2.75316268e-01, 0.,
          1.89085782e-01, 5.71398199e-01, 5.10509945e-02, 0.,
          4.35869366e-01, 6.28184900e-02, 6.10698581e-01, 7.43526340e-01,
          1.12437814e-01, 1.79410532e-01, 2.75194764e-01, 0.,
          6.43117279e-02, 7.53427267e-01, 1.91851094e-01, 1.11530805e-02,
          3.13660175e-01, 2.41283044e-01, 6.58795796e-03, 1.00947902e-01,
          8.74188617e-02, 1.09729804e-01, 9.15326253e-02, 0.,
          9.37563088e-03, 9.90803093e-02, 8.26073289e-02, 4.98832315e-02,
          1.05036750e-01, 1.19283505e-01, 1.99382320e-01, 8.66123438e-02,
          2.08213568e-01, 7.32445940e-02, 2.91979939e-01, 37., 13., 20.,
          3., 8., 1., 1., 2., 8., 4., 8., 5., 22., 2., 7., 3., 11., 11.,
          9., 2., 13., 2., 6., 3., 3., 4., 28., 15., 5. ]
      - [ 5., 10., 14., 6., 5., 1., 9., 8., 6., 16., 2., 1., 1., 9., 3.,
          8., 8., 6., 2., 7., 17., 16., 7., 9., 18., 30., 0.,
          5.61920684e-43, 0., 0., 7.45354176e-01, 0., 7.19320118e-01,
          5.66774964e-01, 0., 0., 0., 0., 0., 3.50677043e-01,
          1.15201436e-01, 0., 7.51098096e-01, 2.85782576e-01, 1.,
          4.96445626e-01, 0., 0., 2.45974407e-01, 0., 5.52187487e-02,
          1.77813813e-01, 0., 2.61808366e-01, 3.52766663e-01,
          1.96485832e-01, 6.42668188e-01, 4.64310586e-01, 7.63218254e-02,
          0., 0., 0., 1.93265617e-01, 0., 1.13836363e-01, 1.48894146e-01,
          9.16641474e-01, 1.86965242e-01, 4.72670466e-01, 4.65737641e-01,
          4.21357527e-02, 0., 1.24589220e-01, 0., 1.38046876e-01,
          2.50338465e-01, 0., 6.84504211e-02, 7.90245906e-02,
          9.56047997e-02, 8.09902549e-02, 7.66641796e-02, 5.92287891e-02,
          0., 1.23521209e-01, 0., 5.52187487e-02, 1.11261331e-01,
          1.14518896e-01, 1.82581827e-01, 8.09458643e-02, 1.77018434e-01,
          6.53643832e-02, 2.44847760e-01, 39., 14., 11. ]
      - [ 3.11618298e-01, 2.46058106e-01, 0., 5.95137998e-02,
          3.35425138e-01, 1.63295269e-01, 2.88352698e-01, 5.37595332e-01,
          1.10732682e-01, 3.20816576e-01, 3.68339151e-01, 0.,
          3.07613283e-01, 1.07290022e-01, 0., 2.77883619e-01,
          9.12881315e-01, 3.24210852e-01, 3.46020103e-01, 5.00532031e-01,
          0., 5.72921097e-01, 9.12280306e-02, 6.68108016e-02,
          9.80891660e-02, 7.81513005e-02, 0., 6.76856749e-03,
          8.52386430e-02, 9.75012258e-02, 6.75610378e-02, 8.54138285e-02,
          1.12361059e-01, 1.77697241e-01, 7.55953491e-02, 1.70898005e-01,
          6.47116899e-02, 2.61253744e-01, 35., 18., 9., 10., 11., 3., 8.,
          3., 17., 1., 6., 2., 5., 4., 6., 6., 14., 9., 17., 3., 6., 6.,
          5., 4., 12., 7., 21., 12., 5., 5., 12., 6., 0., 5.61920684e-43,
          0., 0., 2.23279819e-01, 0., 7.18548238e-01, 2.29794770e-01, 0.,
          3.54492180e-02, 0., 0., 1.05774939e-01, 5.59128150e-02,
          5.28014563e-02, 0., 6.60840631e-01, 6.47570118e-02,
          7.77518749e-01, 4.57626164e-01, 0., 0., 8.45979825e-02, 0.,
          1.49173930e-01, 0., 6.70953766e-02 ]
      - [ 5., 6., 13., 1., 0., 3., 16., 10., 5., 15., 14., 3., 8., 6.,
          6., 0., 5., 0., 10., 3., 18., 17., 6., 2., 22., 24., 0.,
          5.61920684e-43, 0., 1.00528479e-01, 3.55593443e-01,
          5.97713962e-02, 4.15232390e-01, 2.20829353e-01, 0.,
          1.52075931e-01, 4.86807227e-01, 7.76945576e-02, 8.05276409e-02,
          3.18807900e-01, 0., 2.69746214e-01, 4.00700629e-01, 0.,
          3.26294184e-01, 0., 7.40258545e-02, 9.34039503e-02,
          2.98033953e-01, 5.36684394e-02, 1.33424774e-01, 1.,
          2.87255079e-01, 1.86771497e-01, 3.49722385e-01, 2.01056957e-01,
          1.90443873e-01, 0., 0., 1.56918839e-01, 5.68439722e-01,
          4.11106572e-02, 4.49577011e-02, 5.40263593e-01, 1.00528479e-01,
          0., 5.72221816e-01, 8.80885497e-02, 1.34873107e-01,
          1.98611647e-01, 5.02642393e-02, 3.04750353e-01, 2.69224346e-01,
          1.76177099e-02, 1.43086046e-01, 5.74690044e-01, 1.93211153e-01,
          4.45636921e-03, 8.83283243e-02, 8.72292221e-02, 8.20648968e-02,
          6.99068308e-02, 6.21450469e-02, 9.82151460e-03, 6.76043853e-02,
          4.75228429e-02, 5.74280247e-02, 6.95360452e-02, 8.29992443e-02,
          2.15856552e-01, 9.37000364e-02, 2.27406427e-01, 7.46208578e-02,
          3.23984206e-01, 42., 9., 15. ]
      - [ 0., 1.16509470e-37, 0., 1.16513954e-37, 0., 1.16518438e-37, 0.,
          1.16522922e-37, 0., 1.16527406e-37, 0., 1.16531891e-37, 0.,
          1.16536375e-37, 0., 1.16540859e-37, 0., 1.16545343e-37, 0.,
          1.16549827e-37, 0., 0., 0., 5.61920684e-43, 0., 0.,
          5.35011828e-01, 0., 2.64924705e-01, 2.11946890e-01, 0.,
          8.01844299e-02, 3.68984729e-01, 4.26115245e-02, 4.31198329e-02,
          0., 3.12549062e-02, 0., 7.78559804e-01, 0., 2.04279616e-01,
          3.81801516e-01, 5.30851372e-02, 1.65548086e-01, 4.78787497e-02,
          4.10985909e-02, 5.33070005e-02, 5.84958605e-02, 0.,
          4.69173670e-01, 7.63185799e-01, 0., 1.75133482e-01,
          4.47654784e-01, 0., 9.07419026e-02, 1.52273819e-01, 0., 0.,
          3.04903258e-02, 0., 1.88690215e-01, 1., 1.48746103e-01,
          3.02421331e-01, 3.61234635e-01, 0., 1.00999393e-01,
          6.24117069e-02, 0., 7.48360902e-02, 2.00029477e-01,
          1.44628316e-01, 4.90943156e-03, 6.54629245e-02, 7.43730515e-02,
          7.28276223e-02, 6.67922795e-02, 5.30851372e-02, 5.33504644e-03,
          6.31548986e-02, 4.18550596e-02, 4.28157300e-02, 7.22539127e-02,
          5.86277395e-02, 1.92793831e-01, 8.31210390e-02, 1.96328148e-01,
          7.31514841e-02, 2.46776819e-01, 41., 8., 8., 5., 6., 14., 2. ]
      - [ 0., 1.15128256e-01, 3.66315842e-01, 0., 0., 4.50824082e-01,
          8.56267363e-02, 3.40903580e-01, 5.42772830e-01, 5.99378720e-02,
          9.32327881e-02, 1.76479310e-01, 1.50620406e-02, 1.48193300e-01,
          0., 9.93488058e-02, 0., 8.48730087e-01, 8.76666605e-02,
          1.16432972e-01, 7.75243863e-02, 5.99378720e-02, 7.27194995e-02,
          7.50781596e-02, 1.50620406e-02, 2.55651982e-03, 8.33922550e-02,
          9.48987827e-02, 0., 8.22657496e-02, 9.26555768e-02,
          1.39558867e-01, 6.09373562e-02, 1.28996566e-01, 5.35174720e-02,
          1.83385357e-01, 0., 0., 0., 18., 0., 0., 1., 1., 0., 0., 0.,
          0., 18., 0., 1., 105., 0., 0., 0., 0., 0., 0., 0., 2., 0., 0.,
          0., 18., 0., 0., 18., 106., 0., 5.61920684e-43, 0., 0.,
          6.73116505e-01, 1.56970322e-01, 8.88672173e-01, 0., 0., 0.,
          7.48136163e-01, 2.20188200e-01, 2.52338141e-01, 6.54084027e-01,
          0., 0., 5.04310668e-01, 2.46591359e-01, 3.95755291e-01,
          5.77657938e-01, 1.27150953e-01, 7.89651126e-02, 1.,
          4.28283811e-01, 1.26169071e-01, 4.81031984e-01, 8.98324177e-02,
          4.95736957e-01, 4.62810516e-01 ]
      - [ 1.22185662e-01, 1.14153631e-01, 6.19532913e-02, 1.28525764e-01,
          1.16360761e-01, 1.45917639e-01, 6.04408756e-02, 1.39587432e-01,
          5.43231405e-02, 2.13368982e-01, 41., 6., 8., 13., 8., 1., 2.,
          9., 8., 1., 3., 9., 2., 4., 0., 29., 30., 7., 11., 6., 9., 2.,
          0., 2., 11., 4., 4., 14., 3., 2., 2., 37., 0., 5.61920684e-43,
          0., 8.53125229e-02, 5.27811408e-01, 0., 2.57386953e-01,
          4.51856226e-01, 0., 0., 1.67977273e-01, 0., 1.59511328e-01,
          2.26572186e-01, 4.33694035e-01, 3.48131120e-01, 8.44711483e-01,
          0., 3.35202187e-01, 1., 6.06259406e-02, 0., 2.04505399e-01, 0.,
          1.54316559e-01, 3.98070484e-01, 4.13323306e-02, 3.17712009e-01,
          5.43821633e-01, 0., 2.57386953e-01, 4.51943696e-01,
          9.44932178e-02, 0., 5.53550839e-01, 0., 0., 2.58558542e-01,
          1.27968788e-01, 5.84909081e-01, 6.27155483e-01, 5.37404940e-02,
          1.01168215e-01, 4.56998765e-01, 0., 1.55359477e-01,
          3.45150977e-01, 0., 0., 8.16038966e-01, 2.73640633e-01,
          4.12365654e-03, 1.10586956e-01, 5.37404940e-02, 1.05682701e-01 ]
      - [ 0., 5.21706566e-02, 3.73378322e-02, 9.67599452e-02,
          1.50815696e-01, 8.24890584e-02, 3.68902273e-02, 1.,
          1.36664480e-01, 7.88839534e-02, 8.12226608e-02, 0., 0.,
          4.61127833e-02, 7.55690634e-02, 0., 1.51624277e-01, 0.,
          4.40377086e-01, 3.05096030e-01, 0., 5.39736263e-02, 0., 0., 0.,
          4.60731387e-02, 5.91992773e-02, 0., 2.57804096e-01, 0.,
          6.05410576e-01, 5.04049718e-01, 4.89778742e-02, 4.38412614e-02,
          7.06919059e-02, 0., 1.31951898e-01, 0., 8.24890584e-02,
          7.20759556e-02, 5.36335371e-02, 8.24890584e-02, 5.69830425e-02,
          5.56124412e-02, 4.64105904e-02, 2.10031308e-03, 7.77124092e-02,
          0., 4.39839661e-02, 4.81188595e-02, 6.36488050e-02,
          1.44426122e-01, 6.31764978e-02, 1.39568850e-01, 5.84357120e-02,
          1.87654451e-01, 0., 0., 0., 0., 0., 0., 0., 0., 0., 0., 0., 2.,
          0., 2., 0., 140., 0., 0., 0., 0., 0., 0., 0., 0., 0., 0., 0.,
          1., 0., 1., 0., 142., 0., 5.61920684e-43, 0., 7.27289543e-02,
          6.98334754e-01, 0., 2.72868395e-01, 3.50531220e-01, 0. ]
      - [ 0., 7.58112133e-01, 2.67965347e-01, 1.19706698e-01,
          1.00561760e-01, 1.03698485e-01, 7.97584355e-02, 9.67979208e-02,
          5.39606698e-02, 6.59488514e-03, 9.63606313e-02, 8.66022706e-02,
          6.38198629e-02, 9.24559906e-02, 9.52039734e-02, 1.92584619e-01,
          8.22296888e-02, 1.92355141e-01, 7.66483173e-02, 2.58539617e-01,
          65., 15., 5., 12., 11., 4., 7., 1., 7., 2., 3., 3., 3., 4., 0.,
          2., 40., 10., 18., 2., 9., 0., 2., 2., 15., 3., 13., 14., 7.,
          2., 2., 5., 0., 5.61920684e-43, 0., 3.75644982e-01,
          4.93026286e-01, 3.91402334e-01, 5.00521719e-01, 4.35768723e-01,
          0., 0., 0., 2.22539097e-01, 1.00981928e-01, 8.70421529e-02,
          1.37625739e-01, 2.79807776e-01, 6.71862304e-01, 0.,
          4.05369848e-01, 7.81080008e-01, 1.19113639e-01, 2.38195419e-01,
          4.59815770e-01, 1.15418710e-01, 0., 2.85641134e-01,
          1.92263529e-01, 0., 9.79099154e-01, 1.20453231e-01,
          3.98024023e-01, 3.74665111e-01, 1.34438157e-01, 4.43316735e-02,
          9.18047950e-02, 0., 1.45291790e-01, 2.25239798e-01,
          4.02136117e-01, 3.49272639e-01, 1., 2.92369127e-01,
          2.24402741e-01, 8.58768642e-01, 0. ]
      - [ 1.10594325e-01, 8.98323059e-01, 0., 7.00688362e-03,
          1.13735422e-01, 1.25099614e-01, 1.48178741e-01, 1.21742286e-01,
          6.70654103e-02, 3.17035685e-03, 1.13647461e-01, 5.78142405e-02,
          9.88174453e-02, 1.35710567e-01, 1.06570967e-01, 1.45297736e-01,
          6.36173785e-02, 1.36889145e-01, 5.78410439e-02, 1.81080386e-01,
          10., 11., 0., 19., 9., 7., 3., 8., 1., 4., 3., 6., 12., 7., 0.,
          44., 1., 1., 0., 6., 0., 3., 0., 2., 4., 0., 21., 26., 4., 3.,
          17., 56., 0., 5.61920684e-43, 0., 0., 5.67027092e-01, 0.,
          5.67792177e-01, 4.05107230e-01, 2.58464336e-01, 1.57001674e-01,
          0., 0., 9.46320295e-02, 1.21904232e-01, 2.12276384e-01,
          3.31486791e-01, 2.85628349e-01, 0., 4.46538508e-01,
          9.83409107e-01, 0., 2.05839261e-01, 1.04687743e-01,
          4.51622158e-02, 2.61858076e-01, 0., 1.03167854e-01,
          9.38236490e-02, 5.21882415e-01, 0., 2.24751070e-01,
          5.33062577e-01, 0., 0., 1.27874896e-01, 8.92270431e-02,
          5.40754460e-02, 7.75955766e-02, 7.16183484e-01, 1.85535505e-01,
          1., 0., 2.80860454e-01, 8.43494773e-01, 0. ]
      - [ 4.35839355e-01, 3.61729175e-01, 0., 0., 6.83519468e-02,
          1.16070807e-01, 1.43290699e-01, 4.95812476e-01, 0.,
          2.38857239e-01, 1., 2.39461601e-01, 3.90301347e-01,
          3.11290950e-01, 0., 0., 1.56551912e-01, 1.40184492e-01,
          1.45196766e-01, 1.36853993e-01, 0., 9.44334939e-02,
          7.40936548e-02, 7.22110718e-02, 6.99448586e-02, 6.40520081e-02,
          4.61496487e-02, 7.28810264e-04, 7.29099736e-02, 6.38153777e-02,
          6.14332892e-02, 8.30353945e-02, 6.90575242e-02, 1.89912051e-01,
          8.27835873e-02, 1.87784433e-01, 7.26784766e-02, 2.52720356e-01,
          30., 7., 10., 15., 14., 6., 5., 4., 9., 6., 2., 5., 12., 8.,
          6., 5., 24., 2., 11., 5., 7., 1., 4., 4., 5., 6., 24., 16., 8.,
          2., 11., 14., 0., 5.61920684e-43, 0., 6.30525574e-02,
          4.56153035e-01, 6.94356561e-02, 4.21919256e-01, 2.30868801e-01,
          0., 0., 3.91496196e-02, 4.29702699e-02, 0., 7.83751979e-02,
          7.04949051e-02, 1.41868964e-01, 1., 1.10083587e-01,
          1.73596993e-01, 5.44451535e-01, 6.07691407e-02, 2.40211114e-02,
          1.61267653e-01, 6.53279275e-02, 0., 8.55393037e-02, 0. ]
      - [ 1.65916175e-01, 1.39812529e-01, 7.67493621e-02, 1.14942612e-02,
          1.08578227e-01, 8.90665054e-02, 9.04955119e-02, 1.36661619e-01,
          1.59283608e-01, 1.70148447e-01, 7.22027719e-02, 1.64491713e-01,
          6.78426623e-02, 2.19625786e-01, 16., 0., 6., 14., 1., 0., 1.,
          0., 3., 1., 22., 11., 10., 2., 10., 47., 19., 3., 1., 0., 1.,
          1., 9., 2., 3., 6., 11., 16., 1., 4., 10., 57., 0.,
          5.61920684e-43, 0., 0., 8.26909661e-01, 1.45325229e-01,
          3.29308838e-01, 4.23611820e-01, 8.69151503e-02, 1.29993051e-01,
          5.14982343e-01, 1.60925105e-01, 1.56688511e-01, 4.71694916e-02,
          2.42129534e-01, 3.21397632e-01, 1., 0., 1.26472235e-01,
          8.52848709e-01, 0., 1.17080539e-01, 4.42969412e-01, 0.,
          2.34201625e-01, 6.65570676e-01, 8.30255747e-02, 1.55478552e-01,
          5.35645127e-01, 9.13917646e-02, 6.13454044e-01, 5.88810802e-01,
          0., 1.91777453e-01, 3.48785609e-01, 4.40309644e-02,
          1.22336254e-01, 4.71379727e-01, 1.73830301e-01, 8.24047446e-01,
          3.67488056e-01, 1.62553445e-01, 3.41324002e-01, 1.09246597e-01,
          2.67768949e-01, 7.65631497e-02, 9.60620582e-01, 1.14282884e-01,
          1.49315074e-01, 8.40062499e-01, 4.90207314e-01 ]
      - [ 10., 1., 2., 17., 36., 6., 8., 5., 9., 6., 2., 3., 7., 3., 16.,
          10., 4., 3., 6., 20., 0., 5.61920684e-43, 0., 0.,
          2.82712579e-01, 1.44584715e-01, 2.52868265e-01, 0., 0.,
          9.30729881e-02, 6.96993887e-01, 1.40121341e-01, 1.02591820e-01,
          2.90329874e-01, 1.51358202e-01, 3.20031196e-01, 3.60641688e-01,
          0., 1.56904161e-01, 3.16834629e-01, 0., 1.35378897e-01,
          8.87052774e-01, 0., 1.03503659e-01, 8.04389179e-01,
          1.40121341e-01, 3.01364064e-01, 0., 2.34281793e-01,
          4.06136692e-01, 3.51056397e-01, 0., 1.18838370e-01,
          4.97381240e-01, 4.10716049e-02, 2.38996312e-01, 4.83493924e-01,
          8.80138204e-02, 2.48463139e-01, 4.38260972e-01, 2.94415236e-01,
          4.80660528e-01, 1.56963602e-01, 0., 1.20698594e-01, 1., 0.,
          3.38447243e-02, 9.73343372e-01, 2.45878443e-01, 7.12998677e-03,
          1.20179467e-01, 1.34656340e-01, 1.08047478e-01, 1.17836371e-01,
          0., 5.19987615e-03, 1.02714263e-01, 9.05964747e-02,
          6.84195012e-02, 1.10937230e-01, 1.25074357e-01, 1.83190420e-01,
          7.35493600e-02, 1.90766707e-01, 6.97018877e-02, 2.39103749e-01,
          18., 3., 8., 29., 6., 0., 6., 3., 11. ]
      - [ 0., 1.07375246e-37, 0., 1.07379730e-37, 0., 1.07384214e-37, 0.,
          1.07388698e-37, 0., 1.07393183e-37, 0., 1.07397667e-37, 0.,
          1.07402151e-37, 0., 1.07406635e-37, 0., 1.07411119e-37, 0.,
          1.07415603e-37, 0., 1.07420087e-37, 0., 1.07424572e-37, 0.,
          1.07429056e-37, 0., 1.07433540e-37, 0., 1.07438024e-37, 0.,
          1.07442508e-37, 0., 1.07446992e-37, 0., 1.07451477e-37, 0.,
          1.07455961e-37, 0., 1.07460445e-37, 0., 1.07464929e-37, 0.,
          1.07469413e-37, 0., 1.07473897e-37, 0., 1.07478381e-37, 0.,
          1.07482866e-37, 0., 1.07487350e-37, 0., 1.07491834e-37, 0.,
          1.07496318e-37, 0., 1.07500802e-37, 0., 1.07505286e-37, 0.,
          1.07509771e-37, 0., 1.07514255e-37, 0., 1.07518739e-37, 0.,
          1.07523223e-37, 0., 1.07527707e-37, 0., 1.07532191e-37, 0.,
          1.07536676e-37, 0., 1.07541160e-37, 0., 1.07545644e-37, 0.,
          1.07550128e-37, 0., 1.07554612e-37, 0., 1.07559096e-37, 0.,
          1.07563580e-37, 0., 1.07568065e-37, 0., 1.07572549e-37, 0.,
          1.07577033e-37, 0., 1.07581517e-37, 0., 1.07586001e-37, 0. ]
      - [ 3.93135883e-02, 0., 0., 0., 8.47314417e-01, 0., 6.81738630e-02,
          2.11468190e-01, 0., 6.26373053e-01, 1.25589192e-01, 0., 0.,
          3.21930319e-01, 0., 2.06382185e-01, 8.73953283e-01,
          1.60189241e-01, 6.13811202e-02, 6.61139548e-01, 3.05134416e-01,
          2.48596713e-01, 5.28809011e-01, 0., 4.58110034e-01, 0., 0.,
          9.48595777e-02, 7.83639431e-01, 0., 0., 3.36975753e-01,
          1.00736700e-01, 3.00192267e-01, 2.65500754e-01, 4.20237690e-01,
          0., 3.21930319e-01, 0., 2.63142198e-01, 8.97207499e-01,
          7.23710731e-02, 2.22831219e-01, 1., 0., 1.02298269e-02,
          1.15869135e-01, 1.31768823e-01, 1.24355905e-01, 1.07310109e-01,
          0., 5.75902034e-03, 1.03094384e-01, 7.75201023e-02,
          8.80965516e-02, 1.10479176e-01, 8.11742246e-02, 1.56267926e-01,
          6.52120933e-02, 1.53122425e-01, 5.54649532e-02, 2.22721606e-01,
          4., 1., 0., 8., 3., 5., 2., 6., 0., 2., 1., 7., 5., 5., 1.,
          94., 0., 0., 0., 1., 0., 2., 0., 1., 0., 1., 6., 11., 0., 3.,
          8., 111., 0., 5.61920684e-43, 0. ]
      - [ 2.55229741e-01, 4.75409299e-01, 7.41707802e-01, 0.,
          6.55850649e-01, 5.36163986e-01, 0., 5.09367101e-02,
          1.02050126e-01, 2.62092482e-02, 6.79156110e-02, 9.77629542e-01,
          1.84255987e-01, 2.13087313e-02, 1.03578947e-01, 8.98766145e-02,
          8.69181827e-02, 9.89860818e-02, 8.14682394e-02, 8.88632331e-03,
          9.96550173e-02, 5.85524477e-02, 7.35752508e-02, 1.04413293e-01,
          1.04874924e-01, 1.77203611e-01, 7.75148273e-02, 1.63590997e-01,
          6.79459572e-02, 2.46877506e-01, 55., 9., 11., 2., 11., 6., 8.,
          6., 13., 8., 5., 2., 4., 1., 1., 2., 57., 5., 10., 6., 4., 0.,
          5., 6., 6., 6., 13., 4., 8., 5., 5., 4., 0., 5.61920684e-43,
          0., 0., 8.92510861e-02, 4.65160534e-02, 0., 3.59771103e-02,
          9.66610983e-02, 0., 0., 8.52637812e-02, 3.68585475e-02,
          6.67493522e-01, 8.75340700e-02, 6.22643158e-02, 2.36391768e-01,
          0., 8.08353648e-02, 7.76172355e-02, 7.00288787e-02, 0.,
          9.06874463e-02, 1.03006929e-01, 2.28800833e-01, 7.84576118e-01,
          7.88954347e-02, 9.51878056e-02, 2.65354067e-02, 0.,
          1.32680133e-01, 0., 0., 0., 1.13769621e-01 ]
      - [ 0., 6.95091635e-02, 1.95790201e-01, 0., 2.05269262e-01, 1.,
          2.67174184e-01, 2.10699663e-01, 1.02920115e-01, 1.42602876e-01,
          2.73762405e-01, 4.78574604e-01, 1.45648241e-01, 3.69242340e-01,
          4.08851326e-01, 0., 3.34726632e-01, 9.60245281e-02, 0.,
          1.74859002e-01, 5.41702747e-01, 0., 6.95091635e-02,
          1.96752623e-01, 1.48471639e-01, 3.76584977e-01, 5.87419748e-01,
          0., 5.16974449e-01, 7.94402480e-01, 0., 1.28736079e-01,
          4.63270366e-01, 0., 1.09937400e-01, 5.36873937e-01,
          1.47706971e-01, 1.65652156e-01, 1.09472975e-01, 0.,
          1.09096594e-01, 1.02310129e-01, 1.33587092e-01, 5.47122071e-03,
          1.06937706e-01, 7.13014379e-02, 7.55348280e-02, 1.01016760e-01,
          1.47275627e-01, 1.64293230e-01, 7.07246587e-02, 1.58343852e-01,
          6.32206500e-02, 2.09351301e-01, 56., 14., 9., 6., 11., 1., 1.,
          4., 7., 1., 1., 7., 5., 2., 1., 18., 34., 2., 14., 4., 4., 0.,
          3., 0., 12., 5., 21., 11., 5., 1., 3., 25., 0., 5.61920684e-43,
          0., 1.60024241e-01, 4.58320558e-01, 0., 1., 2.80796260e-01,
          1.07970260e-01, 0., 1.05960846e-01 ]
      - [ 4., 7., 9., 2., 3., 14., 8., 2., 0., 5.61920684e-43, 0., 0.,
          5.12214541e-01, 0., 5.01519680e-01, 0., 0., 3.42447788e-01,
          5.99248946e-01, 0., 0., 0., 0., 3.10607791e-01, 1.85846150e-01,
          1.34004071e-01, 4.08383012e-01, 6.00838482e-01, 0., 0.,
          6.03663206e-01, 2.26336107e-01, 8.95076767e-02, 3.79202902e-01,
          8.92178565e-02, 1.35573283e-01, 2.36859143e-01, 6.85307905e-02,
          3.91636074e-01, 1.19856879e-01, 2.35577330e-01, 6.44404963e-02,
          8.05956364e-01, 0., 6.64846376e-02, 4.10649180e-01, 0.,
          1.57921612e-01, 3.27051342e-01, 1.22862436e-01, 5.36159396e-01,
          2.11857602e-01, 0., 0., 1., 6.31036535e-02, 9.76493061e-02,
          7.41728127e-01, 1.77804694e-01, 5.34604117e-03, 1.05164267e-01,
          1.08465761e-01, 1.02094337e-01, 1.03616998e-01, 1.17788665e-01,
          4.42269864e-03, 1.00295618e-01, 7.23599419e-02, 6.34104013e-02,
          9.57237631e-02, 8.90075192e-02, 1.65446445e-01, 6.78026006e-02,
          1.61032423e-01, 6.31868020e-02, 2.07066387e-01, 39., 7., 10.,
          16., 12., 4., 0., 5., 10., 2., 3., 7., 11., 3., 1., 14., 36.,
          11., 7., 7., 11. ]
      - [ 6.98296353e-02, 1.69776574e-01, 5.84894940e-02, 2.36510038e-01,
          30., 2., 3., 16., 3., 0., 0., 2., 9., 0., 14., 16., 14., 0.,
          14., 21., 2., 0., 2., 1., 0., 0., 1., 1., 2., 3., 42., 29., 0.,
          0., 29., 32., 0., 5.61920684e-43, 0., 0., 6.52768016e-01, 0.,
          4.71629620e-01, 2.49086738e-01, 0., 2.07626894e-02,
          2.62025684e-01, 0., 4.43430357e-02, 8.98075774e-02,
          9.91540402e-02, 1.81944862e-01, 1., 0., 0., 2.54966766e-01,
          9.69855413e-02, 1.31255180e-01, 9.76318046e-02, 6.97830692e-02,
          0., 5.09160340e-01, 8.26799944e-02, 0., 6.17384426e-02,
          7.40679875e-02, 1.63293689e-01, 2.22049341e-01, 1.70421004e-02,
          4.43430357e-02, 2.44278282e-01, 8.27909485e-02, 8.93762410e-02,
          4.66805726e-01, 9.91540402e-02, 8.86860713e-02, 4.92393136e-01,
          8.50723609e-02, 2.23118104e-02, 6.48722172e-01, 0., 0.,
          1.53686821e-01, 1.33327231e-01, 4.45374735e-02, 4.41151977e-01,
          4.09022160e-02, 1.35315463e-01, 8.17370266e-02, 7.95701742e-02,
          6.57235160e-02, 6.24920465e-02, 5.70138209e-02, 2.23137392e-03,
          6.88747838e-02, 5.71802482e-02, 5.94189167e-02 ]
      - [ 35., 11., 12., 11., 13., 1., 1., 1., 8., 5., 4., 2., 17., 10.,
          3., 10., 18., 6., 11., 3., 7., 0., 2., 2., 10., 3., 29., 12.,
          5., 1., 18., 17., 0., 5.61920684e-43, 0., 1.11593023e-01,
          2.11732864e-01, 0., 2.11404845e-01, 7.05776215e-02, 0.,
          1.26088336e-01, 3.91565382e-01, 0., 6.59133196e-02,
          3.53249162e-01, 0., 2.55420178e-01, 3.70885581e-01, 0.,
          4.97087002e-01, 2.16423199e-01, 0., 5.18421717e-02,
          6.55646920e-01, 0., 5.14654778e-02, 4.62452859e-01, 0.,
          2.78247029e-01, 1.12747654e-01, 1.08490348e-01, 1.36469781e-01,
          1.47919953e-01, 7.89081827e-02, 4.99059148e-02, 1.84716925e-01,
          0., 1.58727452e-01, 6.05649352e-01, 2.05767363e-01,
          1.99623659e-01, 3.52130473e-01, 5.57965115e-02, 0.,
          3.55053157e-01, 0., 2.65125185e-02, 9.11327064e-01, 0., 0., 1.,
          1.06425375e-01, 1.68976769e-01, 1.04749657e-01, 8.21434259e-02,
          7.68146962e-02, 7.89973959e-02, 7.89081827e-02, 2.89032888e-03,
          7.39053935e-02, 0., 5.52212484e-02, 7.81081095e-02,
          7.80481845e-02, 1.69619769e-01, 7.07325563e-02 ]
      - [ 1.21941045e-01, 1.15402751e-01, 1.35661379e-01, 3.88862076e-03,
          1.04736567e-01, 1.26144320e-01, 7.29233325e-02, 1.07459724e-01,
          8.18447396e-02, 1.87187642e-01, 8.33930448e-02, 1.97531998e-01,
          6.83821738e-02, 2.56675422e-01, 37., 7., 10., 7., 6., 0., 10.,
          4., 5., 9., 0., 6., 4., 11., 6., 22., 8., 5., 7., 2., 1., 11.,
          5., 11., 7., 5., 24., 9., 3., 9., 6., 31., 0., 5.61920684e-43,
          0., 1.26245350e-01, 4.03648943e-01, 5.55633344e-02,
          1.77310824e-01, 2.96514094e-01, 1.07780077e-01, 7.68721998e-02,
          1.74413085e-01, 0., 1.98926665e-02, 4.20882404e-01,
          1.32159680e-01, 3.52530688e-01, 1.16813757e-01, 0.,
          3.60860407e-01, 9.08463359e-01, 0., 0., 4.36372638e-01,
          1.44725248e-01, 1.10819265e-01, 2.51522630e-01, 4.93961312e-02,
          3.88416722e-02, 4.40846145e-01, 8.19779634e-02, 5.13494492e-01,
          0., 0., 1.06813490e-01, 1.61382690e-01, 1.32568434e-01,
          1.12347879e-01, 7.71714628e-01, 6.20461442e-02, 2.99113870e-01,
          3.78096998e-01, 0., 1.56168967e-01, 4.23541307e-01,
          1.03249751e-01, 3.22664440e-01, 1., 0., 0., 4.42915767e-01,
          1.01689212e-01 ]
      - [ 2.88191568e-02, 1.22721821e-01, 9.01711807e-02, 9.60195214e-02,
          8.95570293e-02, 8.25977176e-02, 7.02086464e-02, 3.48321861e-03,
          8.01030770e-02, 8.15569684e-02, 4.28697094e-02, 8.79442915e-02,
          7.69364387e-02, 1.70075953e-01, 7.41837099e-02, 1.67928144e-01,
          6.28946871e-02, 2.32946232e-01, 40., 8., 6., 18., 11., 5., 3.,
          7., 8., 6., 1., 2., 6., 3., 2., 18., 36., 8., 10., 5., 6., 1.,
          2., 2., 6., 1., 11., 18., 4., 4., 8., 22., 0., 5.61920684e-43,
          0., 4.53671813e-02, 7.88680255e-01, 1.40086129e-01,
          2.46488467e-01, 4.66546297e-01, 0., 1.03498749e-01,
          1.92743793e-01, 0., 1.47209898e-01, 1.35579735e-01,
          1.27566770e-01, 7.59806573e-01, 9.54603314e-01, 0.,
          1.40072882e-01, 6.36134088e-01, 1.40235975e-01, 2.29093865e-01,
          5.33709168e-01, 6.09526597e-02, 1.32341087e-01, 2.63585687e-01,
          0., 3.93500209e-01, 4.08932060e-01, 0., 5.24666965e-01,
          5.16528308e-01, 1.31889269e-01, 1.71553403e-01, 5.45992732e-01,
          7.33244345e-02, 6.55833706e-02, 9.35268402e-02, 3.21937382e-01,
          8.37393105e-01, 1., 0., 4.45726246e-01, 9.28507224e-02, 0.,
          9.83750522e-02, 6.83376074e-01 ]
      - [ 8.50082457e-01, 0., 2.06234500e-01, 4.15386289e-01, 0.,
          2.16650441e-01, 2.76789635e-01, 1.17775284e-01, 4.58060294e-01,
          5.44912338e-01, 1.40366226e-01, 1.10791683e-01, 1.01306789e-01,
          8.91040787e-02, 1.04524657e-01, 9.94617641e-02, 8.56840387e-02,
          4.98780981e-03, 8.03191140e-02, 4.69306000e-02, 7.84181729e-02,
          9.08426791e-02, 1.12962164e-01, 1.45649076e-01, 6.29245862e-02,
          1.26771852e-01, 5.98234497e-02, 1.98938474e-01, 28., 13., 13.,
          14., 6., 5., 6., 4., 11., 2., 2., 8., 27., 2., 1., 2., 19., 8.,
          8., 8., 7., 0., 6., 3., 11., 6., 8., 19., 6., 3., 25., 7., 0.,
          5.61920684e-43, 0., 0., 5.12488365e-01, 0., 2.31978521e-01,
          4.91593719e-01, 0., 5.68468980e-02, 7.36870766e-02, 0.,
          8.84199813e-02, 1.08501785e-01, 3.03980947e-01, 0.,
          4.04184163e-01, 1.45007789e-01, 1.77429780e-01, 1., 0.,
          5.20807020e-02, 0., 1.83790147e-01, 0., 2.16134667e-01,
          4.43226248e-02, 5.08454107e-02, 3.02245706e-01, 0.,
          1.06881320e-01, 4.28535044e-01, 0., 1.39170945e-01,
          1.34891093e-01, 0., 3.23680304e-02 ]
      - [ 12., 9., 6., 4., 9., 17., 7., 9., 6., 6., 7., 9., 8., 14., 2.,
          19., 0., 5.61920684e-43, 0., 0., 6.14412129e-01,
          1.56794772e-01, 9.79048163e-02, 4.25433844e-01, 0., 0.,
          2.51200885e-01, 2.14747518e-01, 2.18638882e-01, 9.93592143e-02,
          5.54625690e-01, 1., 6.41529441e-01, 1.29660636e-01,
          2.47345045e-01, 9.98418689e-01, 1.72751203e-01, 7.01207519e-02,
          3.72006834e-01, 0., 2.06810296e-01, 4.05819982e-01,
          2.67375767e-01, 2.99547464e-01, 6.45611525e-01, 2.86806732e-01,
          5.51603138e-01, 2.95432925e-01, 0., 1.51242271e-01,
          2.81229466e-01, 1.09223507e-01, 1.92484304e-01, 3.04574907e-01,
          0., 2.09291533e-01, 4.71834272e-01, 1.78395867e-01,
          5.40707707e-01, 8.68188143e-01, 0., 1.77000582e-01,
          1.26411989e-01, 1.45624936e-01, 1.51005164e-01, 2.99630105e-01,
          3.12490374e-01, 1.47925392e-02, 1.03190757e-01, 1.25276327e-01,
          1.10581592e-01, 9.58323553e-02, 8.63756016e-02, 5.53282769e-03,
          1.14538804e-01, 1.17398992e-01, 8.54376256e-02, 1.00853108e-01,
          1.03135616e-01, 1.88998312e-01, 8.32610205e-02, 1.84317142e-01,
          6.67694360e-02, 2.73313731e-01, 55., 15., 13., 5., 17., 4., 6.,
          1., 10., 7., 4., 1., 4. ]
      - [ 5.02165139e-01, 0., 2.49243855e-01, 2.71634221e-01, 0., 0.,
          6.48082912e-01, 1.12129979e-01, 6.23109639e-02, 4.70384836e-01,
          3.11559558e-01, 3.34431738e-01, 8.03644598e-01, 2.83627927e-01,
          0., 3.08546215e-01, 1.22983404e-01, 0., 4.26205605e-01, 0.,
          1.64535254e-01, 8.05749476e-01, 2.35414997e-01, 1.39331549e-01,
          6.33091271e-01, 2.67788887e-01, 6.23109639e-02, 1.77157879e-01,
          9.96284261e-02, 0., 2.78833210e-01, 1.06875464e-01, 0.,
          8.36832523e-01, 2.42483556e-01, 3.59726757e-01, 5.84529877e-01,
          1.90925598e-01, 0., 6.63369417e-01, 0., 5.15553206e-02,
          2.84381956e-01, 1.55481532e-01, 6.23109639e-02, 1.,
          2.03560218e-01, 1.28245547e-01, 1.09714381e-01, 9.27928016e-02,
          1.03851609e-01, 9.47138444e-02, 7.42039457e-02, 7.47178565e-04,
          8.18751901e-02, 9.36217457e-02, 7.22892955e-02, 1.00418285e-01,
          9.93018299e-02, 1.94718212e-01, 8.59284699e-02, 1.99770570e-01,
          7.50985816e-02, 2.58363485e-01, 44., 15., 10., 6., 14., 1., 7.,
          8., 10., 4., 4., 1., 9., 5., 5., 1., 42., 11., 9., 5., 11., 2.,
          8., 6., 8., 4., 10., 6., 6., 2., 4., 10., 0. ]
      - [ 2.49395370e-01, 3.46766531e-01, 4.63414453e-02, 1.39218196e-02,
          2.70446420e-01, 9.45094749e-02, 2.03735515e-01, 8.55908990e-01,
          2.29488134e-01, 3.44315290e-01, 1.02492489e-01, 7.94265643e-02,
          8.26345906e-02, 8.84091556e-02, 6.34274036e-02, 3.92808951e-03,
          9.09142867e-02, 5.70056364e-02, 8.68446752e-02, 8.44654590e-02,
          9.32419822e-02, 1.85503110e-01, 7.96781108e-02, 1.83129996e-01,
          6.82860464e-02, 2.37825975e-01, 30., 11., 9., 8., 15., 2., 10.,
          2., 10., 5., 6., 5., 9., 3., 0., 19., 12., 5., 10., 7., 5., 3.,
          3., 7., 10., 4., 24., 9., 5., 5., 11., 24., 0., 5.61920684e-43,
          0., 2.39184543e-01, 4.48365510e-01, 1.16094440e-01,
          5.18385947e-01, 2.31193490e-02, 1.12649791e-01, 2.88718164e-01,
          7.30815768e-01, 0., 1.05212383e-01, 5.11006534e-01,
          7.84206837e-02, 3.71474028e-01, 4.96530205e-01, 0.,
          4.21603739e-01, 9.92436036e-02, 2.12132573e-01, 1.87976658e-01,
          7.37227321e-01, 1.23070277e-01, 0., 1., 1.06663659e-01,
          2.42366642e-01, 1.36955827e-01, 2.34682098e-01, 2.10424766e-01,
          3.43463421e-01, 1.50736287e-01, 2.55327225e-01, 4.40377861e-01,
          0., 1.18363932e-01, 8.09972525e-01, 0. ]
      - [ 6.07250690e-01, 1.01216301e-01, 3.59174125e-02, 3.27320158e-01,
          1.34058982e-01, 2.99904168e-01, 4.19517517e-01, 7.84585252e-02,
          5.47764540e-01, 8.11155558e-01, 2.32693836e-01, 1.41332999e-01,
          1.20558426e-01, 1.30301908e-01, 1.16785362e-01, 1.21702187e-01,
          9.03263539e-02, 1.03183175e-02, 1.04531348e-01, 8.92515257e-02,
          8.70706514e-02, 1.00048922e-01, 1.10250868e-01, 2.00454935e-01,
          8.80023763e-02, 1.96410283e-01, 7.17691109e-02, 2.96647638e-01,
          66., 14., 13., 3., 12., 2., 3., 1., 15., 0., 1., 1., 6., 5.,
          1., 1., 40., 6., 13., 5., 5., 2., 2., 1., 11., 4., 30., 6., 7.,
          1., 11., 0., 0., 5.61920684e-43, 0., 2.80704051e-01,
          1.34125739e-01, 0., 1.94418103e-01, 0., 0., 1.35009617e-01,
          5.65491080e-01, 2.57952839e-01, 1.29612073e-01, 9.23635781e-01,
          0., 0., 5.56521416e-01, 1.27119914e-01, 7.86245391e-02,
          2.64402121e-01, 0., 0., 3.89284313e-01, 0., 2.39454165e-01,
          8.02201569e-01, 1.82043597e-01, 2.74522752e-01, 1.29390389e-01,
          2.03361169e-01, 5.55360317e-01, 3.46527964e-01, 0.,
          9.46491361e-02, 7.36858070e-01, 1.85494319e-01, 6.48060367e-02 ]
      - [ 4.96224970e-01, 0., 3.29718292e-01, 2.41144389e-01,
          4.19164747e-01, 1.66472018e-01, 1.44052744e-01, 4.59570229e-01,
          9.12770629e-01, 0., 3.39134075e-02, 1., 1.63273931e-01,
          2.75482208e-01, 9.49545383e-01, 2.67260700e-01, 1.35653630e-01,
          7.13077784e-01, 0., 2.64089376e-01, 3.58249575e-01, 0.,
          6.78268149e-02, 1.93626434e-01, 1.51665375e-01, 1.41239166e-01,
          1.42079607e-01, 7.58326873e-02, 3.83910418e-01, 5.14722288e-01,
          2.20481947e-01, 4.78647143e-01, 4.54134375e-01, 0.,
          2.06354603e-01, 8.45435381e-01, 2.40912318e-01, 5.36526740e-03,
          1.40552104e-01, 1.16847552e-01, 1.03662454e-01, 1.02795154e-01,
          8.80734771e-02, 1.55715561e-02, 9.95510146e-02, 0.,
          7.70237073e-02, 1.05791345e-01, 1.05207659e-01, 2.00243622e-01,
          8.85861069e-02, 2.03878433e-01, 7.95874372e-02, 2.71811098e-01,
          62., 9., 9., 8., 13., 1., 2., 6., 6., 6., 0., 1., 6., 5., 0.,
          10., 34., 9., 10., 7., 13., 3., 1., 1., 10., 4., 16., 6., 6.,
          3., 4., 17., 0., 5.61920684e-43, 0., 0., 0., 0.,
          2.33401015e-01, 6.64757907e-01, 0., 0., 5.79648793e-01 ]
      - [ 0., 1.20266907e-01, 2.55175568e-02, 1.41512394e-01, 1., 0.,
          1.71374515e-01, 2.30106413e-01, 0., 7.22986236e-02,
          1.88996419e-01, 0., 7.95807615e-02, 1.37695581e-01,
          5.09472303e-02, 5.44999260e-03, 6.42157644e-02, 7.40057677e-02,
          6.60831258e-02, 7.70209059e-02, 0., 4.45969496e-03,
          7.50156268e-02, 7.18557537e-02, 7.95807615e-02, 7.43543804e-02,
          3.82323936e-02, 1.51975527e-01, 6.27415776e-02, 1.50503859e-01,
          5.61648794e-02, 1.97640985e-01, 8., 1., 0., 1., 0., 0., 0., 0.,
          1., 7., 6., 12., 0., 0., 14., 94., 4., 2., 0., 0., 1., 1., 0.,
          0., 0., 1., 3., 9., 0., 7., 8., 108., 0., 5.61920684e-43, 0.,
          4.85802107e-02, 3.80558401e-01, 0., 3.63212734e-01,
          1.99778512e-01, 0., 1.23409249e-01, 3.43649298e-01,
          1.40093127e-02, 2.48087481e-01, 3.05529058e-01, 9.25039053e-02,
          0., 6.98460996e-01, 4.28108454e-01, 2.86559194e-01,
          8.86026770e-02, 7.57021531e-02, 1.31852299e-01, 4.06491280e-01,
          4.91320193e-01, 7.08821416e-02, 7.07613289e-01, 2.03257263e-01,
          0., 2.42035002e-01, 4.19217229e-01, 7.43290246e-01,
          2.26265773e-01, 0. ]
      - [ 9.40395221e-02, 6.66897651e-03, 9.17219222e-02, 6.79312572e-02,
          6.03411980e-02, 9.90925729e-02, 8.01041797e-02, 1.72685057e-01,
          7.37453252e-02, 1.59347430e-01, 6.87409714e-02, 2.22669974e-01,
          30., 3., 3., 17., 3., 0., 6., 4., 4., 5., 1., 9., 12., 4., 10.,
          33., 10., 4., 2., 2., 3., 4., 2., 5., 2., 3., 17., 21., 1., 6.,
          18., 44., 0., 5.61920684e-43, 0., 2.91296810e-01,
          4.07815129e-01, 3.58790100e-01, 3.29553872e-01, 3.07533830e-01,
          0., 8.01325887e-02, 2.20895767e-01, 2.74752587e-01,
          1.97007462e-01, 4.71099883e-01, 0., 3.66170973e-01,
          4.25310999e-01, 1.17811278e-01, 1.26927897e-01, 5.42672515e-01,
          0., 1.33609340e-01, 5.72692931e-01, 6.69675246e-02,
          3.14353079e-01, 9.45124447e-01, 3.68217647e-01, 5.59882641e-01,
          3.92327905e-01, 1.63756639e-01, 7.65476882e-01, 3.70752066e-01,
          0., 1.27960458e-01, 7.39557803e-01, 1.37166232e-01,
          2.97513921e-02, 6.02859855e-01, 1.50976151e-01, 6.21589899e-01,
          3.87991101e-01, 2.49490991e-01, 1.46468386e-01, 3.74627084e-01,
          0., 1.44547164e-01, 6.61081016e-01, 1.85822546e-01, 0., 1.,
          2.51929909e-01, 1.35216201e-02, 1.24111168e-01 ]
      - [ 1.27915934e-01, 1.56735823e-01, 6.14097893e-01, 1.46082580e-01,
          7.45859563e-01, 9.64628398e-01, 1.07637942e-01, 1.65706798e-01,
          3.31602365e-01, 1.30872831e-01, 3.62131864e-01, 1.05566204e-01,
          0., 2.92453736e-01, 1., 0., 6.64919972e-01, 6.13066733e-01, 0.,
          8.50019380e-02, 0., 0., 1.52056083e-01, 4.66927707e-01,
          7.35767782e-01, 5.60322046e-01, 9.85963285e-01, 0.,
          4.69409794e-01, 8.99720609e-01, 1.49254516e-01, 1.78602248e-01,
          1.01892740e-01, 0., 2.47091129e-01, 1.64935261e-01,
          2.59050339e-01, 1.48618490e-01, 1.14528976e-01, 1.46082580e-01,
          1.06539115e-01, 1.00399919e-01, 8.56308118e-02, 7.33459508e-03,
          9.35228392e-02, 1.30872831e-01, 9.64234099e-02, 1.53200224e-01,
          1.24748230e-01, 1.89616919e-01, 8.01516399e-02, 1.83564708e-01,
          7.08460584e-02, 2.73404807e-01, 43., 12., 6., 11., 12., 2., 4.,
          0., 11., 2., 6., 2., 16., 4., 5., 8., 19., 6., 19., 2., 6., 3.,
          4., 6., 13., 5., 15., 9., 7., 4., 15., 11., 0., 5.61920684e-43,
          0., 1.57968789e-01, 5.99666953e-01, 0., 2.70939469e-01,
          2.04896241e-01, 0., 0., 1.03946805e-01 ]
      - [ 0., 1.41959012e-01, 1.82972372e-01, 0., 1.19573623e-01, 0.,
          9.85248461e-02, 1.36824593e-01, 3.80919755e-01, 2.70382036e-02,
          4.38461639e-02, 6.04716361e-01, 3.98616344e-02, 1.17269658e-01,
          1.33628607e-01, 1.80751801e-01, 7.97135383e-02, 2.77740695e-02,
          1.00321911e-01, 1.75797552e-01, 4.15952504e-01, 8.05123225e-02,
          3.94917578e-01, 4.22277510e-01, 7.62775466e-02, 0.,
          2.70382036e-02, 0., 9.96419266e-02, 8.08344185e-02,
          4.45612259e-02, 1.53760150e-01, 1., 7.29296654e-02,
          2.38864884e-01, 3.12115908e-01, 2.05373347e-01, 2.22806130e-02,
          0., 0., 7.97135383e-02, 6.97938129e-02, 1.30346820e-01,
          7.96734840e-02, 6.37971386e-02, 6.01600595e-02, 5.03780581e-02,
          5.58399335e-02, 5.35854213e-02, 4.02156124e-03, 5.72731979e-02,
          4.51879501e-02, 3.78642604e-02, 5.94674349e-02, 5.33935428e-02,
          1.87221050e-01, 7.80161917e-02, 1.84240431e-01, 6.55320287e-02,
          2.63961315e-01, 30., 10., 10., 11., 8., 5., 5., 7., 9., 5., 5.,
          4., 15., 10., 6., 4., 9., 5., 8., 8., 5., 1., 5., 6., 9., 7.,
          21., 10., 9., 4., 18., 19., 0., 5.61920684e-43, 0.,
          9.71446633e-02, 3.22907209e-01 ]
      - [ 5.45460358e-02, 9.40449685e-02, 2.94674039e-01, 1.00440637e-03,
          9.32339504e-02, 8.59008878e-02, 8.65942761e-02, 7.83145204e-02,
          6.43581897e-02, 9.25899670e-03, 8.40780064e-02, 8.08760449e-02,
          5.91075122e-02, 1.19619630e-01, 8.89145881e-02, 1.96161449e-01,
          8.71341974e-02, 2.02092856e-01, 7.97017366e-02, 2.38372579e-01,
          33., 16., 8., 4., 7., 7., 10., 8., 10., 7., 6., 4., 7., 4., 4.,
          9., 18., 9., 12., 3., 8., 8., 1., 10., 13., 3., 16., 6., 1.,
          8., 6., 22., 0., 5.61920684e-43, 0., 0., 4.14670527e-01, 0.,
          2.30941445e-01, 5.63498080e-01, 0., 4.80095996e-03,
          9.67664346e-02, 0., 0., 0., 5.26466370e-02, 8.43334049e-02,
          3.67350727e-01, 6.40527904e-02, 8.58821794e-02, 5.92372894e-01,
          0., 7.47625232e-02, 1.35688648e-01, 7.56010339e-02,
          3.84076796e-02, 8.28187242e-02, 1.54611290e-01, 1.43493697e-01,
          5.17705679e-02, 7.40072280e-02, 4.60638553e-01, 6.75131321e-01,
          0., 0., 5.30595295e-02, 0., 1.72834545e-01, 2.22734094e-01,
          1.00885175e-01, 0., 1.87263399e-01, 4.89346199e-02,
          1.75446287e-01, 1., 7.02653080e-02 ]
      - [ 6.31392360e-01, 1.25329182e-01, 2.70806223e-01, 9.94536161e-01,
          0., 3.36974710e-01, 3.78566176e-01, 0., 2.53314465e-01, 0.,
          6.38213694e-01, 3.15368664e-03, 1.09734058e-01, 1.25329182e-01,
          9.70687568e-02, 1.00166783e-01, 1.02773651e-01, 1.45896589e-02,
          1.17849462e-01, 9.42433327e-02, 7.83844143e-02, 1.21889025e-01,
          1.05518863e-01, 1.81931287e-01, 7.78716728e-02, 1.66165143e-01,
          6.98397085e-02, 2.51859248e-01, 40., 3., 4., 12., 5., 1., 4.,
          5., 10., 5., 5., 8., 16., 1., 4., 21., 7., 5., 1., 2., 4., 21.,
          2., 2., 2., 2., 20., 17., 1., 5., 23., 30., 0., 5.61920684e-43,
          0., 1.36322275e-01, 2.47903466e-01, 9.11694989e-02,
          4.62726831e-01, 4.74468112e-01, 0., 0., 0., 0., 1.93510070e-01,
          3.11173648e-01, 4.18269098e-01, 0., 1., 0., 2.04302102e-01,
          4.58436787e-01, 0., 2.03319088e-01, 1.12566113e-01, 0.,
          1.53365523e-01, 2.03709856e-01, 1.98328793e-01, 1.88323066e-01,
          4.70193475e-01, 8.80145580e-02, 7.31582105e-01, 3.03355813e-01,
          0., 9.53437760e-02, 1.79877728e-01, 7.49154985e-02,
          1.71326414e-01 ]
      - [ 4.78568643e-01, 2.46158302e-01, 6.02690816e-01, 8.58392417e-01,
          1.29370198e-01, 1.49906635e-01, 5.87491393e-01, 0.,
          9.91198495e-02, 3.16442877e-01, 0., 3.79706532e-01,
          3.91891062e-01, 2.13808641e-01, 4.80535150e-01, 9.89661217e-02,
          0., 1.29945770e-01, 3.19638908e-01, 1.16750151e-01,
          1.24392539e-01, 5.54595709e-01, 1.30971685e-01, 6.62641525e-01,
          3.32194567e-01, 1.46538153e-01, 1.55386493e-01, 6.88869536e-01,
          5.31488694e-02, 7.10814521e-02, 1., 0., 1.98733464e-01,
          8.47689748e-01, 2.01624915e-01, 2.31262535e-01, 1.04904309e-01,
          1.18276812e-01, 1.13376126e-01, 1.02753021e-01, 1.03963085e-01,
          4.61390987e-03, 1.12184130e-01, 1.16750151e-01, 8.44491720e-02,
          1.06661096e-01, 1.04217865e-01, 1.81169346e-01, 7.58146569e-02,
          1.78091139e-01, 6.97707459e-02, 2.30993629e-01, 68., 7., 11.,
          10., 7., 0., 1., 3., 9., 3., 2., 6., 4., 1., 3., 9., 42., 7.,
          13., 6., 13., 8., 5., 2., 10., 9., 2., 10., 3., 3., 0., 11.,
          0., 5.61920684e-43, 0., 3.08968186e-01, 5.00089288e-01, 0.,
          6.81862473e-01, 0., 1.09191850e-01, 6.16010278e-02,
          7.85735667e-01, 9.97539610e-02, 7.94071257e-02 ]
      - [ 3.67921978e-01, 6.21716619e-01, 8.16699266e-02, 0.,
          1.34027049e-01, 1.11689214e-02, 4.00843143e-01, 1.41960338e-01,
          0., 1.22467466e-01, 1., 1.17982201e-01, 8.18649411e-01,
          3.32942784e-01, 1.20004117e-01, 0., 2.69721448e-01,
          1.02616683e-01, 7.42022768e-02, 2.70179242e-01, 0.,
          8.32937509e-02, 8.30492675e-02, 1.22386701e-01, 9.27881524e-02,
          8.68887901e-02, 6.55329376e-02, 0., 1.05949312e-01,
          5.68287857e-02, 7.42211342e-02, 1.12103507e-01, 0.,
          1.70607165e-01, 7.32484832e-02, 1.69007719e-01, 6.63748905e-02,
          2.21930265e-01, 11., 7., 9., 10., 10., 11., 2., 13., 7., 5.,
          7., 9., 7., 6., 5., 25., 20., 2., 3., 5., 3., 8., 4., 4., 3.,
          3., 13., 15., 7., 7., 7., 40., 0., 5.61920684e-43, 0.,
          1.03614181e-01, 5.37565887e-01, 1.03818484e-01, 3.26423228e-01,
          4.34782177e-01, 0., 1.16198279e-01, 8.77802595e-02, 0., 0.,
          1.21682562e-01, 0., 8.77802595e-02, 6.12871706e-01,
          8.19700360e-02, 5.61793670e-02, 7.06210136e-01, 0., 0.,
          4.08365518e-01, 5.96905798e-02, 4.21345271e-02, 5.40887713e-01,
          0. ]
      - [ 0., 1.10854950e-37, 0., 1.10859434e-37, 0., 1.10863919e-37, 0.,
          1.10868403e-37, 0., 1.10872887e-37, 0., 1.10877371e-37, 0.,
          1.10881855e-37, 0., 1.10886339e-37, 0., 1.10890824e-37, 0.,
          1.10895308e-37, 0., 1.10899792e-37, 0., 1.10904276e-37, 0.,
          1.10908760e-37, 0., 1.10913244e-37, 0., 1.10917728e-37, 0.,
          1.10922213e-37, 0., 1.10926697e-37, 0., 1.10931181e-37, 0.,
          1.10935665e-37, 0., 1.10940149e-37, 0., 1.10944633e-37, 0.,
          1.10949118e-37, 0., 1.10953602e-37, 0., 1.10958086e-37, 0.,
          1.10962570e-37, 0., 1.10967054e-37, 0., 1.10971538e-37, 0.,
          1.10976022e-37, 0., 1.10980507e-37, 0., 1.10984991e-37, 0.,
          1.10989475e-37, 0., 1.10993959e-37, 0., 1.10998443e-37, 0.,
          1.11002927e-37, 0., 1.11007412e-37, 0., 1.11011896e-37, 0.,
          1.11016380e-37, 0., 1.11020864e-37, 0., 1.11025348e-37, 0.,
          1.11029832e-37, 0., 1.11034316e-37, 0., 1.11038801e-37, 0.,
          1.11043285e-37, 0., 1.11047769e-37, 0., 1.11052253e-37, 0.,
          1.11056737e-37, 0., 1.11061221e-37, 0., 1.11065706e-37, 0. ]
      - [ 8.41865018e-02, 1.83893785e-01, 7.41319954e-02, 1.86830714e-01,
          6.51528239e-02, 2.42708668e-01, 34., 13., 7., 13., 9., 2., 7.,
          4., 9., 2., 2., 6., 12., 7., 4., 13., 16., 3., 10., 5., 4., 2.,
          5., 1., 9., 5., 22., 17., 4., 2., 17., 22., 0., 5.61920684e-43,
          0., 0., 5.25532484e-01, 9.77783576e-02, 3.12536418e-01,
          2.38674819e-01, 0., 3.99974920e-02, 7.95467123e-02,
          5.70051968e-02, 5.69564551e-02, 4.02315855e-01, 3.39134693e-01,
          2.13319972e-01, 3.74156177e-01, 0., 1.06659986e-01,
          5.16982734e-01, 0., 2.37140730e-01, 3.97944093e-01, 0.,
          1.92765296e-01, 5.04319012e-01, 7.45309293e-02, 0.,
          7.60424614e-01, 9.52896252e-02, 8.91610831e-02, 7.66799748e-02,
          8.43221247e-02, 1.33324981e-01, 5.15305102e-01, 0., 0.,
          1.51761144e-01, 2.04380453e-01, 1.06659986e-01, 5.67218304e-01,
          1.53052792e-01, 4.16668862e-01, 1., 4.76138331e-02, 0.,
          3.46845895e-01, 0., 0., 1.22770794e-01, 0., 9.99937393e-03,
          8.90932679e-02, 8.65301937e-02, 1.02780700e-01, 8.72541666e-02,
          6.59679770e-02, 4.41358285e-03, 8.93094540e-02 ]
      - [ 9., 0., 1., 7., 3., 0., 1., 2., 6., 0., 11., 27., 6., 3., 30.,
          38., 0., 5.61920684e-43, 0., 3.46179396e-01, 5.47411263e-01,
          0., 5.56389630e-01, 1.75565571e-01, 0., 0., 4.64156151e-01,
          8.96901935e-02, 1.42270133e-01, 1.19707175e-01, 9.73143950e-02,
          1.02042034e-01, 1., 0., 2.52102077e-01, 2.65122294e-01,
          2.72087697e-02, 8.56548101e-02, 3.41569781e-01, 0.,
          3.07006359e-01, 2.91011840e-01, 2.76493073e-01, 3.71284992e-01,
          4.85817730e-01, 0., 3.76770586e-01, 4.53686446e-01, 0., 0.,
          9.82839912e-02, 8.57166052e-02, 1.19364895e-01, 4.43810463e-01,
          9.81173366e-02, 5.11738360e-01, 7.44317412e-01, 2.37968385e-01,
          3.88266206e-01, 6.21072829e-01, 0., 9.90985110e-02,
          5.46374798e-01, 2.14406386e-01, 0., 1.75762773e-01, 0.,
          4.12150053e-03, 1.06828704e-01, 1.18984193e-01, 1.04901902e-01,
          8.91439468e-02, 2.72087697e-02, 2.19944445e-03, 9.66923162e-02,
          9.74532962e-02, 9.47735682e-02, 9.36629325e-02, 9.43849534e-02,
          1.77860066e-01, 7.66011178e-02, 1.84983566e-01, 6.37259409e-02,
          2.47127131e-01, 25., 16., 11., 4., 11., 2., 4., 10., 9., 2.,
          4., 4., 0. ]
      - [ 1.44379124e-01, 0., 0., 1.81136966e-01, 3.10425729e-01,
          1.13611028e-01, 5.67507327e-01, 2.41762176e-01, 2.29476228e-01,
          7.46269047e-01, 2.43809983e-01, 2.80518472e-01, 1.69573262e-01,
          4.76506911e-02, 0., 1.69916824e-01, 0., 7.03231841e-02,
          8.65618438e-02, 1.04630642e-01, 8.27753618e-02, 8.10416415e-02,
          7.68998638e-02, 4.32106387e-03, 8.07704329e-02, 5.64742759e-02,
          6.94490001e-02, 1.04609437e-01, 1.07613511e-01, 1.74496979e-01,
          7.64189512e-02, 1.74327284e-01, 6.58329129e-02, 2.61425376e-01,
          25., 11., 8., 8., 12., 5., 4., 15., 11., 4., 5., 3., 7., 2.,
          1., 23., 15., 5., 7., 7., 9., 3., 3., 6., 7., 5., 15., 12., 5.,
          4., 8., 33., 0., 5.61920684e-43, 0., 0., 0., 0.,
          2.70696998e-01, 0., 1.35381535e-01, 4.52041961e-02,
          4.01523858e-01, 0., 1.59316450e-01, 2.63387352e-01, 0.,
          9.02323276e-02, 0., 0., 1.83284417e-01, 0., 4.51381877e-02,
          2.82274008e-01, 7.69968212e-01, 0., 4.13094878e-01, 0.,
          9.04792547e-02, 7.33137652e-02, 0., 0., 2.25580826e-01 ]
      - [ 2.75501192e-01, 7.91008249e-02, 1.49766237e-01, 2.46707976e-01,
          0., 1.25939846e-01, 6.18753374e-01, 0., 2.47829035e-01,
          4.25282270e-01, 1.66146919e-01, 6.58544064e-01, 1.62558466e-01,
          0., 4.20843750e-01, 6.26607180e-01, 0., 8.90890211e-02,
          7.96266258e-01, 0., 1.37859017e-01, 6.73110783e-01,
          1.27474114e-01, 2.67909974e-01, 3.97498161e-01, 1.49766237e-01,
          3.73466551e-01, 3.42361152e-01, 0., 1.57736912e-01,
          4.96578544e-01, 9.42103490e-02, 0., 4.25341606e-01, 0.,
          2.00932488e-01, 5.85892439e-01, 1.03864476e-01, 3.62561047e-01,
          7.47508943e-01, 0., 5.46301231e-02, 3.91504169e-01,
          1.13724872e-01, 1.36758626e-01, 1., 3.83531719e-01,
          9.31131281e-03, 1.42145023e-01, 1.10910513e-01, 1.08886458e-01,
          1.09065853e-01, 0., 5.34244906e-03, 1.00134894e-01,
          1.03967607e-01, 7.46352449e-02, 9.01333764e-02, 1.12858795e-01,
          1.89755499e-01, 8.23551267e-02, 1.97827712e-01, 7.53959268e-02,
          2.55991369e-01, 19., 16., 8., 3., 10., 5., 11., 6., 8., 3., 4.,
          8., 5., 8., 8., 22., 11., 11., 2., 3., 8., 11., 6., 19., 5.,
          3., 6., 3., 5., 13., 2., 36., 0. ]
      - [ 11., 3., 8., 4., 5., 3., 13., 5., 4., 12., 4., 1., 4., 15., 0.,
          5.61920684e-43, 0., 1.53882638e-01, 3.31185549e-01,
          2.61508107e-01, 3.47221553e-01, 6.22036874e-01, 0.,
          9.28490683e-02, 1.00365296e-01, 0., 4.25384641e-02,
          4.14743394e-01, 0., 1.40973449e-01, 4.03643042e-01,
          2.55076110e-01, 3.44092041e-01, 8.56812298e-01, 0.,
          7.27708340e-02, 2.67986536e-01, 2.96394944e-01, 0.,
          5.80467582e-01, 1.43158704e-01, 0., 7.40070224e-01, 0.,
          2.77461410e-01, 6.27433836e-01, 0., 4.11726534e-01,
          4.75320891e-02, 0., 1.40950888e-01, 1.93181038e-01,
          2.84209996e-01, 7.43032455e-01, 9.06001389e-01, 1.41774952e-01,
          3.95972908e-01, 1., 1.17003940e-01, 4.21562083e-02, 0., 0., 0.,
          3.31352890e-01, 0., 1.29736066e-01, 1.19045004e-01,
          1.09726526e-01, 1.13729000e-01, 1.00202672e-01, 1.17003940e-01,
          6.66131917e-03, 1.03970975e-01, 9.87983122e-02, 6.11631162e-02,
          9.49840546e-02, 1.42456234e-01, 1.72326371e-01, 7.15041682e-02,
          1.80229142e-01, 6.10502549e-02, 2.38851979e-01, 0., 1., 0., 1.,
          2., 15., 0., 10., 2., 4., 5., 9., 4., 7., 10. ]
      - [ 9.10354033e-02, 8.40944052e-02, 8.70313868e-02, 8.99768695e-02,
          7.05679506e-02, 4.40625660e-03, 7.58891404e-02, 8.35425481e-02,
          6.50428012e-02, 1.01252913e-01, 5.91759831e-02, 1.59903601e-01,
          6.48803934e-02, 1.47055432e-01, 5.70745394e-02, 2.45747924e-01,
          39., 8., 14., 20., 11., 1., 1., 2., 7., 5., 1., 4., 16., 1.,
          2., 12., 6., 7., 5., 4., 3., 5., 5., 4., 4., 3., 31., 24., 5.,
          6., 19., 13., 0., 5.61920684e-43, 0., 1.61964104e-01,
          5.79786301e-01, 0., 6.19444132e-01, 0., 0., 0., 7.94021606e-01,
          0., 2.57950515e-01, 8.79918694e-01, 3.23928207e-01,
          1.61964104e-01, 5.21242082e-01, 1.37893528e-01, 5.51252007e-01,
          2.02662349e-01, 0., 1.49845868e-01, 8.83033931e-01,
          8.64888653e-02, 1.44865096e-01, 7.68540263e-01, 4.39583629e-01,
          2.90857553e-01, 3.74747723e-01, 1.06319070e-01, 6.17347956e-01,
          7.54294634e-01, 0., 1.12059079e-01, 4.66940105e-01,
          1.16521671e-01, 1.44865096e-01, 3.07736933e-01, 7.61312693e-02,
          1.44865096e-01, 4.60491121e-01, 0., 3.83811414e-01,
          6.99815691e-01, 4.43845615e-02, 1.50669396e-01, 1.,
          2.71917462e-01, 0. ]
      - [ 0., 2.82393634e-01, 2.31965467e-01, 1.77958697e-01,
          8.33139569e-02, 2.88644433e-01, 0., 2.05209583e-01,
          2.48561710e-01, 0., 4.16569784e-02, 9.40537453e-01,
          8.78388435e-02, 5.17590046e-01, 3.70698959e-01, 1.50218934e-01,
          2.22386867e-01, 3.55390787e-01, 1.72781110e-01, 1.27879649e-01,
          8.92200887e-01, 1.39842987e-01, 8.33139569e-02, 8.72256041e-01,
          1.74574554e-01, 1.09349571e-01, 3.98406655e-01, 0.,
          2.49941885e-01, 3.13001961e-01, 2.40390554e-01, 0.,
          3.94131720e-01, 0., 8.33139569e-02, 1., 1.20306522e-01,
          3.15869302e-01, 4.64026719e-01, 3.35404992e-01, 1.72293290e-01,
          7.46335387e-01, 0., 0., 9.06448126e-01, 0., 3.24724525e-01,
          4.72562641e-01, 1.57186985e-01, 5.69861662e-03, 1.33190706e-01,
          1.65895656e-01, 9.09920037e-02, 1.31028667e-01, 1.03292912e-01,
          3.74257565e-03, 1.22067116e-01, 1.39842987e-01, 8.88349041e-02,
          1.26359850e-01, 1.07981369e-01, 1.60272643e-01, 6.93979487e-02,
          1.52422145e-01, 6.22086599e-02, 2.15378597e-01, 50., 9., 9.,
          9., 12., 3., 0., 3., 7., 4., 1., 8., 3., 1., 1., 24., 22., 12.,
          10., 4., 19., 7., 3., 3., 8., 7., 6., 9., 3., 3., 0. ]
      - [ 1.87932163e-01, 1.03457749e-01, 1.97848409e-01, 4.50494856e-01,
          1.83953226e-01, 4.22196612e-02, 2.47498229e-01, 0.,
          5.62806726e-02, 2.40297183e-01, 1.03771210e-01, 3.58397216e-01,
          1.66037038e-01, 0., 3.75225693e-01, 5.30089736e-01,
          6.17451370e-02, 5.62806726e-02, 9.84710991e-01, 9.04357284e-02,
          1.73242003e-01, 2.21532524e-01, 1.25104308e-01, 2.45648716e-02,
          8.47090110e-02, 1.02100089e-01, 7.69083500e-02, 8.50874558e-02,
          7.09918514e-02, 4.88557201e-03, 8.60167742e-02, 7.75061473e-02,
          7.04304799e-02, 8.17615837e-02, 8.02482441e-02, 1.70516968e-01,
          7.34823495e-02, 1.61554292e-01, 6.60738721e-02, 2.36734986e-01,
          20., 9., 2., 9., 3., 1., 7., 5., 6., 10., 0., 5., 5., 7., 11.,
          44., 4., 3., 4., 3., 3., 11., 3., 7., 3., 3., 5., 13., 4., 14.,
          10., 54., 0., 5.61920684e-43, 0., 0., 7.54971862e-01, 0.,
          9.83464718e-01, 0., 0., 9.13531780e-02, 4.03153300e-01, 0.,
          9.11914483e-02, 1.27975985e-01, 0., 2.00773194e-01,
          7.52972186e-01, 0., 6.69451892e-01, 8.17113459e-01,
          1.17177442e-01, 2.24471260e-02, 0., 9.80055481e-02,
          8.97885039e-02 ]
      - [ 12., 4., 5., 3., 2., 2., 5., 3., 7., 4., 26., 22., 4., 2., 16.,
          27., 0., 5.61920684e-43, 0., 0., 3.92376810e-01, 0.,
          3.07132989e-01, 5.37428260e-01, 0., 2.24566028e-01, 0., 0., 0.,
          0., 1.91577300e-01, 2.36886680e-01, 6.34664834e-01,
          9.85604450e-02, 2.70726323e-01, 4.67208564e-01, 2.17168346e-01,
          2.39457458e-01, 0., 0., 0., 0., 1.60405234e-01, 0.,
          5.81982136e-01, 2.94131130e-01, 6.05053425e-01, 3.55459988e-01,
          0., 0., 0., 8.38291943e-02, 1.73052549e-01, 1.19495645e-01,
          6.09758757e-02, 0., 9.19718862e-01, 2.02705652e-01, 1.,
          6.72538340e-01, 0., 0., 0., 9.20112282e-02, 5.77967055e-02, 0.,
          0., 2.36886680e-01, 7.66285658e-02, 9.92328748e-02,
          8.73165131e-02, 7.81782717e-02, 5.42920865e-02, 5.15581621e-03,
          0., 8.79202113e-02, 4.61698510e-02, 1.19495645e-01,
          8.25916827e-02, 1.84937149e-01, 7.68623799e-02, 1.88997433e-01,
          6.22270405e-02, 2.43068755e-01, 38., 8., 5., 15., 7., 2., 4.,
          9., 9., 2., 0., 2., 12. ]
      - [ 5., 1., 5., 6., 36., 7., 21., 3., 7., 3., 7., 0., 15., 9., 12.,
          4., 5., 0., 5., 10., 0., 5.61920684e-43, 0., 0.,
          6.75243318e-01, 1.45031989e-01, 4.80524778e-01, 1.50976568e-01,
          0., 4.86452058e-02, 1.92073286e-01, 9.03044268e-02, 0.,
          5.12870431e-01, 0., 0., 1.81305528e-01, 0., 7.23418295e-01,
          1.16383754e-01, 1.26074761e-01, 0., 3.54740620e-01,
          2.00311154e-01, 2.49901131e-01, 1., 0., 1.16523765e-01,
          4.18078005e-01, 2.68466324e-01, 5.97078919e-01, 1.27528340e-01,
          7.25159943e-02, 6.48602769e-02, 9.60259512e-02, 0.,
          9.72904116e-02, 7.79859424e-01, 3.06675375e-01, 1.29720554e-01,
          1.99708551e-01, 0., 6.68996692e-01, 2.74701089e-01, 0.,
          3.43090177e-01, 6.14744961e-01, 2.49676511e-01, 8.10753405e-02,
          9.18953955e-01, 0., 3.78837413e-03, 1.13410421e-01,
          1.37832776e-01, 9.14821699e-02, 7.43988603e-02, 9.92953777e-02,
          5.56823984e-03, 8.98274854e-02, 1.08058415e-01, 7.13778138e-02,
          9.73237529e-02, 1.02225125e-01, 1.79886863e-01, 7.50180632e-02,
          1.80470422e-01, 6.39449283e-02, 2.52711415e-01, 59., 5., 5.,
          14., 3., 3., 1., 8., 6. ]
      - [ 5.20873331e-02, 8.94351900e-02, 1.06120251e-01, 1.84396267e-01,
          7.93941766e-02, 1.89009711e-01, 7.52719790e-02, 2.14933798e-01,
          48., 10., 14., 9., 7., 2., 2., 2., 9., 2., 0., 4., 17., 3., 5.,
          10., 39., 9., 14., 2., 9., 3., 5., 0., 13., 4., 2., 11., 4.,
          0., 14., 15., 0., 5.61920684e-43, 0., 2.38263354e-01,
          7.43288696e-01, 1.18050970e-01, 0., 4.10335273e-01,
          6.61306456e-02, 0., 0., 0., 6.61306456e-02, 1.78415269e-01,
          1.24803863e-01, 4.95360434e-01, 7.01830268e-01, 0.,
          4.24063832e-01, 1., 0., 2.38225743e-01, 9.91204530e-02,
          7.83257559e-02, 1.36795193e-01, 8.57371762e-02, 0.,
          3.09966326e-01, 3.39337707e-01, 1.38457447e-01, 4.97016013e-01,
          4.25331324e-01, 0., 0., 2.46293262e-01, 1.10146478e-01, 0.,
          2.41959035e-01, 2.75887012e-01, 3.03090245e-01, 7.17922032e-01,
          0., 1.87100664e-01, 8.65508199e-01, 0., 1.64455533e-01,
          1.78856120e-01, 0., 1.38150275e-01, 2.55649477e-01,
          1.81680307e-01, 3.36670071e-01, 9.62453336e-02, 1.28254205e-01,
          1.00743681e-01, 9.00391564e-02, 6.61306456e-02 ]
      - [ 4.49729681e-01, 6.37809753e-01, 0., 2.26864055e-01,
          3.21941346e-01, 1.22034408e-01, 7.26619661e-02, 4.41562474e-01,
          8.22791010e-02, 4.28361773e-01, 2.61199325e-01, 0.,
          7.26619661e-02, 6.14813089e-01, 0., 3.86016704e-02,
          2.28216469e-01, 2.06608310e-01, 7.26619661e-02, 3.15490901e-01,
          1.81871474e-01, 3.63309830e-01, 6.43069208e-01, 2.89462149e-01,
          2.85021931e-01, 6.15604401e-01, 7.14545026e-02, 3.65935951e-01,
          5.49591482e-01, 2.06667677e-01, 0., 4.47177172e-01,
          1.36586085e-01, 6.26949780e-03, 1.10434510e-01, 1.33852273e-01,
          1.27566710e-01, 9.90819708e-02, 7.14545026e-02, 9.32657626e-03,
          1.00209080e-01, 8.63825604e-02, 7.26619661e-02, 1.00352548e-01,
          1.07160352e-01, 1.64999962e-01, 7.11800158e-02, 1.56344861e-01,
          6.48895428e-02, 2.16275394e-01, 35., 1., 2., 1., 2., 1., 14.,
          0., 2., 13., 1., 0., 9., 0., 1., 62., 0., 1., 0., 1., 2., 37.,
          1., 14., 0., 1., 0., 1., 2., 13., 9., 62., 0., 5.61920684e-43,
          0., 2.21944436e-01, 3.79641056e-01, 0., 4.08625692e-01,
          9.03285295e-02, 2.50302315e-01, 1.64837882e-01, 1.94023058e-01,
          2.02268101e-02, 0., 4.48966563e-01, 3.84784698e-01 ]
      - [ 10., 3., 0., 2., 8., 3., 2., 1., 13., 3., 6., 9., 7., 7., 7.,
          3., 5., 2., 7., 3., 5., 5., 40., 17., 4., 2., 19., 11., 0.,
          5.61920684e-43, 0., 0., 2.72584379e-01, 0., 1.69301778e-01,
          3.54691863e-01, 4.84208530e-03, 0., 3.16136688e-01,
          3.50136310e-02, 6.92942888e-02, 1.08000614e-01, 5.11471331e-02,
          0., 1., 0., 2.00925052e-01, 3.33198071e-01, 0., 0.,
          4.85037357e-01, 7.29355216e-02, 3.43147144e-02, 2.63872594e-01,
          0., 1.03297822e-01, 6.15819693e-01, 0., 2.82643318e-01,
          2.60604709e-01, 6.13330789e-02, 5.36527932e-02, 6.73806146e-02,
          0., 4.61961888e-02, 2.60690331e-01, 3.05526495e-01, 0.,
          9.13399339e-01, 6.65363520e-02, 9.20562372e-02, 6.60719872e-01,
          0., 0., 2.52026528e-01, 1.42707244e-01, 2.07882851e-01,
          4.63177025e-01, 0., 1.03297822e-01, 8.24059844e-02,
          6.65363520e-02, 7.44926408e-02, 6.43685833e-02, 3.30875814e-02,
          6.70659938e-04, 6.59165382e-02, 6.26640990e-02, 4.47110049e-02,
          7.82671794e-02, 8.91684070e-02, 1.90379679e-01, 7.94971064e-02,
          2.02154994e-01, 7.30107352e-02, 2.72000164e-01, 32. ]
      - [ 1., 5.73857203e-02, 5.64356685e-01, 2.16135710e-01, 0., 0.,
          2.02585891e-01, 0., 1.66131407e-01, 1.77716374e-01, 0.,
          1.38099253e-01, 9.40685868e-01, 1.55282527e-01, 6.16355598e-01,
          4.23293233e-01, 1.37474507e-01, 2.19466329e-01, 0.,
          9.46563855e-02, 0., 3.05266649e-01, 1.44293159e-01,
          1.24657892e-01, 9.54980850e-02, 1.15110345e-01, 9.86937582e-02,
          1.04436725e-01, 1.37474507e-01, 4.58461465e-03, 1.04076400e-01,
          1.10807076e-01, 8.19905475e-02, 1.16240859e-01, 1.04814433e-01,
          1.52974755e-01, 6.57908544e-02, 1.46529004e-01, 5.57229482e-02,
          2.15441748e-01, 5., 0., 0., 6., 5., 0., 3., 3., 1., 4., 3.,
          13., 7., 6., 16., 72., 0., 1., 0., 2., 2., 1., 3., 3., 0., 3.,
          6., 8., 3., 5., 13., 94., 0., 5.61920684e-43, 0.,
          1.16552658e-01, 9.43719670e-02, 0., 5.21983325e-01,
          3.72031599e-01, 3.06268912e-02, 1.17151603e-01, 5.60791969e-01,
          1.10603482e-01, 1.67712495e-01, 1.72832057e-01, 3.33955139e-01,
          2.78192520e-01, 3.57563168e-01, 9.34145376e-02, 6.31116867e-01,
          3.60220894e-02, 1.08028367e-01, 7.72028789e-02, 1.,
          1.85147583e-01, 1.61042124e-01 ]
      - [ 5.88802576e-01, 4.39812504e-02, 3.16508889e-01, 9.98604715e-01,
          7.39881843e-02, 7.16606602e-02, 1.76668271e-01, 0.,
          1.46447808e-01, 1.20933637e-01, 4.78439853e-02, 4.65586632e-01,
          5.75311363e-01, 2.49646693e-01, 2.44494006e-01, 6.59855604e-01,
          9.66224074e-02, 9.50791612e-02, 1.15962356e-01, 0.,
          2.83471309e-02, 0., 1.16878211e-01, 1.21412866e-01,
          6.67931736e-01, 0., 4.31163758e-01, 1., 1.13530301e-01, 0.,
          7.47531727e-02, 8.62872154e-02, 0., 1.60355583e-01,
          1.01968743e-01, 3.26441810e-03, 8.51571262e-02, 9.78759825e-02,
          7.51207545e-02, 8.35994482e-02, 9.47136283e-02, 2.25324091e-03,
          5.96510731e-02, 7.34701529e-02, 5.21645360e-02, 8.30057859e-02,
          8.88969824e-02, 1.80754498e-01, 7.62167349e-02, 1.80262148e-01,
          6.60233498e-02, 2.33793899e-01, 42., 17., 13., 8., 13., 4., 6.,
          5., 8., 2., 1., 4., 3., 9., 1., 8., 16., 9., 16., 4., 4., 5.,
          5., 3., 14., 2., 24., 15., 5., 1., 8., 13., 0., 5.61920684e-43,
          0., 2.61984825e-01, 2.01495394e-01, 0., 8.77817452e-01,
          2.01470315e-01, 1.19561903e-01, 0., 6.22826219e-01, 0.,
          6.96933866e-01 ]
      - [ 6., 1., 12., 5., 33., 15., 1., 6., 14., 10., 0.,
          5.61920684e-43, 0., 7.59944171e-02, 0., 0., 2.54893035e-01,
          3.79891962e-01, 0., 8.76886398e-02, 6.97519362e-01, 0.,
          4.06504780e-01, 1.22537315e-01, 1.31853089e-01, 3.64982188e-02,
          1.92252353e-01, 6.49852231e-02, 1.99806571e-01, 5.96797347e-01,
          1.10703558e-01, 2.34367847e-01, 7.10016012e-01, 8.10577720e-02,
          1.02750666e-01, 5.76582432e-01, 1.35365054e-01, 3.39857377e-02,
          7.80512154e-01, 1.26669735e-01, 4.10735041e-01, 4.80471194e-01,
          7.37726465e-02, 0., 5.97022951e-01, 4.57546972e-02,
          2.60722190e-01, 0., 0., 2.67238766e-01, 3.31235439e-01,
          2.85137326e-01, 2.52534121e-01, 5.86404741e-01, 8.12315270e-02,
          6.79714754e-02, 1., 3.33567947e-01, 0., 7.09033310e-01, 0.,
          1.03429288e-01, 1.62999988e-01, 1.19198069e-01, 1.11796878e-01,
          9.73126292e-02, 8.85692462e-02, 4.43213573e-03, 1.03605457e-01,
          9.20760855e-02, 6.99979737e-02, 1.00582361e-01, 1.33609071e-01,
          1.65133849e-01, 7.00689703e-02, 1.66661292e-01, 6.56657442e-02,
          2.00573161e-01, 8., 3., 5., 22., 3., 2., 0., 7., 6., 1., 2.,
          4., 26., 5., 3., 47., 8., 2., 2. ]
      - [ 3.82583231e-01, 5.58321059e-01, 1.28407702e-01, 0.,
          4.05962050e-01, 0., 2.45370582e-01, 4.52922434e-01,
          2.94283241e-01, 0., 7.53154039e-01, 1.17932916e-01,
          2.63214946e-01, 9.74293292e-01, 6.64432421e-02, 8.97763669e-02,
          2.38926977e-01, 0., 2.77839184e-01, 2.39423484e-01,
          4.73969094e-02, 2.11062491e-01, 1.03627779e-01, 9.70256776e-02,
          1.05401173e-01, 9.38345790e-02, 9.38453376e-02, 3.58074112e-03,
          9.98986587e-02, 9.28834975e-02, 8.50594491e-02, 1.29067943e-01,
          1.08531818e-01, 1.82664022e-01, 7.65549093e-02, 1.86415568e-01,
          6.74796179e-02, 2.44236678e-01, 32., 8., 9., 3., 7., 8., 5.,
          7., 13., 4., 6., 7., 8., 5., 6., 16., 21., 3., 8., 4., 3., 3.,
          4., 4., 3., 6., 30., 6., 3., 7., 13., 26., 0., 5.61920684e-43,
          0., 3.53227228e-01, 7.03915119e-01, 1.15382284e-01,
          3.34431410e-01, 3.13103348e-01, 0., 8.40602219e-02,
          2.02743188e-01, 0., 1.67892009e-01, 1.22811392e-01,
          1.57154113e-01, 2.64646739e-01, 7.59625793e-01, 0.,
          1.11477137e-01, 9.10018265e-01, 2.69100010e-01, 1.08466104e-01,
          8.96535143e-02, 0., 7.33484253e-02, 3.00182074e-01, 0. ]
      - [ 1., 4.02942598e-01, 1.25251710e-01, 0., 0., 0., 7.10587949e-02,
          0., 0., 0., 1.48125902e-01, 0., 7.73708045e-01, 5.25494754e-01,
          0., 0., 7.58101195e-02, 0., 5.36058508e-02, 4.75762822e-02, 0.,
          1.00924529e-01, 5.93075335e-01, 0., 6.80381954e-01,
          2.22778827e-01, 1.12740576e-01, 2.63905730e-02, 0., 0.,
          1.83675751e-01, 1.97449312e-01, 0., 1.00924529e-01,
          8.53661224e-02, 0., 7.51229599e-02, 7.84752071e-02,
          6.29887506e-02, 2.42115348e-04, 7.50817358e-02, 0.,
          6.16680793e-02, 6.12563975e-02, 0., 1.22457199e-01,
          5.24629392e-02, 1.14087425e-01, 4.75475118e-02, 1.78687066e-01,
          0., 0., 0., 0., 0., 0., 0., 0., 0., 0., 0., 0., 0., 0., 0.,
          144., 0., 0., 0., 0., 0., 0., 0., 0., 0., 0., 0., 0., 0., 0.,
          0., 144., 0., 5.61920684e-43, 0., 8.72608051e-02,
          1.01378925e-01, 0., 2.54882604e-01, 2.06007481e-01, 0., 0.,
          7.73955882e-01, 0., 3.45550179e-01, 3.10585946e-01,
          1.50129691e-01 ]
      - [ 52., 12., 6., 9., 13., 3., 1., 8., 8., 2., 2., 1., 7., 4., 2.,
          14., 32., 7., 12., 6., 8., 1., 3., 1., 10., 4., 16., 12., 4.,
          2., 8., 18., 0., 5.61920684e-43, 0., 0., 5.80070972e-01,
          2.18977749e-01, 3.48502845e-01, 8.59499574e-01, 0.,
          3.88524719e-02, 0., 0., 0., 2.20024094e-01, 3.94183517e-01,
          6.97070360e-01, 9.14332986e-01, 0., 1.55409887e-01,
          2.80528814e-01, 0., 4.25259501e-01, 3.68138254e-01,
          5.63235208e-02, 0., 2.19782770e-01, 5.30066229e-02,
          2.64481544e-01, 1.81654945e-01, 0., 5.43934584e-01, 1., 0.,
          2.31905475e-01, 4.07858759e-01, 0., 1.42111406e-01,
          2.21825704e-01, 0., 2.71967292e-01, 3.27122629e-01,
          1.30766854e-01, 0., 3.29888552e-01, 1.16784848e-01,
          1.81739450e-01, 8.78665447e-01, 0., 1.43253058e-01,
          6.25566304e-01, 0., 4.11173075e-01, 1.54090881e-01,
          1.16581537e-01, 1.30980909e-01, 1.23495854e-01, 1.16784848e-01,
          7.69962184e-03, 1.27281725e-01, 5.63235208e-02, 1.42682225e-01,
          1.07266575e-01, 1.11797534e-01, 1.43464297e-01, 5.89661896e-02 ]
      - [ 4., 7., 5., 17., 3., 7., 10., 3., 4., 10., 7., 40., 0.,
          5.61920684e-43, 0., 2.33836785e-01, 6.48915589e-01, 0.,
          5.23560345e-01, 2.99472600e-01, 0., 8.54046866e-02,
          1.41055390e-01, 7.79681578e-02, 1.12594374e-01, 1.30502790e-01,
          2.85831075e-02, 0., 1., 0., 4.35960531e-01, 5.79345345e-01, 0.,
          6.84434772e-02, 1.61647409e-01, 4.14459229e-01, 3.00251674e-02,
          7.26352185e-02, 1.23796932e-01, 1.21706277e-01, 4.04726803e-01,
          0., 6.00297391e-01, 8.76825571e-01, 0., 7.63709843e-02, 0., 0.,
          3.55545729e-01, 0., 9.01536569e-02, 3.56753767e-01,
          9.26432550e-01, 0., 4.66011345e-01, 8.66551399e-01, 0.,
          9.85915437e-02, 1.56917766e-01, 0., 8.90136696e-03,
          1.33810312e-01, 3.24799925e-01, 1.42459363e-01, 8.51449966e-02,
          0., 8.44095647e-02, 8.74064937e-02, 0., 4.32645669e-03,
          9.19241086e-02, 9.84854773e-02, 5.63407354e-02, 8.42370838e-02,
          9.45555940e-02, 1.77247316e-01, 7.34946951e-02, 1.74199000e-01,
          6.54744804e-02, 2.42658287e-01, 22., 15., 5., 5., 9., 8., 8.,
          12., 6., 4., 5., 7., 11., 7., 2., 18., 7. ]
      - [ 6.06968105e-02, 5.89939237e-01, 5.14296412e-01, 7.70590529e-02,
          2.18791425e-01, 9.15820375e-02, 2.71043092e-01, 2.00891271e-01,
          7.88759813e-02, 0., 8.10801625e-01, 2.66225096e-02,
          2.06618205e-01, 5.66004574e-01, 3.24643284e-01, 1.25129670e-01,
          4.12268043e-01, 0., 3.31955850e-01, 2.89140731e-01, 0.,
          3.57505679e-02, 5.99204302e-01, 0., 2.12822899e-01,
          5.16251326e-01, 1.10294670e-01, 5.19985735e-01, 7.66425371e-01,
          0., 4.35432702e-01, 2.84819663e-01, 7.82060474e-02,
          1.22928746e-01, 1., 7.51144588e-02, 6.06968105e-02,
          7.33444393e-01, 0., 6.81436714e-03, 1.27044067e-01,
          9.15820375e-02, 8.83879662e-02, 9.79914367e-02, 7.85410106e-02,
          2.68580299e-03, 8.81561860e-02, 5.08684851e-02, 6.00927547e-02,
          8.59156996e-02, 1.05470486e-01, 2.09750891e-01, 8.77914503e-02,
          2.18902007e-01, 7.19719976e-02, 3.06877881e-01, 24., 11., 4.,
          8., 11., 2., 1., 1., 9., 0., 2., 0., 12., 5., 11., 43., 12.,
          6., 5., 3., 11., 5., 3., 3., 5., 6., 12., 3., 4., 1., 15., 50.,
          0., 5.61920684e-43, 0., 7.72105018e-03, 5.63274026e-01, 0.,
          7.34798312e-01, 5.62002599e-01, 0. ]
      - [ 6.54084742e-01, 0., 2.93473989e-01, 2.57965952e-01,
          6.14712238e-02, 0., 1.81678355e-01, 0., 4.18755002e-02, 0.,
          8.63927752e-02, 0., 1., 0., 0., 1.32384598e-01, 5.07360958e-02,
          2.45863438e-01, 3.65631610e-01, 3.92324254e-02, 0., 0.,
          1.52315184e-01, 5.73679544e-02, 6.38502419e-01, 0.,
          2.34486833e-01, 5.83462231e-02, 7.45991021e-02, 0.,
          1.27793208e-01, 2.12595668e-02, 4.12117578e-02, 4.02451158e-01,
          0., 1.30507722e-01, 4.34853971e-01, 6.11169524e-02,
          8.24235156e-02, 5.73322892e-01, 3.22545879e-02, 2.83404011e-02,
          3.68036270e-01, 0., 0., 2.31103346e-01, 5.26904501e-02,
          1.44519750e-03, 7.37146214e-02, 3.05584762e-02, 6.10384345e-02,
          6.38762265e-02, 5.47652543e-02, 3.04670935e-03, 6.13611452e-02,
          3.02459970e-02, 4.15436290e-02, 6.33554533e-02, 4.85664010e-02,
          1.73036605e-01, 7.27811456e-02, 1.78546995e-01, 6.29395396e-02,
          2.53940612e-01, 7., 5., 6., 11., 8., 7., 6., 17., 8., 10., 8.,
          5., 11., 13., 8., 14., 1., 2., 1., 2., 3., 6., 4., 11., 4., 3.,
          14., 22., 5., 10., 20., 36., 0. ]
      - [ 7., 1., 0., 0., 14., 0., 5., 28., 4., 3., 4., 1., 3., 3., 2.,
          5., 4., 2., 43., 21., 1., 1., 17., 30., 0., 5.61920684e-43, 0.,
          0., 0., 0., 0., 0., 0., 2.63760984e-01, 5.82489610e-01, 0.,
          1.70774922e-01, 3.71574163e-01, 0., 7.81059623e-01,
          1.82169795e-01, 0., 0., 3.68682653e-01, 0., 5.35700619e-01, 1.,
          0., 0., 4.51900482e-01, 0., 8.16040337e-01, 5.52292585e-01, 0.,
          0., 4.36195672e-01, 2.79513150e-01, 1.32902816e-01,
          3.74465764e-01, 0., 0., 3.73025566e-01, 0., 7.72557318e-01,
          1.80729792e-01, 2.18233213e-01, 0., 3.71596754e-01,
          1.70774922e-01, 3.31470430e-01, 9.20463204e-01, 0.,
          2.69894958e-01, 1.27754360e-01, 0., 1.80889871e-02,
          1.83038443e-01, 2.18233213e-01, 0., 1.96079180e-01,
          1.50096014e-01, 8.59751552e-03, 1.91827908e-01, 0.,
          1.46889970e-01, 1.89179212e-01, 0., 8.85713100e-02,
          3.27945165e-02, 8.05842876e-02, 3.41977030e-02, 1.11969203e-01,
          32., 0., 1., 28., 7. ]
      - [ 9.69011784e-02, 1.55082703e-01, 6.36041760e-02, 1.52545288e-01,
          6.08865917e-02, 2.15360507e-01, 34., 8., 10., 15., 11., 6., 0.,
          12., 8., 3., 1., 1., 4., 3., 3., 25., 38., 2., 9., 4., 1., 0.,
          2., 2., 7., 2., 15., 21., 7., 0., 4., 30., 0., 5.61920684e-43,
          0., 1.56767786e-01, 3.19964468e-01, 4.03068140e-02,
          3.51033479e-01, 0., 0., 1.19800791e-01, 7.12309003e-01,
          1.06002674e-01, 6.46674931e-02, 1.60813600e-01, 1.76860586e-01,
          4.03641969e-01, 4.32218105e-01, 0., 5.84547937e-01,
          2.94910729e-01, 6.32385314e-02, 1.07069418e-01, 4.79982883e-01,
          7.04482794e-02, 0., 1., 0., 1.13124527e-01, 1.01969071e-01,
          1.59696728e-01, 6.18273318e-01, 2.57376373e-01, 0.,
          1.62770152e-01, 6.72434568e-01, 1.60651565e-01, 0.,
          3.21020156e-01, 4.40730989e-01, 5.84669888e-01, 5.21017075e-01,
          0., 1.69686794e-01, 3.67485970e-01, 0., 0., 7.60936260e-01,
          1.10826120e-01, 0., 9.39275265e-01, 4.74175990e-01,
          1.14382200e-01, 1.37516886e-01, 6.66678473e-02, 9.07127112e-02,
          1.02197014e-01, 6.32385314e-02, 5.81552787e-03, 8.75220969e-02 ]
      - [ 4., 8., 21., 8., 9., 5., 4., 1., 4., 3., 11., 3., 30., 11., 6.,
          1., 13., 14., 0., 5.61920684e-43, 0., 2.81320989e-01,
          9.73829925e-01, 0., 5.43613970e-01, 2.85688400e-01, 0.,
          6.51136860e-02, 2.24901304e-01, 3.61834586e-01, 2.03855231e-01,
          0., 0., 0., 8.22149396e-01, 0., 7.86045909e-01, 5.69011867e-01,
          0., 2.70317554e-01, 2.91812360e-01, 2.40922570e-01,
          1.36333466e-01, 2.07351640e-01, 1.42983109e-01, 0.,
          4.17525083e-01, 0., 8.85653496e-01, 3.76861542e-01, 0.,
          7.52043054e-02, 0., 9.78708714e-02, 3.99887085e-01,
          3.82473350e-01, 0., 3.88030350e-01, 6.64233863e-01,
          2.71077573e-01, 6.03619039e-01, 1., 0., 0., 0., 0.,
          1.35903493e-01, 7.30279148e-01, 5.21229692e-02, 1.33870274e-01,
          1.02776363e-01, 9.03591886e-02, 1.04404911e-01, 1.01434618e-01,
          0., 5.62514458e-03, 8.61189440e-02, 8.75785053e-02,
          7.96344802e-02, 1.01546474e-01, 6.50353581e-02, 1.82781249e-01,
          8.18972588e-02, 1.73786283e-01, 6.91144913e-02, 2.57990628e-01,
          54., 1., 6., 15., 3., 3., 2., 3., 12., 1., 0. ]
      - [ 5., 5., 7., 2., 7., 10., 5., 6., 12., 41., 0., 5.61920684e-43,
          0., 1.81451127e-01, 4.54527020e-01, 1.18703976e-01,
          2.50087589e-01, 5.25445580e-01, 0., 1.52502969e-01, 0., 0., 0.,
          1.54761329e-01, 0., 3.75653923e-01, 5.41363299e-01,
          8.96101668e-02, 1.70618862e-01, 5.07842422e-01, 0., 0., 0.,
          2.39042953e-01, 0., 4.77625281e-01, 1.91685408e-01,
          1.92616001e-01, 4.80556488e-01, 4.20863405e-02, 4.09234256e-01,
          5.14765382e-01, 0., 0., 1.44852400e-01, 5.32478020e-02,
          1.13676183e-01, 1.05402194e-01, 6.53985441e-02, 9.09409449e-02,
          7.09334314e-01, 8.06851909e-02, 6.36484861e-01, 1.,
          5.08375354e-02, 8.48357305e-02, 8.63162652e-02, 0.,
          1.06542498e-01, 1.73842788e-01, 0., 1.20094575e-01,
          7.53717646e-02, 6.62171394e-02, 8.14680830e-02, 6.53347000e-02,
          5.08375354e-02, 3.34279845e-03, 7.70562217e-02, 5.84581494e-02,
          4.40437384e-02, 8.28756019e-02, 6.42709881e-02, 2.02290595e-01,
